{"learner":{"attributes":{},"feature_names":[],"feature_types":[],"gradient_booster":{"model":{"cats":{"enc":[],"feature_segments":[],"sorted_idx":[]},"gbtree_model_param":{"num_parallel_tree":"1","num_trees":"269"},"iteration_indptr":[0,1,2,3,4,5,6,7,8,9,10,11,12,13,14,15,16,17,18,19,20,21,22,23,24,25,26,27,28,29,30,31,32,33,34,35,36,37,38,39,40,41,42,43,44,45,46,47,48,49,50,51,52,53,54,55,56,57,58,59,60,61,62,63,64,65,66,67,68,69,70,71,72,73,74,75,76,77,78,79,80,81,82,83,84,85,86,87,88,89,90,91,92,93,94,95,96,97,98,99,100,101,102,103,104,105,106,107,108,109,110,111,112,113,114,115,116,117,118,119,120,121,122,123,124,125,126,127,128,129,130,131,132,133,134,135,136,137,138,139,140,141,142,143,144,145,146,147,148,149,150,151,152,153,154,155,156,157,158,159,160,161,162,163,164,165,166,167,168,169,170,171,172,173,174,175,176,177,178,179,180,181,182,183,184,185,186,187,188,189,190,191,192,193,194,195,196,197,198,199,200,201,202,203,204,205,206,207,208,209,210,211,212,213,214,215,216,217,218,219,220,221,222,223,224,225,226,227,228,229,230,231,232,233,234,235,236,237,238,239,240,241,242,243,244,245,246,247,248,249,250,251,252,253,254,255,256,257,258,259,260,261,262,263,264,265,266,267,268,269],"tree_info":[0,0,0,0,0,0,0,0,0,0,0,0,0,0,0,0,0,0,0,0,0,0,0,0,0,0,0,0,0,0,0,0,0,0,0,0,0,0,0,0,0,0,0,0,0,0,0,0,0,0,0,0,0,0,0,0,0,0,0,0,0,0,0,0,0,0,0,0,0,0,0,0,0,0,0,0,0,0,0,0,0,0,0,0,0,0,0,0,0,0,0,0,0,0,0,0,0,0,0,0,0,0,0,0,0,0,0,0,0,0,0,0,0,0,0,0,0,0,0,0,0,0,0,0,0,0,0,0,0,0,0,0,0,0,0,0,0,0,0,0,0,0,0,0,0,0,0,0,0,0,0,0,0,0,0,0,0,0,0,0,0,0,0,0,0,0,0,0,0,0,0,0,0,0,0,0,0,0,0,0,0,0,0,0,0,0,0,0,0,0,0,0,0,0,0,0,0,0,0,0,0,0,0,0,0,0,0,0,0,0,0,0,0,0,0,0,0,0,0,0,0,0,0,0,0,0,0,0,0,0,0,0,0,0,0,0,0,0,0,0,0,0,0,0,0,0,0,0,0,0,0,0,0,0,0,0,0,0,0,0,0,0,0,0,0,0,0,0,0],"trees":[{"base_weights":[1.529502E-1,5.119094E0,-1.9831142E0,7.597361E0,1.1556478E0,4.664768E-1,-6.2115746E0,1.6730944E-2,1.0992293E-1,3.2459166E-2,8.723138E-4,4.907368E-3,3.3081234E-2,-8.5160226E-2,-1.2139788E-1],"categories":[],"categories_nodes":[],"categories_segments":[],"categories_sizes":[],"default_left":[0,0,0,0,0,0,0,0,0,0,0,0,0,0,0],"id":0,"left_children":[1,3,5,7,9,11,13,-1,-1,-1,-1,-1,-1,-1,-1],"loss_changes":[1.7035996E4,4.7354775E3,1.163493E4,1.08859375E2,2.2630281E2,1.6224876E2,2.0710059E2,0E0,0E0,0E0,0E0,0E0,0E0,0E0,0E0],"parents":[2147483647,0,0,1,1,2,2,3,3,4,4,5,5,6,6],"right_children":[2,4,6,8,10,12,14,-1,-1,-1,-1,-1,-1,-1,-1],"split_conditions":[1E0,1E0,1E0,-2.3002222E0,2.928698E-3,1.5568172E0,1E0,1.6730944E-2,1.0992293E-1,3.2459166E-2,8.723138E-4,4.907368E-3,3.3081234E-2,-8.5160226E-2,-1.2139788E-1],"split_indices":[8,13,13,3,3,4,16,0,0,0,0,0,0,0,0],"split_type":[0,0,0,0,0,0,0,0,0,0,0,0,0,0,0],"sum_hessian":[1.604E3,4.82E2,1.122E3,2.96E2,1.86E2,7.11E2,4.11E2,3E0,2.93E2,9.2E1,9.4E1,6.67E2,4.4E1,3.69E2,4.2E1],"tree_param":{"num_deleted":"0","num_feature":"23","num_nodes":"15","size_leaf_vector":"1"}},{"base_weights":[1.4453013E-1,5.106958E0,-2.0871186E0,7.408785E0,1.0600834E0,4.3293446E-1,-6.347679E0,9.277694E-2,1.2712494E-1,8.674482E-3,6.7427024E-2,-1.2012533E-2,4.4258073E-2,-1.0517117E-1,-4.9762055E-2],"categories":[],"categories_nodes":[],"categories_segments":[],"categories_sizes":[],"default_left":[0,0,0,0,0,0,0,0,0,0,0,0,0,0,0],"id":1,"left_children":[1,3,5,7,9,11,13,-1,-1,-1,-1,-1,-1,-1,-1],"loss_changes":[1.7707545E4,4.6124883E3,1.1845481E4,3.75125E2,2.972127E2,2.338807E3,1.1322617E3,0E0,0E0,0E0,0E0,0E0,0E0,0E0,0E0],"parents":[2147483647,0,0,1,1,2,2,3,3,4,4,5,5,6,6],"right_children":[2,4,6,8,10,12,14,-1,-1,-1,-1,-1,-1,-1,-1],"split_conditions":[1E0,1E0,1E0,2.394032E-1,1.2071401E0,5.371684E-1,6.8605095E-1,9.277694E-2,1.2712494E-1,8.674482E-3,6.7427024E-2,-1.2012533E-2,4.4258073E-2,-1.0517117E-1,-4.9762055E-2],"split_indices":[8,13,13,0,0,0,0,0,0,0,0,0,0,0,0],"split_type":[0,0,0,0,0,0,0,0,0,0,0,0,0,0,0],"sum_hessian":[1.597E3,4.95E2,1.102E3,3.15E2,1.8E2,6.93E2,4.09E2,1.94E2,1.21E2,1.61E2,1.9E1,4.69E2,2.24E2,3.04E2,1.05E2],"tree_param":{"num_deleted":"0","num_feature":"23","num_nodes":"15","size_leaf_vector":"1"}},{"base_weights":[6.1749425E-2,2.4100156E0,-3.885527E0,1.2909855E0,7.085479E0,-5.153327E0,1.5259963E0,6.9001317E-4,5.593751E-2,4.5365445E-2,1.0557198E-1,-9.130505E-2,-4.723232E-2,6.6532698E-3,6.740745E-2],"categories":[],"categories_nodes":[],"categories_segments":[],"categories_sizes":[],"default_left":[0,0,0,0,0,0,0,0,0,0,0,0,0,0,0],"id":2,"left_children":[1,3,5,7,9,11,13,-1,-1,-1,-1,-1,-1,-1,-1],"loss_changes":[1.4562096E4,5.1443564E3,4.028252E3,2.5785996E3,1.7837012E2,1.0480986E3,3.7510873E2,0E0,0E0,0E0,0E0,0E0,0E0,0E0,0E0],"parents":[2147483647,0,0,1,1,2,2,3,3,4,4,5,5,6,6],"right_children":[2,4,6,8,10,12,14,-1,-1,-1,-1,-1,-1,-1,-1],"split_conditions":[1E0,1E0,1E0,5.371684E-1,-1.3641539E0,3.138445E-1,7.6049227E-1,6.9001317E-4,5.593751E-2,4.5365445E-2,1.0557198E-1,-9.130505E-2,-4.723232E-2,6.6532698E-3,6.740745E-2],"split_indices":[13,9,9,0,1,0,0,0,0,0,0,0,0,0,0],"split_type":[0,0,0,0,0,0,0,0,0,0,0,0,0,0,0],"sum_hessian":[1.569E3,9.84E2,5.85E2,7.95E2,1.89E2,4.74E2,1.11E2,5.39E2,2.56E2,1.3E1,1.76E2,2.86E2,1.88E2,8.4E1,2.7E1],"tree_param":{"num_deleted":"0","num_feature":"23","num_nodes":"15","size_leaf_vector":"1"}},{"base_weights":[5.3056736E-2,4.9195795E0,-2.075283E0,3.0062525E0,7.474589E0,-3.6545546E0,3.6426058E-1,3.0817812E-2,7.5727575E-2,9.9054456E-2,1.1890138E-1,-7.134034E-2,-1.5421685E-2,-1.177492E-2,4.2498626E-2],"categories":[],"categories_nodes":[],"categories_segments":[],"categories_sizes":[],"default_left":[0,0,0,0,0,0,0,0,0,0,0,0,0,0,0],"id":3,"left_children":[1,3,5,7,9,11,13,-1,-1,-1,-1,-1,-1,-1,-1],"loss_changes":[1.6748115E4,2.382705E3,4.3356216E3,5.405281E2,4.026367E1,2.3139727E3,1.3653258E3,0E0,0E0,0E0,0E0,0E0,0E0,0E0,0E0],"parents":[2147483647,0,0,1,1,2,2,3,3,4,4,5,5,6,6],"right_children":[2,4,6,8,10,12,14,-1,-1,-1,-1,-1,-1,-1,-1],"split_conditions":[1E0,1E0,1E0,6.8605095E-1,2.394032E-1,5.371684E-1,5.371684E-1,3.0817812E-2,7.5727575E-2,9.9054456E-2,1.1890138E-1,-7.134034E-2,-1.5421685E-2,-1.177492E-2,4.2498626E-2],"split_indices":[8,12,12,0,0,0,0,0,0,0,0,0,0,0,0],"split_type":[0,0,0,0,0,0,0,0,0,0,0,0,0,0,0],"sum_hessian":[1.615E3,4.91E2,1.124E3,2.82E2,2.09E2,6.82E2,4.42E2,2.06E2,7.6E1,1.28E2,8.1E1,4.51E2,2.31E2,3.04E2,1.38E2],"tree_param":{"num_deleted":"0","num_feature":"23","num_nodes":"15","size_leaf_vector":"1"}},{"base_weights":[-6.904103E-3,4.910619E0,-2.1005838E0,7.111328E0,9.437901E-1,2.901396E-1,-6.1666694E0,9.948153E-2,1.5700221E-1,2.759033E-2,-9.89457E-4,7.2308397E-3,-1.4247157E-2,-7.892701E-2,-9.675346E-2],"categories":[],"categories_nodes":[],"categories_segments":[],"categories_sizes":[],"default_left":[0,0,0,0,0,0,0,0,0,0,0,0,0,0,0],"id":4,"left_children":[1,3,5,7,9,11,13,-1,-1,-1,-1,-1,-1,-1,-1],"loss_changes":[1.6411393E4,4.1486914E3,1.086974E4,1.3481055E2,1.6960411E2,1.9374991E2,1.2171484E2,0E0,0E0,0E0,0E0,0E0,0E0,0E0,0E0],"parents":[2147483647,0,0,1,1,2,2,3,3,4,4,5,5,6,6],"right_children":[2,4,6,8,10,12,14,-1,-1,-1,-1,-1,-1,-1,-1],"split_conditions":[1E0,1E0,1E0,2.051541E0,2.928698E-3,1E0,-1.453359E-1,9.948153E-2,1.5700221E-1,2.759033E-2,-9.89457E-4,7.2308397E-3,-1.4247157E-2,-7.892701E-2,-9.675346E-2],"split_indices":[8,13,13,2,3,18,4,0,0,0,0,0,0,0,0],"split_type":[0,0,0,0,0,0,0,0,0,0,0,0,0,0,0],"sum_hessian":[1.592E3,4.75E2,1.117E3,3.05E2,1.7E2,7.04E2,4.13E2,2.94E2,1.1E1,8.6E1,8.4E1,6.04E2,1E2,1.96E2,2.17E2],"tree_param":{"num_deleted":"0","num_feature":"23","num_nodes":"15","size_leaf_vector":"1"}},{"base_weights":[1.20148905E-1,4.7432356E0,-1.9264443E0,2.7488976E0,7.131338E0,-3.5395522E0,4.3919167E-1,1.0074806E-2,9.26522E-2,9.118363E-2,1.1762177E-1,-8.5519664E-2,3.4613223E-3,-1.11093465E-2,4.2015288E-2],"categories":[],"categories_nodes":[],"categories_segments":[],"categories_sizes":[],"default_left":[0,0,0,0,0,0,0,0,0,0,0,0,0,0,0],"id":5,"left_children":[1,3,5,7,9,11,13,-1,-1,-1,-1,-1,-1,-1,-1],"loss_changes":[1.5355817E4,2.352213E3,4.2945845E3,2.066845E3,1.3503125E2,6.1201855E3,1.3819053E3,0E0,0E0,0E0,0E0,0E0,0E0,0E0,0E0],"parents":[2147483647,0,0,1,1,2,2,3,3,4,4,5,5,6,6],"right_children":[2,4,6,8,10,12,14,-1,-1,-1,-1,-1,-1,-1,-1],"split_conditions":[1E0,1E0,1E0,1E0,1.649619E-1,1E0,4.627271E-1,1.0074806E-2,9.26522E-2,9.118363E-2,1.1762177E-1,-8.5519664E-2,3.4613223E-3,-1.11093465E-2,4.2015288E-2],"split_indices":[8,12,12,11,0,11,0,0,0,0,0,0,0,0,0],"split_type":[0,0,0,0,0,0,0,0,0,0,0,0,0,0,0],"sum_hessian":[1.621E3,4.97E2,1.124E3,2.72E2,2.25E2,6.68E2,4.56E2,1.76E2,9.6E1,1.34E2,9.1E1,4.07E2,2.61E2,3.07E2,1.49E2],"tree_param":{"num_deleted":"0","num_feature":"23","num_nodes":"15","size_leaf_vector":"1"}},{"base_weights":[1.0325923E-1,4.8146057E0,-1.9087956E0,7.0298615E0,1.1488035E0,4.508499E-1,-5.8801584E0,5.6950018E-2,1.0452107E-1,3.390608E-2,5.305824E-4,-1.7317234E-2,8.154814E-3,-7.372989E-2,-9.317194E-2],"categories":[],"categories_nodes":[],"categories_segments":[],"categories_sizes":[],"default_left":[0,0,0,0,0,0,0,0,0,0,0,0,0,0,0],"id":6,"left_children":[1,3,5,7,9,11,13,-1,-1,-1,-1,-1,-1,-1,-1],"loss_changes":[1.520481E4,3.8898555E3,1.0535664E4,2.025166E2,2.4549884E2,1.3800093E2,1.5707031E2,0E0,0E0,0E0,0E0,0E0,0E0,0E0,0E0],"parents":[2147483647,0,0,1,1,2,2,3,3,4,4,5,5,6,6],"right_children":[2,4,6,8,10,12,14,-1,-1,-1,-1,-1,-1,-1,-1],"split_conditions":[1E0,1E0,1E0,-1.2745042E0,2.928698E-3,-1.4510971E0,-1.453359E-1,5.6950018E-2,1.0452107E-1,3.390608E-2,5.305824E-4,-1.7317234E-2,8.154814E-3,-7.372989E-2,-9.317194E-2],"split_indices":[8,13,13,1,3,4,4,0,0,0,0,0,0,0,0],"split_type":[0,0,0,0,0,0,0,0,0,0,0,0,0,0,0],"sum_hessian":[1.602E3,4.79E2,1.123E3,2.98E2,1.81E2,7.05E2,4.18E2,2.4E1,2.74E2,8.6E1,9.5E1,4.6E1,6.59E2,1.93E2,2.25E2],"tree_param":{"num_deleted":"0","num_feature":"23","num_nodes":"15","size_leaf_vector":"1"}},{"base_weights":[7.211223E-2,2.2693439E0,-3.5804062E0,1.3083673E0,6.2236814E0,-4.83225E0,1.2853613E0,5.2560675E-3,1.08915545E-1,7.897171E-2,1.1461148E-1,-8.0896154E-2,1.0334752E-2,7.87279E-3,8.087165E-2],"categories":[],"categories_nodes":[],"categories_segments":[],"categories_sizes":[],"default_left":[0,0,0,0,0,0,0,0,0,0,0,0,0,0,0],"id":7,"left_children":[1,3,5,7,9,11,13,-1,-1,-1,-1,-1,-1,-1,-1],"loss_changes":[1.2969192E4,3.826083E3,3.7035586E3,4.8078257E3,2.0640967E2,2.161001E3,3.9750366E2,0E0,0E0,0E0,0E0,0E0,0E0,0E0,0E0],"parents":[2147483647,0,0,1,1,2,2,3,3,4,4,5,5,6,6],"right_children":[2,4,6,8,10,12,14,-1,-1,-1,-1,-1,-1,-1,-1],"split_conditions":[1E0,1E0,1E0,1E0,6.116097E-1,1E0,1.1326988E0,5.2560675E-3,1.08915545E-1,7.897171E-2,1.1461148E-1,-8.0896154E-2,1.0334752E-2,7.87279E-3,8.087165E-2],"split_indices":[13,9,9,10,0,10,0,0,0,0,0,0,0,0,0],"split_type":[0,0,0,0,0,0,0,0,0,0,0,0,0,0,0],"sum_hessian":[1.614E3,1.008E3,6.06E2,8.12E2,1.96E2,4.82E2,1.24E2,7.07E2,1.05E2,1.42E2,5.4E1,4.21E2,6.1E1,1.07E2,1.7E1],"tree_param":{"num_deleted":"0","num_feature":"23","num_nodes":"15","size_leaf_vector":"1"}},{"base_weights":[-5.7350747E-2,4.654243E0,-2.0042055E0,6.8046055E0,1.1324005E0,3.0534586E-1,-5.7773595E0,8.665199E-2,1.15510784E-1,6.589065E-3,7.04087E-2,-1.2658087E-2,4.1758943E-2,-9.808195E-2,-4.089124E-2],"categories":[],"categories_nodes":[],"categories_segments":[],"categories_sizes":[],"default_left":[0,0,0,0,0,0,0,0,0,0,0,0,0,0,0],"id":8,"left_children":[1,3,5,7,9,11,13,-1,-1,-1,-1,-1,-1,-1,-1],"loss_changes":[1.4713308E4,3.5441436E3,9.892486E3,2.2901562E2,4.5252188E2,2.182483E3,1.3140557E3,0E0,0E0,0E0,0E0,0E0,0E0,0E0,0E0],"parents":[2147483647,0,0,1,1,2,2,3,3,4,4,5,5,6,6],"right_children":[2,4,6,8,10,12,14,-1,-1,-1,-1,-1,-1,-1,-1],"split_conditions":[1E0,1E0,1E0,2.394032E-1,1.1326988E0,5.371684E-1,6.8605095E-1,8.665199E-2,1.15510784E-1,6.589065E-3,7.04087E-2,-1.2658087E-2,4.1758943E-2,-9.808195E-2,-4.089124E-2],"split_indices":[8,13,13,0,0,0,0,0,0,0,0,0,0,0,0],"split_type":[0,0,0,0,0,0,0,0,0,0,0,0,0,0,0],"sum_hessian":[1.602E3,4.68E2,1.134E3,2.9E2,1.78E2,7.04E2,4.3E2,1.83E2,1.07E2,1.52E2,2.6E1,4.84E2,2.2E2,3.15E2,1.15E2],"tree_param":{"num_deleted":"0","num_feature":"23","num_nodes":"15","size_leaf_vector":"1"}},{"base_weights":[2.5630629E-2,2.1572385E0,-3.558246E0,1.169203E0,6.088714E0,-4.7911015E0,1.1433698E0,4.264239E-3,1.0214373E-1,4.635346E-2,9.168733E-2,-8.0810584E-2,1.0356395E-2,7.365997E-3,6.041635E-2],"categories":[],"categories_nodes":[],"categories_segments":[],"categories_sizes":[],"default_left":[0,0,0,0,0,0,0,0,0,0,0,0,0,0,0],"id":9,"left_children":[1,3,5,7,9,11,13,-1,-1,-1,-1,-1,-1,-1,-1],"loss_changes":[1.2146714E4,3.8656655E3,3.4427505E3,4.1371055E3,1.507461E2,2.1791348E3,2.3742355E2,0E0,0E0,0E0,0E0,0E0,0E0,0E0,0E0],"parents":[2147483647,0,0,1,1,2,2,3,3,4,4,5,5,6,6],"right_children":[2,4,6,8,10,12,14,-1,-1,-1,-1,-1,-1,-1,-1],"split_conditions":[1E0,1E0,1E0,1E0,-1.2745042E0,1E0,1.1326988E0,4.264239E-3,1.0214373E-1,4.635346E-2,9.168733E-2,-8.0810584E-2,1.0356395E-2,7.365997E-3,6.041635E-2],"split_indices":[13,9,9,10,1,10,0,0,0,0,0,0,0,0,0],"split_type":[0,0,0,0,0,0,0,0,0,0,0,0,0,0,0],"sum_hessian":[1.588E3,9.96E2,5.92E2,7.97E2,1.99E2,4.69E2,1.23E2,6.96E2,1.01E2,2E1,1.79E2,4.07E2,6.2E1,1.03E2,2E1],"tree_param":{"num_deleted":"0","num_feature":"23","num_nodes":"15","size_leaf_vector":"1"}},{"base_weights":[1.581336E-1,2.3031833E0,-3.4508626E0,1.3521818E0,6.202183E0,-4.5458717E0,1.0616174E0,7.4569704E-3,1.0466869E-1,1.1556517E-2,9.139944E-2,-7.801245E-2,1.4445994E-2,7.55851E-2,1.0113715E-2],"categories":[],"categories_nodes":[],"categories_segments":[],"categories_sizes":[],"default_left":[0,0,0,0,0,0,0,0,0,0,0,0,0,0,0],"id":10,"left_children":[1,3,5,7,9,11,13,-1,-1,-1,-1,-1,-1,-1,-1],"loss_changes":[1.2355602E4,3.703276E3,2.9448438E3,3.982937E3,1.7067188E2,2.3718506E3,1.7188817E2,0E0,0E0,0E0,0E0,0E0,0E0,0E0,0E0],"parents":[2147483647,0,0,1,1,2,2,3,3,4,4,5,5,6,6],"right_children":[2,4,6,8,10,12,14,-1,-1,-1,-1,-1,-1,-1,-1],"split_conditions":[1E0,1E0,1E0,1E0,-1.6331028E0,1E0,1E0,7.4569704E-3,1.0466869E-1,1.1556517E-2,9.139944E-2,-7.801245E-2,1.4445994E-2,7.55851E-2,1.0113715E-2],"split_indices":[13,9,9,10,1,10,17,0,0,0,0,0,0,0,0],"split_type":[0,0,0,0,0,0,0,0,0,0,0,0,0,0,0],"sum_hessian":[1.594E3,1E3,5.94E2,8.05E2,1.95E2,4.78E2,1.16E2,7.07E2,9.8E1,6E0,1.89E2,4.12E2,6.6E1,8E0,1.08E2],"tree_param":{"num_deleted":"0","num_feature":"23","num_nodes":"15","size_leaf_vector":"1"}},{"base_weights":[-7.3342356E-3,4.1868706E0,-1.8434656E0,6.314511E0,8.3424556E-1,3.7539613E-1,-5.3494167E0,7.846659E-2,1.14765614E-1,-6.0781115E-3,3.8202282E-2,-1.0808937E-2,3.9901182E-2,-9.353297E-2,-4.177506E-2],"categories":[],"categories_nodes":[],"categories_segments":[],"categories_sizes":[],"default_left":[0,0,0,0,0,0,0,0,0,0,0,0,0,0,0],"id":11,"left_children":[1,3,5,7,9,11,13,-1,-1,-1,-1,-1,-1,-1,-1],"loss_changes":[1.2368002E4,3.4828574E3,8.691396E3,3.8236035E2,4.4015833E2,1.8610739E3,1.2139746E3,0E0,0E0,0E0,0E0,0E0,0E0,0E0,0E0],"parents":[2147483647,0,0,1,1,2,2,3,3,4,4,5,5,6,6],"right_children":[2,4,6,8,10,12,14,-1,-1,-1,-1,-1,-1,-1,-1],"split_conditions":[1E0,1E0,1E0,5.371684E-1,3.138445E-1,5.371684E-1,4.627271E-1,7.846659E-2,1.14765614E-1,-6.0781115E-3,3.8202282E-2,-1.0808937E-2,3.9901182E-2,-9.353297E-2,-4.177506E-2],"split_indices":[8,13,13,0,0,0,0,0,0,0,0,0,0,0,0],"split_type":[0,0,0,0,0,0,0,0,0,0,0,0,0,0,0],"sum_hessian":[1.604E3,4.88E2,1.116E3,2.98E2,1.9E2,6.84E2,4.32E2,2.01E2,9.7E1,1.13E2,7.7E1,4.66E2,2.18E2,2.91E2,1.41E2],"tree_param":{"num_deleted":"0","num_feature":"23","num_nodes":"15","size_leaf_vector":"1"}},{"base_weights":[-4.549647E-2,4.3397026E0,-1.8969845E0,6.412013E0,9.980265E-1,2.165364E-1,-5.391783E0,7.7868044E-2,1.1357271E-1,5.51544E-3,7.5359195E-2,-1.2315474E-2,3.6510732E-2,-8.781512E-2,-3.931077E-2],"categories":[],"categories_nodes":[],"categories_segments":[],"categories_sizes":[],"default_left":[0,0,0,0,0,0,0,0,0,0,0,0,0,0,0],"id":12,"left_children":[1,3,5,7,9,11,13,-1,-1,-1,-1,-1,-1,-1,-1],"loss_changes":[1.2990743E4,3.2829707E3,8.310789E3,3.9099316E2,4.756174E2,1.757954E3,8.0077734E2,0E0,0E0,0E0,0E0,0E0,0E0,0E0,0E0],"parents":[2147483647,0,0,1,1,2,2,3,3,4,4,5,5,6,6],"right_children":[2,4,6,8,10,12,14,-1,-1,-1,-1,-1,-1,-1,-1],"split_conditions":[1E0,1E0,1E0,3.138445E-1,1.1326988E0,5.371684E-1,9.093749E-1,7.7868044E-2,1.1357271E-1,5.51544E-3,7.5359195E-2,-1.2315474E-2,3.6510732E-2,-8.781512E-2,-3.931077E-2],"split_indices":[8,13,13,0,0,0,0,0,0,0,0,0,0,0,0],"split_type":[0,0,0,0,0,0,0,0,0,0,0,0,0,0,0],"sum_hessian":[1.598E3,4.74E2,1.124E3,2.92E2,1.82E2,7.01E2,4.23E2,1.79E2,1.13E2,1.6E2,2.2E1,4.8E2,2.21E2,3.31E2,9.2E1],"tree_param":{"num_deleted":"0","num_feature":"23","num_nodes":"15","size_leaf_vector":"1"}},{"base_weights":[-6.4814645E-3,4.1653123E0,-1.8407228E0,2.5082147E0,6.324101E0,-3.3361592E0,4.402584E-1,2.9523376E-2,9.1019884E-2,7.73727E-2,1.06582955E-1,-6.6923656E-2,-2.0874254E-2,-9.988664E-3,3.6788266E-2],"categories":[],"categories_nodes":[],"categories_segments":[],"categories_sizes":[],"default_left":[0,0,0,0,0,0,0,0,0,0,0,0,0,0,0],"id":13,"left_children":[1,3,5,7,9,11,13,-1,-1,-1,-1,-1,-1,-1,-1],"loss_changes":[1.2327511E4,1.7441807E3,3.8184478E3,4.7122058E2,1.7901758E2,1.6810068E3,1.0728158E3,0E0,0E0,0E0,0E0,0E0,0E0,0E0,0E0],"parents":[2147483647,0,0,1,1,2,2,3,3,4,4,5,5,6,6],"right_children":[2,4,6,8,10,12,14,-1,-1,-1,-1,-1,-1,-1,-1],"split_conditions":[1E0,1E0,1E0,1.2071401E0,1.649619E-1,3.138445E-1,4.627271E-1,2.9523376E-2,9.1019884E-2,7.73727E-2,1.06582955E-1,-6.6923656E-2,-2.0874254E-2,-9.988664E-3,3.6788266E-2],"split_indices":[8,12,12,0,0,0,0,0,0,0,0,0,0,0,0],"split_type":[0,0,0,0,0,0,0,0,0,0,0,0,0,0,0],"sum_hessian":[1.609E3,4.91E2,1.118E3,2.79E2,2.12E2,6.75E2,4.43E2,2.51E2,2.8E1,1.18E2,9.4E1,3.95E2,2.8E2,2.89E2,1.54E2],"tree_param":{"num_deleted":"0","num_feature":"23","num_nodes":"15","size_leaf_vector":"1"}},{"base_weights":[2.675213E-2,2.1914895E0,-3.5286224E0,6.2035804E0,4.5977947E-1,7.5644046E-1,-5.349537E0,7.805603E-2,1.0616516E-1,-1.0839245E-2,3.984208E-2,-1.7160838E-3,5.004193E-2,-9.0936795E-2,-3.7474517E-2],"categories":[],"categories_nodes":[],"categories_segments":[],"categories_sizes":[],"default_left":[0,0,0,0,0,0,0,0,0,0,0,0,0,0,0],"id":14,"left_children":[1,3,5,7,9,11,13,-1,-1,-1,-1,-1,-1,-1,-1],"loss_changes":[1.2283573E4,6.8893447E3,4.7168975E3,2.3276367E2,1.9552277E3,4.333272E2,1.1290039E3,0E0,0E0,0E0,0E0,0E0,0E0,0E0,0E0],"parents":[2147483647,0,0,1,1,2,2,3,3,4,4,5,5,6,6],"right_children":[2,4,6,8,10,12,14,-1,-1,-1,-1,-1,-1,-1,-1],"split_conditions":[1E0,1E0,1E0,2.394032E-1,4.627271E-1,7.6049227E-1,6.8605095E-1,7.805603E-2,1.0616516E-1,-1.0839245E-2,3.984208E-2,-1.7160838E-3,5.004193E-2,-9.0936795E-2,-3.7474517E-2],"split_indices":[13,8,8,0,0,0,0,0,0,0,0,0,0,0,0],"split_type":[0,0,0,0,0,0,0,0,0,0,0,0,0,0,0],"sum_hessian":[1.594E3,9.91E2,6.03E2,2.98E2,6.93E2,1.8E2,4.23E2,1.85E2,1.13E2,4.55E2,2.38E2,1.37E2,4.3E1,3.1E2,1.13E2],"tree_param":{"num_deleted":"0","num_feature":"23","num_nodes":"15","size_leaf_vector":"1"}},{"base_weights":[-1.3624819E-1,4.119134E0,-1.9092046E0,6.0868163E0,8.313092E-1,2.0686239E-1,-5.3647847E0,8.002792E-2,1.23718426E-1,4.5780367E-3,6.419645E-2,-1.12118265E-2,3.346004E-2,-9.203779E-2,-3.8336877E-2],"categories":[],"categories_nodes":[],"categories_segments":[],"categories_sizes":[],"default_left":[0,0,0,0,0,0,0,0,0,0,0,0,0,0,0],"id":15,"left_children":[1,3,5,7,9,11,13,-1,-1,-1,-1,-1,-1,-1,-1],"loss_changes":[1.218486E4,3.067901E3,8.337063E3,3.3624805E2,3.3253845E2,1.4880162E3,1.2052686E3,0E0,0E0,0E0,0E0,0E0,0E0,0E0,0E0],"parents":[2147483647,0,0,1,1,2,2,3,3,4,4,5,5,6,6],"right_children":[2,4,6,8,10,12,14,-1,-1,-1,-1,-1,-1,-1,-1],"split_conditions":[1E0,1E0,1E0,1.0582575E0,1.1326988E0,5.371684E-1,6.116097E-1,8.002792E-2,1.23718426E-1,4.5780367E-3,6.419645E-2,-1.12118265E-2,3.346004E-2,-9.203779E-2,-3.8336877E-2],"split_indices":[8,13,13,0,0,0,0,0,0,0,0,0,0,0,0],"split_type":[0,0,0,0,0,0,0,0,0,0,0,0,0,0,0],"sum_hessian":[1.613E3,4.74E2,1.139E3,2.96E2,1.78E2,7.07E2,4.32E2,2.49E2,4.7E1,1.57E2,2.1E1,4.83E2,2.24E2,3.1E2,1.22E2],"tree_param":{"num_deleted":"0","num_feature":"23","num_nodes":"15","size_leaf_vector":"1"}},{"base_weights":[4.4121593E-2,4.193253E0,-1.7076083E0,6.061612E0,8.99245E-1,1.16131164E-1,-4.833036E0,1.05445534E-1,8.253649E-2,8.968947E-3,6.971533E-2,-1.9134998E-2,4.4642845E-3,-6.1058376E-2,-7.729464E-2],"categories":[],"categories_nodes":[],"categories_segments":[],"categories_sizes":[],"default_left":[0,0,0,0,0,0,0,0,0,0,0,0,0,0,0],"id":16,"left_children":[1,3,5,7,9,11,13,-1,-1,-1,-1,-1,-1,-1,-1],"loss_changes":[1.1556263E4,2.899421E3,6.373123E3,7.799219E1,1.8372845E2,2.0015634E2,1.0883789E2,0E0,0E0,0E0,0E0,0E0,0E0,0E0,0E0],"parents":[2147483647,0,0,1,1,2,2,3,3,4,4,5,5,6,6],"right_children":[2,4,6,8,10,12,14,-1,-1,-1,-1,-1,-1,-1,-1],"split_conditions":[1E0,1E0,1E0,-7.989765E-1,1.5942844E0,1E0,-1.22018725E-1,1.05445534E-1,8.253649E-2,8.968947E-3,6.971533E-2,-1.9134998E-2,4.4642845E-3,-6.1058376E-2,-7.729464E-2],"split_indices":[8,13,13,5,1,17,4,0,0,0,0,0,0,0,0],"split_type":[0,0,0,0,0,0,0,0,0,0,0,0,0,0,0],"sum_hessian":[1.588E3,4.71E2,1.117E3,3E2,1.71E2,7.06E2,4.11E2,5.4E1,2.46E2,1.61E2,1E1,8.3E1,6.23E2,2.05E2,2.06E2],"tree_param":{"num_deleted":"0","num_feature":"23","num_nodes":"15","size_leaf_vector":"1"}},{"base_weights":[-1.01858154E-1,3.7900653E0,-1.7827685E0,5.8267083E0,6.885999E-1,2.2427778E-1,-4.9646235E0,8.147336E-2,1.3551939E-1,2.38647E-2,-5.422254E-3,-1.623995E-2,6.247651E-3,-9.986014E-2,-6.869523E-2],"categories":[],"categories_nodes":[],"categories_segments":[],"categories_sizes":[],"default_left":[0,0,0,0,0,0,0,0,0,0,0,0,0,0,0],"id":17,"left_children":[1,3,5,7,9,11,13,-1,-1,-1,-1,-1,-1,-1,-1],"loss_changes":[1.0388871E4,3.021628E3,7.083331E3,1.03083984E2,1.9905698E2,1.9534415E2,1.1907031E2,0E0,0E0,0E0,0E0,0E0,0E0,0E0,0E0],"parents":[2147483647,0,0,1,1,2,2,3,3,4,4,5,5,6,6],"right_children":[2,4,6,8,10,12,14,-1,-1,-1,-1,-1,-1,-1,-1],"split_conditions":[1E0,1E0,1E0,2.051541E0,2.928698E-3,1E0,-1.2996361E0,8.147336E-2,1.3551939E-1,2.38647E-2,-5.422254E-3,-1.623995E-2,6.247651E-3,-9.986014E-2,-6.869523E-2],"split_indices":[8,13,13,2,3,17,2,0,0,0,0,0,0,0,0],"split_type":[0,0,0,0,0,0,0,0,0,0,0,0,0,0,0],"sum_hessian":[1.586E3,4.78E2,1.108E3,2.88E2,1.9E2,6.8E2,4.28E2,2.79E2,9E0,9.9E1,9.1E1,9.1E1,5.89E2,3.2E1,3.96E2],"tree_param":{"num_deleted":"0","num_feature":"23","num_nodes":"15","size_leaf_vector":"1"}},{"base_weights":[-1.1422322E-2,1.995104E0,-3.2879663E0,5.8913918E0,3.7433597E-1,6.209007E-1,-4.978997E0,4.618791E-2,8.763943E-2,-9.842282E-3,3.7655108E-2,2.6870857E-3,6.0437147E-2,-8.5804224E-2,-3.4353185E-2],"categories":[],"categories_nodes":[],"categories_segments":[],"categories_sizes":[],"default_left":[0,0,0,0,0,0,0,0,0,0,0,0,0,0,0],"id":18,"left_children":[1,3,5,7,9,11,13,-1,-1,-1,-1,-1,-1,-1,-1],"loss_changes":[1.0611183E4,6.3190884E3,4.0550308E3,1.4932129E2,1.690054E3,2.8880447E2,1.0917129E3,0E0,0E0,0E0,0E0,0E0,0E0,0E0,0E0],"parents":[2147483647,0,0,1,1,2,2,3,3,4,4,5,5,6,6],"right_children":[2,4,6,8,10,12,14,-1,-1,-1,-1,-1,-1,-1,-1],"split_conditions":[1E0,1E0,1E0,-1.2745042E0,5.371684E-1,1.2071401E0,6.8605095E-1,4.618791E-2,8.763943E-2,-9.842282E-3,3.7655108E-2,2.6870857E-3,6.0437147E-2,-8.5804224E-2,-3.4353185E-2],"split_indices":[13,8,8,1,0,0,0,0,0,0,0,0,0,0,0],"split_type":[0,0,0,0,0,0,0,0,0,0,0,0,0,0,0],"sum_hessian":[1.612E3,1E3,6.12E2,2.93E2,7.07E2,1.85E2,4.27E2,2.3E1,2.7E2,4.81E2,2.26E2,1.66E2,1.9E1,3.07E2,1.2E2],"tree_param":{"num_deleted":"0","num_feature":"23","num_nodes":"15","size_leaf_vector":"1"}},{"base_weights":[-6.8692416E-2,3.7528844E0,-1.641034E0,5.519783E0,8.0011535E-1,2.0528719E-1,-4.657311E0,6.6968635E-2,9.831271E-2,-2.899285E-3,3.5498254E-2,-1.2307812E-2,3.3702683E-2,-8.002008E-2,-3.2419E-2],"categories":[],"categories_nodes":[],"categories_segments":[],"categories_sizes":[],"default_left":[0,0,0,0,0,0,0,0,0,0,0,0,0,0,0],"id":19,"left_children":[1,3,5,7,9,11,13,-1,-1,-1,-1,-1,-1,-1,-1],"loss_changes":[9.626285E3,2.4320361E3,6.3217896E3,2.996338E2,2.956219E2,1.6077775E3,9.3658203E2,0E0,0E0,0E0,0E0,0E0,0E0,0E0,0E0],"parents":[2147483647,0,0,1,1,2,2,3,3,4,4,5,5,6,6],"right_children":[2,4,6,8,10,12,14,-1,-1,-1,-1,-1,-1,-1,-1],"split_conditions":[1E0,1E0,1E0,2.394032E-1,3.138445E-1,4.627271E-1,6.8605095E-1,6.6968635E-2,9.831271E-2,-2.899285E-3,3.5498254E-2,-1.2307812E-2,3.3702683E-2,-8.002008E-2,-3.2419E-2],"split_indices":[8,13,13,0,0,0,0,0,0,0,0,0,0,0,0],"split_type":[0,0,0,0,0,0,0,0,0,0,0,0,0,0,0],"sum_hessian":[1.6E3,4.66E2,1.134E3,2.91E2,1.75E2,7.04E2,4.3E2,1.8E2,1.11E2,1.1E2,6.5E1,4.71E2,2.33E2,3.1E2,1.2E2],"tree_param":{"num_deleted":"0","num_feature":"23","num_nodes":"15","size_leaf_vector":"1"}},{"base_weights":[-1.0448205E-1,1.9415587E0,-3.3714328E0,5.781959E0,2.9054075E-1,6.408611E-1,-5.0598764E0,7.3072486E-2,9.943723E-2,-8.962571E-3,4.1802812E-2,3.115603E-3,5.2165713E-2,-8.615628E-2,-3.4950953E-2],"categories":[],"categories_nodes":[],"categories_segments":[],"categories_sizes":[],"default_left":[0,0,0,0,0,0,0,0,0,0,0,0,0,0,0],"id":20,"left_children":[1,3,5,7,9,11,13,-1,-1,-1,-1,-1,-1,-1,-1],"loss_changes":[1.0848504E4,6.326208E3,4.2373257E3,2.0222656E2,1.6789269E3,2.3519424E2,1.0745918E3,0E0,0E0,0E0,0E0,0E0,0E0,0E0,0E0],"parents":[2147483647,0,0,1,1,2,2,3,3,4,4,5,5,6,6],"right_children":[2,4,6,8,10,12,14,-1,-1,-1,-1,-1,-1,-1,-1],"split_conditions":[1E0,1E0,1E0,3.138445E-1,6.8605095E-1,1.1326988E0,6.8605095E-1,7.3072486E-2,9.943723E-2,-8.962571E-3,4.1802812E-2,3.115603E-3,5.2165713E-2,-8.615628E-2,-3.4950953E-2],"split_indices":[13,8,8,0,0,0,0,0,0,0,0,0,0,0,0],"split_type":[0,0,0,0,0,0,0,0,0,0,0,0,0,0,0],"sum_hessian":[1.621E3,9.97E2,6.24E2,2.99E2,6.98E2,1.85E2,4.39E2,1.9E2,1.09E2,5.18E2,1.8E2,1.63E2,2.2E1,3.22E2,1.17E2],"tree_param":{"num_deleted":"0","num_feature":"23","num_nodes":"15","size_leaf_vector":"1"}},{"base_weights":[-6.168954E-2,1.7373856E0,-3.0098264E0,9.609727E-1,5.099471E0,-4.1243963E0,1.1693829E0,2.802954E-3,8.695643E-2,7.0733994E-2,1.2618645E-1,-6.803495E-2,6.459708E-3,7.6702465E-3,6.913787E-2],"categories":[],"categories_nodes":[],"categories_segments":[],"categories_sizes":[],"default_left":[0,0,0,0,0,0,0,0,0,0,0,0,0,0,0],"id":21,"left_children":[1,3,5,7,9,11,13,-1,-1,-1,-1,-1,-1,-1,-1],"loss_changes":[8.523325E3,2.6002454E3,2.8415586E3,3.1682737E3,7.474121E1,1.3575967E3,2.9621808E2,0E0,0E0,0E0,0E0,0E0,0E0,0E0,0E0],"parents":[2147483647,0,0,1,1,2,2,3,3,4,4,5,5,6,6],"right_children":[2,4,6,8,10,12,14,-1,-1,-1,-1,-1,-1,-1,-1],"split_conditions":[1E0,1E0,1E0,1E0,2.051541E0,1E0,1.1326988E0,2.802954E-3,8.695643E-2,7.0733994E-2,1.2618645E-1,-6.803495E-2,6.459708E-3,7.6702465E-3,6.913787E-2],"split_indices":[13,9,9,10,2,10,0,0,0,0,0,0,0,0,0],"split_type":[0,0,0,0,0,0,0,0,0,0,0,0,0,0,0],"sum_hessian":[1.605E3,9.97E2,6.08E2,8.11E2,1.86E2,4.8E2,1.28E2,7.06E2,1.05E2,1.8E2,6E0,4.23E2,5.7E1,1.1E2,1.8E1],"tree_param":{"num_deleted":"0","num_feature":"23","num_nodes":"15","size_leaf_vector":"1"}},{"base_weights":[5.4863274E-2,3.7998338E0,-1.5890734E0,5.391644E0,1.0613296E0,1.7571329E-1,-4.6197696E0,6.5618746E-2,9.5114715E-2,-2.4963508E-3,3.9758645E-2,-1.3377701E-2,2.9952655E-2,-7.839072E-2,-3.4230806E-2],"categories":[],"categories_nodes":[],"categories_segments":[],"categories_sizes":[],"default_left":[0,0,0,0,0,0,0,0,0,0,0,0,0,0,0],"id":22,"left_children":[1,3,5,7,9,11,13,-1,-1,-1,-1,-1,-1,-1,-1],"loss_changes":[9.868741E3,2.125917E3,5.959077E3,2.826123E2,3.825645E2,1.4946808E3,7.586221E2,0E0,0E0,0E0,0E0,0E0,0E0,0E0,0E0],"parents":[2147483647,0,0,1,1,2,2,3,3,4,4,5,5,6,6],"right_children":[2,4,6,8,10,12,14,-1,-1,-1,-1,-1,-1,-1,-1],"split_conditions":[1E0,1E0,1E0,2.394032E-1,3.138445E-1,3.882858E-1,6.116097E-1,6.5618746E-2,9.5114715E-2,-2.4963508E-3,3.9758645E-2,-1.3377701E-2,2.9952655E-2,-7.839072E-2,-3.4230806E-2],"split_indices":[8,13,13,0,0,0,0,0,0,0,0,0,0,0,0],"split_type":[0,0,0,0,0,0,0,0,0,0,0,0,0,0,0],"sum_hessian":[1.601E3,4.88E2,1.113E3,3.08E2,1.8E2,7.04E2,4.09E2,1.88E2,1.2E2,1.05E2,7.5E1,4.46E2,2.58E2,2.96E2,1.13E2],"tree_param":{"num_deleted":"0","num_feature":"23","num_nodes":"15","size_leaf_vector":"1"}},{"base_weights":[4.6090316E-2,3.6826982E0,-1.5166308E0,2.3372486E0,5.3961744E0,-2.652286E0,2.7955547E-1,1.2816751E-2,7.440972E-2,7.293772E-2,1.0843356E-1,-6.311168E-2,3.1236438E-3,-9.36799E-3,4.1349873E-2],"categories":[],"categories_nodes":[],"categories_segments":[],"categories_sizes":[],"default_left":[0,0,0,0,0,0,0,0,0,0,0,0,0,0,0],"id":23,"left_children":[1,3,5,7,9,11,13,-1,-1,-1,-1,-1,-1,-1,-1],"loss_changes":[9.189319E3,1.10781E3,2.3078098E3,1.122115E3,1.0607373E2,3.4717256E3,1.0666228E3,0E0,0E0,0E0,0E0,0E0,0E0,0E0,0E0],"parents":[2147483647,0,0,1,1,2,2,3,3,4,4,5,5,6,6],"right_children":[2,4,6,8,10,12,14,-1,-1,-1,-1,-1,-1,-1,-1],"split_conditions":[1E0,1E0,1E0,1E0,1.3108909E0,1E0,6.116097E-1,1.2816751E-2,7.440972E-2,7.293772E-2,1.0843356E-1,-6.311168E-2,3.1236438E-3,-9.36799E-3,4.1349873E-2],"split_indices":[8,12,12,11,3,11,0,0,0,0,0,0,0,0,0],"split_type":[0,0,0,0,0,0,0,0,0,0,0,0,0,0,0],"sum_hessian":[1.615E3,4.85E2,1.13E3,2.73E2,2.12E2,6.92E2,4.38E2,1.82E2,9.1E1,1.88E2,2.4E1,4.3E2,2.62E2,3.23E2,1.15E2],"tree_param":{"num_deleted":"0","num_feature":"23","num_nodes":"15","size_leaf_vector":"1"}},{"base_weights":[3.7155777E-2,3.6927285E0,-1.4767363E0,5.428432E0,9.9053025E-1,3.555159E-1,-4.4654675E0,7.574347E-2,1.2575978E-1,2.9366685E-2,4.5241092E-4,2.8042946E-2,2.9097402E-3,-5.0595365E-2,-7.640297E-2],"categories":[],"categories_nodes":[],"categories_segments":[],"categories_sizes":[],"default_left":[0,0,0,0,0,0,0,0,0,0,0,0,0,0,0],"id":24,"left_children":[1,3,5,7,9,11,13,-1,-1,-1,-1,-1,-1,-1,-1],"loss_changes":[8.976298E3,2.2224746E3,6.2826855E3,9.916016E1,1.8924675E2,1.7347357E2,3.3294238E2,0E0,0E0,0E0,0E0,0E0,0E0,0E0,0E0],"parents":[2147483647,0,0,1,1,2,2,3,3,4,4,5,5,6,6],"right_children":[2,4,6,8,10,12,14,-1,-1,-1,-1,-1,-1,-1,-1],"split_conditions":[1E0,1E0,1E0,1.9274234E0,2.928698E-3,-1.4237539E0,-1.453359E-1,7.574347E-2,1.2575978E-1,2.9366685E-2,4.5241092E-4,2.8042946E-2,2.9097402E-3,-5.0595365E-2,-7.640297E-2],"split_indices":[8,13,13,2,3,2,4,0,0,0,0,0,0,0,0],"split_type":[0,0,0,0,0,0,0,0,0,0,0,0,0,0,0],"sum_hessian":[1.62E3,4.74E2,1.146E3,2.88E2,1.86E2,7.11E2,4.35E2,2.78E2,1E1,8.8E1,9.8E1,6.1E1,6.5E2,2.1E2,2.25E2],"tree_param":{"num_deleted":"0","num_feature":"23","num_nodes":"15","size_leaf_vector":"1"}},{"base_weights":[5.4230615E-2,-7.4707735E-1,3.2180185E0,-1.4454052E0,4.3966885E0,2.8639245E0,5.396972E0,-3.6503777E-2,1.0704746E-2,4.612478E-2,8.177222E-2,3.803789E-2,9.7942315E-2,3.6898654E-2,9.650738E-2],"categories":[],"categories_nodes":[],"categories_segments":[],"categories_sizes":[],"default_left":[0,0,0,0,0,0,0,0,0,0,0,0,0,0,0],"id":25,"left_children":[1,3,5,7,9,11,13,-1,-1,-1,-1,-1,-1,-1,-1],"loss_changes":[4.139799E3,4.6867764E3,2.391565E2,2.764114E3,2.217439E2,2.238313E2,1.5150635E2,0E0,0E0,0E0,0E0,0E0,0E0,0E0,0E0],"parents":[2147483647,0,0,1,1,2,2,3,3,4,4,5,5,6,6],"right_children":[2,4,6,8,10,12,14,-1,-1,-1,-1,-1,-1,-1,-1],"split_conditions":[1E0,1E0,1.1326988E0,4.627271E-1,3.138445E-1,1.9274234E0,-5.549301E-1,-3.6503777E-2,1.0704746E-2,4.612478E-2,8.177222E-2,3.803789E-2,9.7942315E-2,3.6898654E-2,9.650738E-2],"split_indices":[9,10,0,0,0,2,2,0,0,0,0,0,0,0,0],"split_type":[0,0,0,0,0,0,0,0,0,0,0,0,0,0,0],"sum_hessian":[1.631E3,1.302E3,3.29E2,1.147E3,1.55E2,2.85E2,4.4E1,7.64E2,3.83E2,8.3E1,7.2E1,2.72E2,1.3E1,1.5E1,2.9E1],"tree_param":{"num_deleted":"0","num_feature":"23","num_nodes":"15","size_leaf_vector":"1"}},{"base_weights":[1.4824491E-2,1.8142325E0,-2.8630707E0,5.3784165E0,3.394402E-1,5.332478E-1,-4.4044404E0,3.337364E-2,8.072993E-2,-1.5299543E-2,7.922854E-3,3.309494E-2,2.5960963E-4,-9.262985E-2,-6.0541116E-2],"categories":[],"categories_nodes":[],"categories_segments":[],"categories_sizes":[],"default_left":[0,0,0,0,0,0,0,0,0,0,0,0,0,0,0],"id":26,"left_children":[1,3,5,7,9,11,13,-1,-1,-1,-1,-1,-1,-1,-1],"loss_changes":[8.197594E3,5.1179385E3,3.1904526E3,2.0144727E2,2.0675565E2,1.743824E2,1.326499E2,0E0,0E0,0E0,0E0,0E0,0E0,0E0,0E0],"parents":[2147483647,0,0,1,1,2,2,3,3,4,4,5,5,6,6],"right_children":[2,4,6,8,10,12,14,-1,-1,-1,-1,-1,-1,-1,-1],"split_conditions":[1E0,1E0,1E0,-1.2745042E0,1E0,-8.262559E-1,-1.2996361E0,3.337364E-2,8.072993E-2,-1.5299543E-2,7.922854E-3,3.309494E-2,2.5960963E-4,-9.262985E-2,-6.0541116E-2],"split_indices":[13,8,8,1,17,1,2,0,0,0,0,0,0,0,0],"split_type":[0,0,0,0,0,0,0,0,0,0,0,0,0,0,0],"sum_hessian":[1.581E3,9.73E2,6.08E2,2.84E2,6.89E2,1.9E2,4.18E2,2.2E1,2.62E2,9E1,5.99E2,4.2E1,1.48E2,3.2E1,3.86E2],"tree_param":{"num_deleted":"0","num_feature":"23","num_nodes":"15","size_leaf_vector":"1"}},{"base_weights":[3.1450503E-2,1.6939343E0,-2.7312973E0,5.117142E0,3.0445585E-1,5.349251E-1,-4.260449E0,6.353069E-2,9.395833E-2,-1.1561162E-2,3.004865E-2,-5.305819E-4,5.9376113E-2,-7.35171E-2,-2.5727283E-2],"categories":[],"categories_nodes":[],"categories_segments":[],"categories_sizes":[],"default_left":[0,0,0,0,0,0,0,0,0,0,0,0,0,0,0],"id":27,"left_children":[1,3,5,7,9,11,13,-1,-1,-1,-1,-1,-1,-1,-1],"loss_changes":[7.518813E3,4.859558E3,3.0739268E3,2.6223682E2,1.4475156E3,4.059862E2,8.8210596E2,0E0,0E0,0E0,0E0,0E0,0E0,0E0,0E0],"parents":[2147483647,0,0,1,1,2,2,3,3,4,4,5,5,6,6],"right_children":[2,4,6,8,10,12,14,-1,-1,-1,-1,-1,-1,-1,-1],"split_conditions":[1E0,1E0,1E0,5.371684E-1,3.882858E-1,1.1326988E0,6.8605095E-1,6.353069E-2,9.395833E-2,-1.1561162E-2,3.004865E-2,-5.305819E-4,5.9376113E-2,-7.35171E-2,-2.5727283E-2],"split_indices":[13,8,8,0,0,0,0,0,0,0,0,0,0,0,0],"split_type":[0,0,0,0,0,0,0,0,0,0,0,0,0,0,0],"sum_hessian":[1.635E3,1.021E3,6.14E2,2.94E2,7.27E2,1.96E2,4.18E2,2.01E2,9.3E1,4.49E2,2.78E2,1.7E2,2.6E1,3.09E2,1.09E2],"tree_param":{"num_deleted":"0","num_feature":"23","num_nodes":"15","size_leaf_vector":"1"}},{"base_weights":[2.0391215E-2,3.4495475E0,-1.3935872E0,4.9522223E0,8.585572E-1,2.5249064E-1,-4.154469E0,5.9655122E-2,8.828044E-2,7.901767E-3,7.6702915E-2,-1.1445463E-2,3.828017E-2,-7.113551E-2,-2.9526446E-2],"categories":[],"categories_nodes":[],"categories_segments":[],"categories_sizes":[],"default_left":[0,0,0,0,0,0,0,0,0,0,0,0,0,0,0],"id":28,"left_children":[1,3,5,7,9,11,13,-1,-1,-1,-1,-1,-1,-1,-1],"loss_changes":[7.77251E3,1.8178677E3,5.1592E3,2.5678076E2,2.3607315E2,1.8073248E3,7.0293555E2,0E0,0E0,0E0,0E0,0E0,0E0,0E0,0E0],"parents":[2147483647,0,0,1,1,2,2,3,3,4,4,5,5,6,6],"right_children":[2,4,6,8,10,12,14,-1,-1,-1,-1,-1,-1,-1,-1],"split_conditions":[1E0,1E0,1E0,2.394032E-1,1.5942844E0,5.371684E-1,6.116097E-1,5.9655122E-2,8.828044E-2,7.901767E-3,7.6702915E-2,-1.1445463E-2,3.828017E-2,-7.113551E-2,-2.9526446E-2],"split_indices":[8,13,13,0,1,0,0,0,0,0,0,0,0,0,0],"split_type":[0,0,0,0,0,0,0,0,0,0,0,0,0,0,0],"sum_hessian":[1.601E3,4.67E2,1.134E3,2.95E2,1.72E2,7.11E2,4.23E2,1.8E2,1.15E2,1.62E2,1E1,4.96E2,2.15E2,3.05E2,1.18E2],"tree_param":{"num_deleted":"0","num_feature":"23","num_nodes":"15","size_leaf_vector":"1"}},{"base_weights":[2.8007872E-2,1.6627051E0,-2.8889093E0,4.989643E0,2.8754133E-1,4.6121967E-1,-4.296275E0,3.3948727E-2,7.5061716E-2,-2.065087E-2,5.7532717E-3,2.1553482E-3,5.6527346E-2,-5.8113646E-2,-9.536646E-2],"categories":[],"categories_nodes":[],"categories_segments":[],"categories_sizes":[],"default_left":[0,0,0,0,0,0,0,0,0,0,0,0,0,0,0],"id":29,"left_children":[1,3,5,7,9,11,13,-1,-1,-1,-1,-1,-1,-1,-1],"loss_changes":[7.634046E3,4.6926016E3,2.7130244E3,1.7687207E2,1.428122E2,1.8436552E2,2.0815137E2,0E0,0E0,0E0,0E0,0E0,0E0,0E0,0E0],"parents":[2147483647,0,0,1,1,2,2,3,3,4,4,5,5,6,6],"right_children":[2,4,6,8,10,12,14,-1,-1,-1,-1,-1,-1,-1,-1],"split_conditions":[1E0,1E0,1E0,-1.2745042E0,-1.4510971E0,1.5942844E0,1E0,3.3948727E-2,7.5061716E-2,-2.065087E-2,5.7532717E-3,2.1553482E-3,5.6527346E-2,-5.8113646E-2,-9.536646E-2],"split_indices":[13,8,8,1,4,1,16,0,0,0,0,0,0,0,0],"split_type":[0,0,0,0,0,0,0,0,0,0,0,0,0,0,0],"sum_hessian":[1.599E3,1.025E3,5.74E2,2.99E2,7.26E2,1.7E2,4.04E2,2.6E1,2.73E2,4.4E1,6.82E2,1.57E2,1.3E1,3.68E2,3.6E1],"tree_param":{"num_deleted":"0","num_feature":"23","num_nodes":"15","size_leaf_vector":"1"}},{"base_weights":[-1.2844685E-1,1.5540502E0,-2.9204059E0,8.413777E-1,4.4326034E0,-3.8455284E0,8.348022E-1,2.5257447E-3,7.7601396E-2,5.3895224E-2,8.765371E-2,-6.28579E-2,1.6191417E-3,3.8922096E-3,5.2635677E-2],"categories":[],"categories_nodes":[],"categories_segments":[],"categories_sizes":[],"default_left":[0,0,0,0,0,0,0,0,0,0,0,0,0,0,0],"id":30,"left_children":[1,3,5,7,9,11,13,-1,-1,-1,-1,-1,-1,-1,-1],"loss_changes":[7.595638E3,2.0661995E3,2.115419E3,2.4597634E3,2.0395947E2,1.0323516E3,1.9218275E2,0E0,0E0,0E0,0E0,0E0,0E0,0E0,0E0],"parents":[2147483647,0,0,1,1,2,2,3,3,4,4,5,5,6,6],"right_children":[2,4,6,8,10,12,14,-1,-1,-1,-1,-1,-1,-1,-1],"split_conditions":[1E0,1E0,1E0,1E0,6.116097E-1,1E0,1.1326988E0,2.5257447E-3,7.7601396E-2,5.3895224E-2,8.765371E-2,-6.28579E-2,1.6191417E-3,3.8922096E-3,5.2635677E-2],"split_indices":[13,9,9,10,0,10,0,0,0,0,0,0,0,0,0],"split_type":[0,0,0,0,0,0,0,0,0,0,0,0,0,0,0],"sum_hessian":[1.615E3,1.008E3,6.07E2,8.09E2,1.99E2,4.87E2,1.2E2,7.07E2,1.02E2,1.44E2,5.5E1,4.29E2,5.8E1,1.01E2,1.9E1],"tree_param":{"num_deleted":"0","num_feature":"23","num_nodes":"15","size_leaf_vector":"1"}},{"base_weights":[-5.891661E-2,1.5114387E0,-2.5668905E0,1.1026801E0,5.232804E0,-3.4092145E0,-3.318227E-1,4.587223E-3,4.0383987E-2,-4.326242E-3,7.849149E-2,-5.4219518E-2,-2.8330532E-3,1.1055563E-3,-4.5087747E-2],"categories":[],"categories_nodes":[],"categories_segments":[],"categories_sizes":[],"default_left":[0,0,0,0,0,0,0,0,0,0,0,0,0,0,0],"id":31,"left_children":[1,3,5,7,9,11,13,-1,-1,-1,-1,-1,-1,-1,-1],"loss_changes":[6.423488E3,1.5199338E3,1.1811733E3,1.2117231E3,1.3105664E2,5.39104E2,1.9897864E2,0E0,0E0,0E0,0E0,0E0,0E0,0E0,0E0],"parents":[2147483647,0,0,1,1,2,2,3,3,4,4,5,5,6,6],"right_children":[2,4,6,8,10,12,14,-1,-1,-1,-1,-1,-1,-1,-1],"split_conditions":[1E0,1E0,6.8605095E-1,5.371684E-1,-1.6719892E0,1E0,1E0,4.587223E-3,4.0383987E-2,-4.326242E-3,7.849149E-2,-5.4219518E-2,-2.8330532E-3,1.1055563E-3,-4.5087747E-2],"split_indices":[13,10,0,0,2,10,16,0,0,0,0,0,0,0,0],"split_type":[0,0,0,0,0,0,0,0,0,0,0,0,0,0,0],"sum_hessian":[1.629E3,1.002E3,6.27E2,9.04E2,9.8E1,4.55E2,1.72E2,6.21E2,2.83E2,4E0,9.4E1,4.08E2,4.7E1,1.51E2,2.1E1],"tree_param":{"num_deleted":"0","num_feature":"23","num_nodes":"15","size_leaf_vector":"1"}},{"base_weights":[3.0800842E-2,1.7069597E0,-2.7115555E0,1.0169128E0,4.4898925E0,-3.5699346E0,7.869348E-1,-1.5620199E-3,3.9139822E-2,1.7159024E-2,6.850152E-2,-6.778903E-2,-2.6689632E-2,5.492379E-3,6.3535884E-2],"categories":[],"categories_nodes":[],"categories_segments":[],"categories_sizes":[],"default_left":[0,0,0,0,0,0,0,0,0,0,0,0,0,0,0],"id":32,"left_children":[1,3,5,7,9,11,13,-1,-1,-1,-1,-1,-1,-1,-1],"loss_changes":[7.3914053E3,1.9119478E3,1.8346582E3,1.5424314E3,1.7891406E2,9.577822E2,1.7635254E2,0E0,0E0,0E0,0E0,0E0,0E0,0E0,0E0],"parents":[2147483647,0,0,1,1,2,2,3,3,4,4,5,5,6,6],"right_children":[2,4,6,8,10,12,14,-1,-1,-1,-1,-1,-1,-1,-1],"split_conditions":[1E0,1E0,1E0,3.138445E-1,-1.2745042E0,3.138445E-1,1.1326988E0,-1.5620199E-3,3.9139822E-2,1.7159024E-2,6.850152E-2,-6.778903E-2,-2.6689632E-2,5.492379E-3,6.3535884E-2],"split_indices":[13,9,9,0,1,0,0,0,0,0,0,0,0,0,0],"split_type":[0,0,0,0,0,0,0,0,0,0,0,0,0,0,0],"sum_hessian":[1.606E3,9.97E2,6.09E2,8E2,1.97E2,4.89E2,1.2E2,4.83E2,3.17E2,1.6E1,1.81E2,2.91E2,1.98E2,1.09E2,1.1E1],"tree_param":{"num_deleted":"0","num_feature":"23","num_nodes":"15","size_leaf_vector":"1"}},{"base_weights":[5.9417464E-2,1.6963453E0,-2.6626418E0,9.5062083E-1,4.772366E0,-3.646759E0,1.2318093E0,1.40585825E-2,-7.446755E-2,6.541444E-2,1.19835846E-1,-4.8941027E-2,-8.11223E-2,1.3839769E-2,6.0062554E-2],"categories":[],"categories_nodes":[],"categories_segments":[],"categories_sizes":[],"default_left":[0,0,0,0,0,0,0,0,0,0,0,0,0,0,0],"id":33,"left_children":[1,3,5,7,9,11,13,-1,-1,-1,-1,-1,-1,-1,-1],"loss_changes":[7.2496714E3,2.326029E3,2.3462085E3,1.5054065E2,1.1389746E2,2.1241309E2,9.392157E1,0E0,0E0,0E0,0E0,0E0,0E0,0E0,0E0],"parents":[2147483647,0,0,1,1,2,2,3,3,4,4,5,5,6,6],"right_children":[2,4,6,8,10,12,14,-1,-1,-1,-1,-1,-1,-1,-1],"split_conditions":[1E0,1E0,1E0,3.3297021E0,1.9274234E0,1E0,1E0,1.40585825E-2,-7.446755E-2,6.541444E-2,1.19835846E-1,-4.8941027E-2,-8.11223E-2,1.3839769E-2,6.0062554E-2],"split_indices":[13,9,9,3,2,16,18,0,0,0,0,0,0,0,0],"split_type":[0,0,0,0,0,0,0,0,0,0,0,0,0,0,0],"sum_hessian":[1.625E3,1.015E3,6.1E2,8.18E2,1.97E2,4.87E2,1.23E2,8.15E2,3E0,1.88E2,9E0,4.38E2,4.9E1,1.14E2,9E0],"tree_param":{"num_deleted":"0","num_feature":"23","num_nodes":"15","size_leaf_vector":"1"}},{"base_weights":[-8.2343206E-2,3.2799468E0,-1.513032E0,4.850418E0,8.782893E-1,1.4412807E-1,-4.2033615E0,5.9848372E-2,8.374547E-2,5.333189E-3,5.6578957E-2,-1.0485439E-2,2.7880127E-2,-7.4037895E-2,-2.257471E-2],"categories":[],"categories_nodes":[],"categories_segments":[],"categories_sizes":[],"default_left":[0,0,0,0,0,0,0,0,0,0,0,0,0,0,0],"id":34,"left_children":[1,3,5,7,9,11,13,-1,-1,-1,-1,-1,-1,-1,-1],"loss_changes":[7.7352603E3,1.8061719E3,5.029575E3,1.6995801E2,2.950562E2,1.1010415E3,1.0724448E3,0E0,0E0,0E0,0E0,0E0,0E0,0E0,0E0],"parents":[2147483647,0,0,1,1,2,2,3,3,4,4,5,5,6,6],"right_children":[2,4,6,8,10,12,14,-1,-1,-1,-1,-1,-1,-1,-1],"split_conditions":[1E0,1E0,1E0,3.138445E-1,1.1326988E0,5.371684E-1,6.8605095E-1,5.9848372E-2,8.374547E-2,5.333189E-3,5.6578957E-2,-1.0485439E-2,2.7880127E-2,-7.4037895E-2,-2.257471E-2],"split_indices":[8,13,13,0,0,0,0,0,0,0,0,0,0,0,0],"split_type":[0,0,0,0,0,0,0,0,0,0,0,0,0,0,0],"sum_hessian":[1.606E3,4.79E2,1.127E3,2.89E2,1.9E2,6.98E2,4.29E2,1.74E2,1.15E2,1.64E2,2.6E1,4.7E2,2.28E2,3.14E2,1.15E2],"tree_param":{"num_deleted":"0","num_feature":"23","num_nodes":"15","size_leaf_vector":"1"}},{"base_weights":[7.370677E-2,1.5692674E0,-2.4515443E0,1.0865071E0,5.4986343E0,-2.7074766E0,4.4144236E-2,-1.7712641E-3,1.7541476E-2,-5.292652E-3,8.205565E-2,-3.6057245E-2,-6.8421446E-2,8.116624E-2,-5.2348794E-3],"categories":[],"categories_nodes":[],"categories_segments":[],"categories_sizes":[],"default_left":[0,0,0,0,0,0,0,0,0,0,0,0,0,0,0],"id":35,"left_children":[1,3,5,7,9,11,13,-1,-1,-1,-1,-1,-1,-1,-1],"loss_changes":[6.224016E3,1.9573608E3,3.9165942E2,1.5171545E2,1.4711084E2,2.1151587E2,1.3513678E2,0E0,0E0,0E0,0E0,0E0,0E0,0E0,0E0],"parents":[2147483647,0,0,1,1,2,2,3,3,4,4,5,5,6,6],"right_children":[2,4,6,8,10,12,14,-1,-1,-1,-1,-1,-1,-1,-1],"split_conditions":[1E0,1E0,1E0,-1.2745042E0,-1.6719892E0,1E0,-1.6292862E0,-1.7712641E-3,1.7541476E-2,-5.292652E-3,8.205565E-2,-3.6057245E-2,-6.8421446E-2,8.116624E-2,-5.2348794E-3],"split_indices":[13,10,10,1,2,16,5,0,0,0,0,0,0,0,0],"split_type":[0,0,0,0,0,0,0,0,0,0,0,0,0,0,0],"sum_hessian":[1.646E3,1.034E3,6.12E2,9.22E2,1.12E2,5.55E2,5.7E1,9.3E1,8.29E2,4E0,1.08E2,5.09E2,4.6E1,3E0,5.4E1],"tree_param":{"num_deleted":"0","num_feature":"23","num_nodes":"15","size_leaf_vector":"1"}},{"base_weights":[2.8698025E-2,1.6340355E0,-2.6825268E0,4.640375E0,3.5415477E-1,4.9977243E-1,-4.0121655E0,2.2062674E-2,7.017858E-2,-5.868943E-3,3.5260018E-2,1.2853896E-3,5.112677E-2,-6.756733E-2,-2.9165907E-2],"categories":[],"categories_nodes":[],"categories_segments":[],"categories_sizes":[],"default_left":[0,0,0,0,0,0,0,0,0,0,0,0,0,0,0],"id":36,"left_children":[1,3,5,7,9,11,13,-1,-1,-1,-1,-1,-1,-1,-1],"loss_changes":[7.0335586E3,3.9038289E3,2.545022E3,2.2699023E2,1.1449987E3,2.2330118E2,5.7446484E2,0E0,0E0,0E0,0E0,0E0,0E0,0E0,0E0],"parents":[2147483647,0,0,1,1,2,2,3,3,4,4,5,5,6,6],"right_children":[2,4,6,8,10,12,14,-1,-1,-1,-1,-1,-1,-1,-1],"split_conditions":[1E0,1E0,1E0,-1.2745042E0,6.8605095E-1,1.1326988E0,6.8605095E-1,2.2062674E-2,7.017858E-2,-5.868943E-3,3.5260018E-2,1.2853896E-3,5.112677E-2,-6.756733E-2,-2.9165907E-2],"split_indices":[13,8,8,1,0,0,0,0,0,0,0,0,0,0,0],"split_type":[0,0,0,0,0,0,0,0,0,0,0,0,0,0,0],"sum_hessian":[1.614E3,1.014E3,6E2,3.02E2,7.12E2,1.77E2,4.23E2,2.3E1,2.79E2,5.23E2,1.89E2,1.57E2,2E1,3.12E2,1.11E2],"tree_param":{"num_deleted":"0","num_feature":"23","num_nodes":"15","size_leaf_vector":"1"}},{"base_weights":[8.820537E-3,3.1066296E0,-1.2862396E0,2.0295272E0,4.562935E0,-2.262088E0,2.6785547E-1,2.4565322E-2,6.86623E-2,3.423588E-2,6.970826E-2,-2.2121642E-2,-4.0015306E-2,6.834184E-3,-1.3874886E-2],"categories":[],"categories_nodes":[],"categories_segments":[],"categories_sizes":[],"default_left":[0,0,0,0,0,0,0,0,0,0,0,0,0,0,0],"id":37,"left_children":[1,3,5,7,9,11,13,-1,-1,-1,-1,-1,-1,-1,-1],"loss_changes":[6.491156E3,7.3895654E2,1.7310021E3,2.3350647E2,1.1776709E2,2.6147168E2,1.1388542E2,0E0,0E0,0E0,0E0,0E0,0E0,0E0,0E0],"parents":[2147483647,0,0,1,1,2,2,3,3,4,4,5,5,6,6],"right_children":[2,4,6,8,10,12,14,-1,-1,-1,-1,-1,-1,-1,-1],"split_conditions":[1E0,1E0,1E0,1.5942844E0,-1.0952048E0,-3.0855605E-1,1E0,2.4565322E-2,6.86623E-2,3.423588E-2,6.970826E-2,-2.2121642E-2,-4.0015306E-2,6.834184E-3,-1.3874886E-2],"split_indices":[8,12,12,1,1,4,18,0,0,0,0,0,0,0,0],"split_type":[0,0,0,0,0,0,0,0,0,0,0,0,0,0,0],"sum_hessian":[1.616E3,4.76E2,1.14E3,2.75E2,2.01E2,7E2,4.4E2,2.48E2,2.7E1,2.5E1,1.76E2,2.97E2,4.03E2,3.77E2,6.3E1],"tree_param":{"num_deleted":"0","num_feature":"23","num_nodes":"15","size_leaf_vector":"1"}},{"base_weights":[-9.958011E-2,3.1257799E0,-1.3980879E0,4.622053E0,7.2090673E-1,3.6870893E-2,-3.7402892E0,5.9273202E-2,9.1716275E-2,-1.7361393E-3,4.1312817E-2,-1.584655E-2,2.435685E-2,-6.57005E-2,-2.1211296E-2],"categories":[],"categories_nodes":[],"categories_segments":[],"categories_sizes":[],"default_left":[0,0,0,0,0,0,0,0,0,0,0,0,0,0,0],"id":38,"left_children":[1,3,5,7,9,11,13,-1,-1,-1,-1,-1,-1,-1,-1],"loss_changes":[6.726359E3,1.6555063E3,3.8484402E3,2.2076074E2,3.2367523E2,1.3487328E3,8.1742236E2,0E0,0E0,0E0,0E0,0E0,0E0,0E0,0E0],"parents":[2147483647,0,0,1,1,2,2,3,3,4,4,5,5,6,6],"right_children":[2,4,6,8,10,12,14,-1,-1,-1,-1,-1,-1,-1,-1],"split_conditions":[1E0,1E0,1E0,8.349336E-1,7.6049227E-1,3.138445E-1,6.8605095E-1,5.9273202E-2,9.1716275E-2,-1.7361393E-3,4.1312817E-2,-1.584655E-2,2.435685E-2,-6.57005E-2,-2.1211296E-2],"split_indices":[8,13,13,0,0,0,0,0,0,0,0,0,0,0,0],"split_type":[0,0,0,0,0,0,0,0,0,0,0,0,0,0,0],"sum_hessian":[1.604E3,4.6E2,1.144E3,2.83E2,1.77E2,7.1E2,4.34E2,2.24E2,5.9E1,1.28E2,4.9E1,4.21E2,2.89E2,3.16E2,1.18E2],"tree_param":{"num_deleted":"0","num_feature":"23","num_nodes":"15","size_leaf_vector":"1"}},{"base_weights":[2.9042775E-2,1.5722989E0,-2.4863307E0,1.1598586E0,5.147565E0,-3.400883E0,-3.3974785E-2,3.5454247E-3,3.6555596E-2,8.302848E-2,4.4993844E-2,-5.4703586E-2,2.5729567E-4,5.5436683E-3,-4.871074E-2],"categories":[],"categories_nodes":[],"categories_segments":[],"categories_sizes":[],"default_left":[0,0,0,0,0,0,0,0,0,0,0,0,0,0,0],"id":39,"left_children":[1,3,5,7,9,11,13,-1,-1,-1,-1,-1,-1,-1,-1],"loss_changes":[6.013037E3,1.4096301E3,1.3208984E3,1.0908987E3,1.0889209E2,6.0237256E2,2.2864314E2,0E0,0E0,0E0,0E0,0E0,0E0,0E0,0E0],"parents":[2147483647,0,0,1,1,2,2,3,3,4,4,5,5,6,6],"right_children":[2,4,6,8,10,12,14,-1,-1,-1,-1,-1,-1,-1,-1],"split_conditions":[1E0,1E0,6.8605095E-1,3.138445E-1,6.853438E-1,1E0,1E0,3.5454247E-3,3.6555596E-2,8.302848E-2,4.4993844E-2,-5.4703586E-2,2.5729567E-4,5.5436683E-3,-4.871074E-2],"split_indices":[13,10,0,0,3,10,16,0,0,0,0,0,0,0,0],"split_type":[0,0,0,0,0,0,0,0,0,0,0,0,0,0,0],"sum_hessian":[1.547E3,9.59E2,5.88E2,8.61E2,9.8E1,4.28E2,1.6E2,5.2E2,3.41E2,7.3E1,2.5E1,3.82E2,4.6E1,1.43E2,1.7E1],"tree_param":{"num_deleted":"0","num_feature":"23","num_nodes":"15","size_leaf_vector":"1"}},{"base_weights":[7.946231E-3,2.909785E0,-1.2148483E0,4.492429E0,6.629295E-1,2.586872E-1,-3.591791E0,6.1731E-2,1.19486056E-1,3.6390454E-2,1.8988342E-3,4.5370217E-3,-5.2630074E-2,-6.986559E-2,-4.438841E-2],"categories":[],"categories_nodes":[],"categories_segments":[],"categories_sizes":[],"default_left":[0,0,0,0,0,0,0,0,0,0,0,0,0,0,0],"id":40,"left_children":[1,3,5,7,9,11,13,-1,-1,-1,-1,-1,-1,-1,-1],"loss_changes":[5.6134805E3,1.6647727E3,3.8992224E3,1.6576904E2,1.9342862E2,1.5628868E2,2.5621143E2,0E0,0E0,0E0,0E0,0E0,0E0,0E0,0E0],"parents":[2147483647,0,0,1,1,2,2,3,3,4,4,5,5,6,6],"right_children":[2,4,6,8,10,12,14,-1,-1,-1,-1,-1,-1,-1,-1],"split_conditions":[1E0,1E0,1E0,2.051541E0,-8.262559E-1,2.4766834E0,-4.3081245E-1,6.1731E-2,1.19486056E-1,3.6390454E-2,1.8988342E-3,4.5370217E-3,-5.2630074E-2,-6.986559E-2,-4.438841E-2],"split_indices":[8,13,13,2,1,3,2,0,0,0,0,0,0,0,0],"split_type":[0,0,0,0,0,0,0,0,0,0,0,0,0,0,0],"sum_hessian":[1.58E3,4.68E2,1.112E3,2.74E2,1.94E2,6.87E2,4.25E2,2.63E2,1.1E1,4.2E1,1.52E2,6.78E2,9E0,1.17E2,3.08E2],"tree_param":{"num_deleted":"0","num_feature":"23","num_nodes":"15","size_leaf_vector":"1"}},{"base_weights":[2.6780173E-2,3.0563843E0,-1.3380795E0,4.2959266E0,9.851834E-1,1.0629741E-1,-3.6623404E0,7.749924E-2,5.502598E-2,2.5993329E-2,1.8785733E-3,2.2112853E-3,-4.9842585E-2,-4.1963797E-2,-6.183179E-2],"categories":[],"categories_nodes":[],"categories_segments":[],"categories_sizes":[],"default_left":[0,0,0,0,0,0,0,0,0,0,0,0,0,0,0],"id":41,"left_children":[1,3,5,7,9,11,13,-1,-1,-1,-1,-1,-1,-1,-1],"loss_changes":[6.6035244E3,1.269169E3,3.6965662E3,1.37375E2,1.3170827E2,1.1681513E2,1.886753E2,0E0,0E0,0E0,0E0,0E0,0E0,0E0,0E0],"parents":[2147483647,0,0,1,1,2,2,3,3,4,4,5,5,6,6],"right_children":[2,4,6,8,10,12,14,-1,-1,-1,-1,-1,-1,-1,-1],"split_conditions":[1E0,1E0,1E0,-4.930729E-1,2.928698E-3,2.4766834E0,-1.453359E-1,7.749924E-2,5.502598E-2,2.5993329E-2,1.8785733E-3,2.2112853E-3,-4.9842585E-2,-4.1963797E-2,-6.183179E-2],"split_indices":[8,13,13,5,3,3,4,0,0,0,0,0,0,0,0],"split_type":[0,0,0,0,0,0,0,0,0,0,0,0,0,0,0],"sum_hessian":[1.595E3,4.95E2,1.1E3,3.09E2,1.86E2,6.79E2,4.21E2,8.8E1,2.21E2,9.4E1,9.2E1,6.71E2,8E0,1.99E2,2.22E2],"tree_param":{"num_deleted":"0","num_feature":"23","num_nodes":"15","size_leaf_vector":"1"}},{"base_weights":[-6.8129175E-3,1.4738212E0,-2.4786243E0,8.687946E-1,3.950941E0,-3.2761593E0,8.2038534E-1,-2.425492E-3,3.3337347E-2,4.2285845E-2,7.6830715E-2,-5.5794246E-2,-9.434578E-3,4.2849477E-2,1.1671407E-3],"categories":[],"categories_nodes":[],"categories_segments":[],"categories_sizes":[],"default_left":[0,0,0,0,0,0,0,0,0,0,0,0,0,0,0],"id":42,"left_children":[1,3,5,7,9,11,13,-1,-1,-1,-1,-1,-1,-1,-1],"loss_changes":[5.881369E3,1.5027842E3,1.5865957E3,1.2211594E3,2.6176465E2,7.7396436E2,1.8858386E2,0E0,0E0,0E0,0E0,0E0,0E0,0E0,0E0],"parents":[2147483647,0,0,1,1,2,2,3,3,4,4,5,5,6,6],"right_children":[2,4,6,8,10,12,14,-1,-1,-1,-1,-1,-1,-1,-1],"split_conditions":[1E0,1E0,1E0,3.138445E-1,1.649619E-1,9.8381615E-1,-8.262559E-1,-2.425492E-3,3.3337347E-2,4.2285845E-2,7.6830715E-2,-5.5794246E-2,-9.434578E-3,4.2849477E-2,1.1671407E-3],"split_indices":[13,9,9,0,0,0,1,0,0,0,0,0,0,0,0],"split_type":[0,0,0,0,0,0,0,0,0,0,0,0,0,0,0],"sum_hessian":[1.605E3,1.004E3,6.01E2,8.08E2,1.96E2,4.84E2,1.17E2,4.72E2,3.36E2,1.16E2,8E1,3.92E2,9.2E1,2.9E1,8.8E1],"tree_param":{"num_deleted":"0","num_feature":"23","num_nodes":"15","size_leaf_vector":"1"}},{"base_weights":[9.309448E-2,3.0428464E0,-1.1156906E0,2.2715342E0,4.2083364E0,-2.0437102E0,6.6998494E-1,6.400886E-2,2.851602E-2,5.3683564E-2,8.883863E-2,-3.4457095E-2,-1.0650458E-2,5.561052E-5,3.5837043E-2],"categories":[],"categories_nodes":[],"categories_segments":[],"categories_sizes":[],"default_left":[0,0,0,0,0,0,0,0,0,0,0,0,0,0,0],"id":43,"left_children":[1,3,5,7,9,11,13,-1,-1,-1,-1,-1,-1,-1,-1],"loss_changes":[5.76543E3,4.129502E2,1.9021107E3,1.6866614E2,1.4929175E2,3.4918286E2,4.7826697E2,0E0,0E0,0E0,0E0,0E0,0E0,0E0,0E0],"parents":[2147483647,0,0,1,1,2,2,3,3,4,4,5,5,6,6],"right_children":[2,4,6,8,10,12,14,-1,-1,-1,-1,-1,-1,-1,-1],"split_conditions":[1E0,3.138445E-1,4.627271E-1,-1.2796822E0,1E0,1E0,1.4304639E0,6.400886E-2,2.851602E-2,5.3683564E-2,8.883863E-2,-3.4457095E-2,-1.0650458E-2,5.561052E-5,3.5837043E-2],"split_indices":[8,0,0,5,11,11,0,0,0,0,0,0,0,0,0],"split_type":[0,0,0,0,0,0,0,0,0,0,0,0,0,0,0],"sum_hessian":[1.615E3,4.69E2,1.146E3,2.84E2,1.85E2,7.54E2,3.92E2,3.1E1,2.53E2,1.52E2,3.3E1,5.91E2,1.63E2,2.88E2,1.04E2],"tree_param":{"num_deleted":"0","num_feature":"23","num_nodes":"15","size_leaf_vector":"1"}},{"base_weights":[1.0779473E-3,1.5032867E0,-2.3570988E0,8.623469E-1,4.0692196E0,-2.997461E0,3.9963785E-1,1.2797817E-2,-7.203723E-2,5.52898E-2,1.0486421E-1,-5.8296837E-2,-3.6916792E-2,2.324191E-2,-9.124903E-3],"categories":[],"categories_nodes":[],"categories_segments":[],"categories_sizes":[],"default_left":[0,0,0,0,0,0,0,0,0,0,0,0,0,0,0],"id":44,"left_children":[1,3,5,7,9,11,13,-1,-1,-1,-1,-1,-1,-1,-1],"loss_changes":[5.6077363E3,1.5868271E3,1.0886292E3,1.3829633E2,1.0732886E2,2.1587207E2,1.4879898E2,0E0,0E0,0E0,0E0,0E0,0E0,0E0,0E0],"parents":[2147483647,0,0,1,1,2,2,3,3,4,4,5,5,6,6],"right_children":[2,4,6,8,10,12,14,-1,-1,-1,-1,-1,-1,-1,-1],"split_conditions":[1E0,1E0,1E0,3.3297021E0,1.7942683E0,-4.3081245E-1,-1.6767508E-1,1.2797817E-2,-7.203723E-2,5.52898E-2,1.0486421E-1,-5.8296837E-2,-3.6916792E-2,2.324191E-2,-9.124903E-3],"split_indices":[13,9,9,3,3,2,3,0,0,0,0,0,0,0,0],"split_type":[0,0,0,0,0,0,0,0,0,0,0,0,0,0,0],"sum_hessian":[1.581E3,9.66E2,6.15E2,7.74E2,1.92E2,4.99E2,1.16E2,7.71E2,3E0,1.82E2,1E1,1.4E2,3.59E2,5.3E1,6.3E1],"tree_param":{"num_deleted":"0","num_feature":"23","num_nodes":"15","size_leaf_vector":"1"}},{"base_weights":[1.087913E-1,1.5717411E0,-2.2160072E0,1.0011393E0,3.899222E0,-3.033315E0,9.677038E-1,-1.0698651E-3,3.6230817E-2,1.3655964E-2,6.0235377E-2,-5.90004E-2,-1.9675868E-2,5.8808886E-3,5.643557E-2],"categories":[],"categories_nodes":[],"categories_segments":[],"categories_sizes":[],"default_left":[0,0,0,0,0,0,0,0,0,0,0,0,0,0,0],"id":45,"left_children":[1,3,5,7,9,11,13,-1,-1,-1,-1,-1,-1,-1,-1],"loss_changes":[5.441784E3,1.3002559E3,1.6110154E3,1.294665E3,1.654043E2,8.757324E2,2.0845169E2,0E0,0E0,0E0,0E0,0E0,0E0,0E0,0E0],"parents":[2147483647,0,0,1,1,2,2,3,3,4,4,5,5,6,6],"right_children":[2,4,6,8,10,12,14,-1,-1,-1,-1,-1,-1,-1,-1],"split_conditions":[1E0,1E0,1E0,3.138445E-1,-1.2745042E0,3.138445E-1,1.1326988E0,-1.0698651E-3,3.6230817E-2,1.3655964E-2,6.0235377E-2,-5.90004E-2,-1.9675868E-2,5.8808886E-3,5.643557E-2],"split_indices":[13,9,9,0,1,0,0,0,0,0,0,0,0,0,0],"split_type":[0,0,0,0,0,0,0,0,0,0,0,0,0,0,0],"sum_hessian":[1.598E3,9.81E2,6.17E2,7.89E2,1.92E2,4.91E2,1.26E2,4.63E2,3.26E2,1.8E1,1.74E2,2.97E2,1.94E2,1.07E2,1.9E1],"tree_param":{"num_deleted":"0","num_feature":"23","num_nodes":"15","size_leaf_vector":"1"}},{"base_weights":[-8.203817E-2,2.7588198E0,-1.2496809E0,4.0991845E0,5.8401686E-1,1.5254777E-2,-3.2799664E0,5.6096874E-2,1.0874241E-1,2.496997E-2,-3.4340927E-3,1.8344733E-3,-2.5288662E-2,-6.603585E-2,-4.1841693E-2],"categories":[],"categories_nodes":[],"categories_segments":[],"categories_sizes":[],"default_left":[0,0,0,0,0,0,0,0,0,0,0,0,0,0,0],"id":46,"left_children":[1,3,5,7,9,11,13,-1,-1,-1,-1,-1,-1,-1,-1],"loss_changes":[5.340673E3,1.3647549E3,2.9303442E3,1.6256592E2,1.7169704E2,1.4106622E2,1.9756494E2,0E0,0E0,0E0,0E0,0E0,0E0,0E0,0E0],"parents":[2147483647,0,0,1,1,2,2,3,3,4,4,5,5,6,6],"right_children":[2,4,6,8,10,12,14,-1,-1,-1,-1,-1,-1,-1,-1],"split_conditions":[1E0,1E0,1E0,2.051541E0,-2.7457032E-1,1.6236645E0,-7.5527596E-1,5.6096874E-2,1.0874241E-1,2.496997E-2,-3.4340927E-3,1.8344733E-3,-2.5288662E-2,-6.603585E-2,-4.1841693E-2],"split_indices":[8,13,13,2,5,3,5,0,0,0,0,0,0,0,0],"split_type":[0,0,0,0,0,0,0,0,0,0,0,0,0,0,0],"sum_hessian":[1.608E3,4.68E2,1.14E3,2.89E2,1.79E2,7.03E2,4.37E2,2.76E2,1.3E1,7.4E1,1.05E2,6.62E2,4.1E1,9.2E1,3.45E2],"tree_param":{"num_deleted":"0","num_feature":"23","num_nodes":"15","size_leaf_vector":"1"}},{"base_weights":[-5.2523427E-3,2.6967278E0,-1.1390291E0,1.6297749E0,4.118311E0,-2.0424945E0,2.1968079E-1,2.9195098E-2,-7.4823434E-3,5.368357E-2,8.541495E-2,-2.1549916E-2,-3.6319744E-2,-1.0513706E-2,8.567757E-3],"categories":[],"categories_nodes":[],"categories_segments":[],"categories_sizes":[],"default_left":[0,0,0,0,0,0,0,0,0,0,0,0,0,0,0],"id":47,"left_children":[1,3,5,7,9,11,13,-1,-1,-1,-1,-1,-1,-1,-1],"loss_changes":[4.92296E3,7.137505E2,1.3900326E3,2.3856525E2,1.1833838E2,1.7576587E2,1.6318593E2,0E0,0E0,0E0,0E0,0E0,0E0,0E0,0E0],"parents":[2147483647,0,0,1,1,2,2,3,3,4,4,5,5,6,6],"right_children":[2,4,6,8,10,12,14,-1,-1,-1,-1,-1,-1,-1,-1],"split_conditions":[1E0,1E0,1E0,1.1837425E0,1.2770112E0,-1.453359E-1,-7.7489936E-1,2.9195098E-2,-7.4823434E-3,5.368357E-2,8.541495E-2,-2.1549916E-2,-3.6319744E-2,-1.0513706E-2,8.567757E-3],"split_indices":[8,12,12,4,4,4,4,0,0,0,0,0,0,0,0],"split_type":[0,0,0,0,0,0,0,0,0,0,0,0,0,0,0],"sum_hessian":[1.605E3,4.74E2,1.131E3,2.72E2,2.02E2,6.79E2,4.52E2,2.29E2,4.3E1,1.7E2,3.2E1,3.24E2,3.55E2,1.28E2,3.24E2],"tree_param":{"num_deleted":"0","num_feature":"23","num_nodes":"15","size_leaf_vector":"1"}},{"base_weights":[-7.86089E-4,2.7960768E0,-1.1987337E0,4.149903E0,6.424466E-1,1.2932317E-1,-3.4187467E0,4.88839E-2,7.4899234E-2,-4.5646247E-3,3.0050809E-2,-9.048608E-3,2.6571441E-2,-6.079365E-2,-1.6355263E-2],"categories":[],"categories_nodes":[],"categories_segments":[],"categories_sizes":[],"default_left":[0,0,0,0,0,0,0,0,0,0,0,0,0,0,0],"id":48,"left_children":[1,3,5,7,9,11,13,-1,-1,-1,-1,-1,-1,-1,-1],"loss_changes":[5.4077E3,1.4085039E3,3.332025E3,2.1834912E2,2.62746E2,9.275347E2,7.8296045E2,0E0,0E0,0E0,0E0,0E0,0E0,0E0,0E0],"parents":[2147483647,0,0,1,1,2,2,3,3,4,4,5,5,6,6],"right_children":[2,4,6,8,10,12,14,-1,-1,-1,-1,-1,-1,-1,-1],"split_conditions":[1E0,1E0,1E0,2.394032E-1,3.138445E-1,5.371684E-1,6.8605095E-1,4.88839E-2,7.4899234E-2,-4.5646247E-3,3.0050809E-2,-9.048608E-3,2.6571441E-2,-6.079365E-2,-1.6355263E-2],"split_indices":[8,13,13,0,0,0,0,0,0,0,0,0,0,0,0],"split_type":[0,0,0,0,0,0,0,0,0,0,0,0,0,0,0],"sum_hessian":[1.612E3,4.83E2,1.129E3,2.96E2,1.87E2,7.07E2,4.22E2,1.77E2,1.19E2,1.13E2,7.4E1,4.91E2,2.16E2,3.1E2,1.12E2],"tree_param":{"num_deleted":"0","num_feature":"23","num_nodes":"15","size_leaf_vector":"1"}},{"base_weights":[2.137311E-2,-5.4988617E-1,2.3367865E0,-1.0990083E0,3.1848106E0,1.4493219E0,3.5512016E0,-3.0241637E-2,5.8528483E-3,2.5977898E-2,6.65945E-2,9.234057E-3,4.219063E-2,6.25309E-2,3.6529668E-2],"categories":[],"categories_nodes":[],"categories_segments":[],"categories_sizes":[],"default_left":[0,0,0,0,0,0,0,0,0,0,0,0,0,0,0],"id":49,"left_children":[1,3,5,7,9,11,13,-1,-1,-1,-1,-1,-1,-1,-1],"loss_changes":[2.132157E3,2.6551907E3,3.386554E2,1.7143418E3,3.2370532E2,2.2151794E2,9.751941E1,0E0,0E0,0E0,0E0,0E0,0E0,0E0,0E0],"parents":[2147483647,0,0,1,1,2,2,3,3,4,4,5,5,6,6],"right_children":[2,4,6,8,10,12,14,-1,-1,-1,-1,-1,-1,-1,-1],"split_conditions":[1E0,1E0,1E0,3.138445E-1,1E0,1E0,1E0,-3.0241637E-2,5.8528483E-3,2.5977898E-2,6.65945E-2,9.234057E-3,4.219063E-2,6.25309E-2,3.6529668E-2],"split_indices":[9,10,12,0,12,11,6,0,0,0,0,0,0,0,0],"split_type":[0,0,0,0,0,0,0,0,0,0,0,0,0,0,0],"sum_hessian":[1.61E3,1.292E3,3.18E2,1.127E3,1.65E2,1.85E2,1.33E2,6.75E2,4.52E2,8.6E1,7.9E1,1.21E2,6.4E1,7.2E1,6.1E1],"tree_param":{"num_deleted":"0","num_feature":"23","num_nodes":"15","size_leaf_vector":"1"}},{"base_weights":[1.3152906E-2,1.355345E0,-2.215667E0,3.9285345E0,2.542892E-1,4.0102538E-1,-3.362212E0,4.905303E-2,8.2529604E-2,-7.96557E-3,2.6230102E-2,-8.398226E-3,2.7392084E-2,-5.8027077E-2,-1.1478029E-2],"categories":[],"categories_nodes":[],"categories_segments":[],"categories_sizes":[],"default_left":[0,0,0,0,0,0,0,0,0,0,0,0,0,0,0],"id":50,"left_children":[1,3,5,7,9,11,13,-1,-1,-1,-1,-1,-1,-1,-1],"loss_changes":[4.7834277E3,2.8265596E3,1.8044417E3,2.585381E2,8.9232104E2,2.7467404E2,7.2608594E2,0E0,0E0,0E0,0E0,0E0,0E0,0E0,0E0],"parents":[2147483647,0,0,1,1,2,2,3,3,4,4,5,5,6,6],"right_children":[2,4,6,8,10,12,14,-1,-1,-1,-1,-1,-1,-1,-1],"split_conditions":[1E0,1E0,1E0,8.349336E-1,4.627271E-1,3.138445E-1,8.349336E-1,4.905303E-2,8.2529604E-2,-7.96557E-3,2.6230102E-2,-8.398226E-3,2.7392084E-2,-5.8027077E-2,-1.1478029E-2],"split_indices":[13,8,8,0,0,0,0,0,0,0,0,0,0,0,0],"split_type":[0,0,0,0,0,0,0,0,0,0,0,0,0,0,0],"sum_hessian":[1.597E3,9.97E2,6E2,2.98E2,6.99E2,1.83E2,4.17E2,2.35E2,6.3E1,4.62E2,2.37E2,1.11E2,7.2E1,3.29E2,8.8E1],"tree_param":{"num_deleted":"0","num_feature":"23","num_nodes":"15","size_leaf_vector":"1"}},{"base_weights":[-2.212182E-2,2.5682607E0,-1.1056458E0,1.6537831E0,3.842891E0,-1.8881272E0,5.7824755E-1,1.9358467E-2,7.103791E-2,1.0032044E-2,5.8569234E-2,-4.0707454E-2,-6.486104E-3,-1.7189828E-3,3.4162782E-2],"categories":[],"categories_nodes":[],"categories_segments":[],"categories_sizes":[],"default_left":[0,0,0,0,0,0,0,0,0,0,0,0,0,0,0],"id":51,"left_children":[1,3,5,7,9,11,13,-1,-1,-1,-1,-1,-1,-1,-1],"loss_changes":[4.482399E3,5.4265186E2,1.4847266E3,2.7073096E2,1.4380249E2,1.0459656E3,4.506112E2,0E0,0E0,0E0,0E0,0E0,0E0,0E0,0E0],"parents":[2147483647,0,0,1,1,2,2,3,3,4,4,5,5,6,6],"right_children":[2,4,6,8,10,12,14,-1,-1,-1,-1,-1,-1,-1,-1],"split_conditions":[1E0,1E0,5.371684E-1,1.5942844E0,-1.2745042E0,1E0,1.4304639E0,1.9358467E-2,7.103791E-2,1.0032044E-2,5.8569234E-2,-4.0707454E-2,-6.486104E-3,-1.7189828E-3,3.4162782E-2],"split_indices":[8,12,0,1,1,12,0,0,0,0,0,0,0,0,0],"split_type":[0,0,0,0,0,0,0,0,0,0,0,0,0,0,0],"sum_hessian":[1.595E3,4.7E2,1.125E3,2.75E2,1.95E2,7.68E2,3.57E2,2.53E2,2.2E1,1.4E1,1.81E2,4.62E2,3.06E2,2.58E2,9.9E1],"tree_param":{"num_deleted":"0","num_feature":"23","num_nodes":"15","size_leaf_vector":"1"}},{"base_weights":[-2.0945791E-2,2.5033507E0,-1.0717958E0,1.4314609E0,3.8607252E0,-1.8345863E0,1.0358804E-1,6.392367E-3,4.9258407E-2,4.1354325E-2,6.5289564E-2,-4.5727257E-2,5.289944E-3,-2.5778841E-3,1.4226175E-2],"categories":[],"categories_nodes":[],"categories_segments":[],"categories_sizes":[],"default_left":[0,0,0,0,0,0,0,0,0,0,0,0,0,0,0],"id":52,"left_children":[1,3,5,7,9,11,13,-1,-1,-1,-1,-1,-1,-1,-1],"loss_changes":[4.2867246E3,6.8557764E2,1.0231781E3,5.2520953E2,1.2779297E2,2.0616936E3,1.13300995E2,0E0,0E0,0E0,0E0,0E0,0E0,0E0,0E0],"parents":[2147483647,0,0,1,1,2,2,3,3,4,4,5,5,6,6],"right_children":[2,4,6,8,10,12,14,-1,-1,-1,-1,-1,-1,-1,-1],"split_conditions":[1E0,1E0,1E0,1E0,-3.7850755E-1,1E0,9.272537E-1,6.392367E-3,4.9258407E-2,4.1354325E-2,6.5289564E-2,-4.5727257E-2,5.289944E-3,-2.5778841E-3,1.4226175E-2],"split_indices":[8,12,12,11,4,11,4,0,0,0,0,0,0,0,0],"split_type":[0,0,0,0,0,0,0,0,0,0,0,0,0,0,0],"sum_hessian":[1.614E3,4.74E2,1.14E3,2.66E2,2.08E2,6.91E2,4.49E2,1.79E2,8.7E1,8.8E1,1.2E2,4.28E2,2.63E2,3.41E2,1.08E2],"tree_param":{"num_deleted":"0","num_feature":"23","num_nodes":"15","size_leaf_vector":"1"}},{"base_weights":[-4.627168E-2,2.5822203E0,-1.1368247E0,3.6414149E0,8.063561E-1,1.9003181E-1,-3.2797077E0,7.137087E-2,4.4096425E-2,-5.237052E-3,3.6979936E-2,-8.842681E-3,2.7774878E-2,-5.5252366E-2,-1.587746E-2],"categories":[],"categories_nodes":[],"categories_segments":[],"categories_sizes":[],"default_left":[0,0,0,0,0,0,0,0,0,0,0,0,0,0,0],"id":53,"left_children":[1,3,5,7,9,11,13,-1,-1,-1,-1,-1,-1,-1,-1],"loss_changes":[4.6237495E3,8.8677E2,3.241983E3,2.0894385E2,3.7001187E2,9.930718E2,5.359507E2,0E0,0E0,0E0,0E0,0E0,0E0,0E0,0E0],"parents":[2147483647,0,0,1,1,2,2,3,3,4,4,5,5,6,6],"right_children":[2,4,6,8,10,12,14,-1,-1,-1,-1,-1,-1,-1,-1],"split_conditions":[1E0,1E0,1E0,-4.930729E-1,3.138445E-1,5.371684E-1,9.093749E-1,7.137087E-2,4.4096425E-2,-5.237052E-3,3.6979936E-2,-8.842681E-3,2.7774878E-2,-5.5252366E-2,-1.587746E-2],"split_indices":[8,13,13,5,0,0,0,0,0,0,0,0,0,0,0],"split_type":[0,0,0,0,0,0,0,0,0,0,0,0,0,0,0],"sum_hessian":[1.611E3,4.72E2,1.139E3,2.95E2,1.77E2,7.04E2,4.35E2,8.6E1,2.09E2,1.07E2,7E1,4.82E2,2.22E2,3.44E2,9.1E1],"tree_param":{"num_deleted":"0","num_feature":"23","num_nodes":"15","size_leaf_vector":"1"}},{"base_weights":[-2.8614229E-2,2.5575457E0,-1.086152E0,3.7747684E0,6.1334443E-1,6.884621E-2,-3.0643528E0,4.3915395E-2,6.8291984E-2,2.5111498E-2,-8.717953E-3,-1.0615178E-2,2.6665587E-2,-5.9365056E-2,-2.2225605E-2],"categories":[],"categories_nodes":[],"categories_segments":[],"categories_sizes":[],"default_left":[0,0,0,0,0,0,0,0,0,0,0,0,0,0,0],"id":54,"left_children":[1,3,5,7,9,11,13,-1,-1,-1,-1,-1,-1,-1,-1],"loss_changes":[4.4005967E3,1.1028523E3,2.6094731E3,1.872461E2,2.5214801E2,1.0457109E3,6.776631E2,0E0,0E0,0E0,0E0,0E0,0E0,0E0,0E0],"parents":[2147483647,0,0,1,1,2,2,3,3,4,4,5,5,6,6],"right_children":[2,4,6,8,10,12,14,-1,-1,-1,-1,-1,-1,-1,-1],"split_conditions":[1E0,1E0,1E0,2.394032E-1,2.928698E-3,5.371684E-1,2.394032E-1,4.3915395E-2,6.8291984E-2,2.5111498E-2,-8.717953E-3,-1.0615178E-2,2.6665587E-2,-5.9365056E-2,-2.2225605E-2],"split_indices":[8,13,13,0,3,0,0,0,0,0,0,0,0,0,0],"split_type":[0,0,0,0,0,0,0,0,0,0,0,0,0,0,0],"sum_hessian":[1.607E3,4.66E2,1.141E3,2.86E2,1.8E2,7.21E2,4.2E2,1.68E2,1.18E2,9.3E1,8.7E1,4.97E2,2.24E2,2.45E2,1.75E2],"tree_param":{"num_deleted":"0","num_feature":"23","num_nodes":"15","size_leaf_vector":"1"}},{"base_weights":[-9.819084E-3,2.5303855E0,-1.068038E0,1.6880413E0,3.6549196E0,-1.9543358E0,7.074443E-1,9.830659E-3,5.227033E-2,3.7056345E-2,5.7441488E-2,-3.9692886E-2,-9.740187E-3,-4.8402138E-4,3.3449527E-2],"categories":[],"categories_nodes":[],"categories_segments":[],"categories_sizes":[],"default_left":[0,0,0,0,0,0,0,0,0,0,0,0,0,0,0],"id":55,"left_children":[1,3,5,7,9,11,13,-1,-1,-1,-1,-1,-1,-1,-1],"loss_changes":[4.223008E3,4.3145728E2,1.7465118E3,5.188589E2,6.3095947E1,7.640078E2,4.452117E2,0E0,0E0,0E0,0E0,0E0,0E0,0E0,0E0],"parents":[2147483647,0,0,1,1,2,2,3,3,4,4,5,5,6,6],"right_children":[2,4,6,8,10,12,14,-1,-1,-1,-1,-1,-1,-1,-1],"split_conditions":[1E0,1E0,4.627271E-1,1E0,-6.469567E-1,1E0,1.3560226E0,9.830659E-3,5.227033E-2,3.7056345E-2,5.7441488E-2,-3.9692886E-2,-9.740187E-3,-4.8402138E-4,3.3449527E-2],"split_indices":[8,12,0,11,1,12,0,0,0,0,0,0,0,0,0],"split_type":[0,0,0,0,0,0,0,0,0,0,0,0,0,0,0],"sum_hessian":[1.569E3,4.61E2,1.108E3,2.65E2,1.96E2,7.39E2,3.69E2,1.76E2,8.9E1,5E1,1.46E2,4.51E2,2.88E2,2.54E2,1.15E2],"tree_param":{"num_deleted":"0","num_feature":"23","num_nodes":"15","size_leaf_vector":"1"}},{"base_weights":[-2.529035E-2,1.2584451E0,-2.136375E0,3.5535803E0,2.885339E-1,5.168987E-1,-3.2783213E0,4.186334E-2,6.658004E-2,-1.0275896E-2,2.6301906E-2,2.8192338E-3,4.453224E-2,-5.5950146E-2,-1.013561E-2],"categories":[],"categories_nodes":[],"categories_segments":[],"categories_sizes":[],"default_left":[0,0,0,0,0,0,0,0,0,0,0,0,0,0,0],"id":56,"left_children":[1,3,5,7,9,11,13,-1,-1,-1,-1,-1,-1,-1,-1],"loss_changes":[4.314417E3,2.2027915E3,1.8256919E3,1.8965674E2,1.082405E3,1.5021466E2,6.687041E2,0E0,0E0,0E0,0E0,0E0,0E0,0E0,0E0],"parents":[2147483647,0,0,1,1,2,2,3,3,4,4,5,5,6,6],"right_children":[2,4,6,8,10,12,14,-1,-1,-1,-1,-1,-1,-1,-1],"split_conditions":[1E0,1E0,1E0,2.394032E-1,3.138445E-1,1.2071401E0,9.8381615E-1,4.186334E-2,6.658004E-2,-1.0275896E-2,2.6301906E-2,2.8192338E-3,4.453224E-2,-5.5950146E-2,-1.013561E-2],"split_indices":[13,8,8,0,0,0,0,0,0,0,0,0,0,0,0],"split_type":[0,0,0,0,0,0,0,0,0,0,0,0,0,0,0],"sum_hessian":[1.59E3,9.89E2,6.01E2,2.93E2,6.96E2,1.81E2,4.2E2,1.87E2,1.06E2,4.22E2,2.74E2,1.62E2,1.9E1,3.38E2,8.2E1],"tree_param":{"num_deleted":"0","num_feature":"23","num_nodes":"15","size_leaf_vector":"1"}},{"base_weights":[3.7931647E-2,2.3989382E0,-9.5577043E-1,3.428412E0,7.610719E-1,2.0461012E-1,-2.9058046E0,3.9088137E-2,6.379144E-2,2.5329532E-2,-2.9919893E-3,-8.125143E-3,2.6508994E-2,-5.1269304E-2,-1.6627906E-2],"categories":[],"categories_nodes":[],"categories_segments":[],"categories_sizes":[],"default_left":[0,0,0,0,0,0,0,0,0,0,0,0,0,0,0],"id":57,"left_children":[1,3,5,7,9,11,13,-1,-1,-1,-1,-1,-1,-1,-1],"loss_changes":[3.770189E3,7.9999365E2,2.5598008E3,1.9708691E2,1.8041428E2,8.9983014E2,4.8725757E2,0E0,0E0,0E0,0E0,0E0,0E0,0E0,0E0],"parents":[2147483647,0,0,1,1,2,2,3,3,4,4,5,5,6,6],"right_children":[2,4,6,8,10,12,14,-1,-1,-1,-1,-1,-1,-1,-1],"split_conditions":[1E0,1E0,1E0,2.394032E-1,2.928698E-3,5.371684E-1,6.8605095E-1,3.9088137E-2,6.379144E-2,2.5329532E-2,-2.9919893E-3,-8.125143E-3,2.6508994E-2,-5.1269304E-2,-1.6627906E-2],"split_indices":[8,13,13,0,3,0,0,0,0,0,0,0,0,0,0],"split_type":[0,0,0,0,0,0,0,0,0,0,0,0,0,0,0],"sum_hessian":[1.605E3,4.75E2,1.13E3,2.91E2,1.84E2,7.09E2,4.21E2,1.74E2,1.17E2,9E1,9.4E1,4.83E2,2.26E2,3.04E2,1.17E2],"tree_param":{"num_deleted":"0","num_feature":"23","num_nodes":"15","size_leaf_vector":"1"}},{"base_weights":[9.716215E-2,2.4702199E0,-9.463828E-1,3.4560077E0,9.2146486E-1,2.9899016E-1,-2.9568045E0,6.696264E-2,4.392707E-2,9.296605E-3,7.072047E-2,2.1010267E-2,2.0028441E-3,-3.324329E-2,-5.088643E-2],"categories":[],"categories_nodes":[],"categories_segments":[],"categories_sizes":[],"default_left":[0,0,0,0,0,0,0,0,0,0,0,0,0,0,0],"id":58,"left_children":[1,3,5,7,9,11,13,-1,-1,-1,-1,-1,-1,-1,-1],"loss_changes":[3.9323723E3,7.372864E2,2.7624927E3,1.27276855E2,2.0514505E2,1.2646724E2,1.5093652E2,0E0,0E0,0E0,0E0,0E0,0E0,0E0,0E0],"parents":[2147483647,0,0,1,1,2,2,3,3,4,4,5,5,6,6],"right_children":[2,4,6,8,10,12,14,-1,-1,-1,-1,-1,-1,-1,-1],"split_conditions":[1E0,1E0,1E0,-5.367734E-1,1.5942844E0,-1.1755185E0,-1.453359E-1,6.696264E-2,4.392707E-2,9.296605E-3,7.072047E-2,2.1010267E-2,2.0028441E-3,-3.324329E-2,-5.088643E-2],"split_indices":[8,13,13,5,1,2,4,0,0,0,0,0,0,0,0],"split_type":[0,0,0,0,0,0,0,0,0,0,0,0,0,0,0],"sum_hessian":[1.586E3,4.84E2,1.102E3,2.95E2,1.89E2,6.81E2,4.21E2,7E1,2.25E2,1.78E2,1.1E1,8.1E1,6E2,2.04E2,2.17E2],"tree_param":{"num_deleted":"0","num_feature":"23","num_nodes":"15","size_leaf_vector":"1"}},{"base_weights":[-6.8037525E-2,2.3553612E0,-1.0862305E0,1.2723185E0,3.6034229E0,-1.9319987E0,2.1490747E-1,7.6444973E-3,5.9177753E-2,4.351531E-2,6.4927034E-2,-3.9509874E-2,-9.9768555E-3,-8.106022E-3,2.007153E-2],"categories":[],"categories_nodes":[],"categories_segments":[],"categories_sizes":[],"default_left":[0,0,0,0,0,0,0,0,0,0,0,0,0,0,0],"id":59,"left_children":[1,3,5,7,9,11,13,-1,-1,-1,-1,-1,-1,-1,-1],"loss_changes":[3.9949534E3,6.428816E2,1.2549412E3,5.418741E2,1.0305151E2,6.996814E2,4.1607748E2,0E0,0E0,0E0,0E0,0E0,0E0,0E0,0E0],"parents":[2147483647,0,0,1,1,2,2,3,3,4,4,5,5,6,6],"right_children":[2,4,6,8,10,12,14,-1,-1,-1,-1,-1,-1,-1,-1],"split_conditions":[1E0,1E0,3.138445E-1,9.093749E-1,2.394032E-1,1E0,1E0,7.6444973E-3,5.9177753E-2,4.351531E-2,6.4927034E-2,-3.9509874E-2,-9.9768555E-3,-8.106022E-3,2.007153E-2],"split_indices":[8,12,0,0,0,12,12,0,0,0,0,0,0,0,0],"split_type":[0,0,0,0,0,0,0,0,0,0,0,0,0,0,0],"sum_hessian":[1.617E3,4.78E2,1.139E3,2.57E2,2.21E2,6.9E2,4.49E2,2.05E2,5.2E1,1.39E2,8.2E1,4.14E2,2.76E2,2.71E2,1.78E2],"tree_param":{"num_deleted":"0","num_feature":"23","num_nodes":"15","size_leaf_vector":"1"}},{"base_weights":[-5.5905677E-2,1.0972229E0,-1.9658014E0,6.283305E-1,3.0831516E0,-2.6919181E0,6.804703E-1,3.14749E-3,5.0539926E-2,7.1031265E-2,3.9304357E-2,-4.536852E-2,1.13746775E-2,1.6743271E-3,5.8229066E-2],"categories":[],"categories_nodes":[],"categories_segments":[],"categories_sizes":[],"default_left":[0,0,0,0,0,0,0,0,0,0,0,0,0,0,0],"id":60,"left_children":[1,3,5,7,9,11,13,-1,-1,-1,-1,-1,-1,-1,-1],"loss_changes":[3.591996E3,9.4507983E2,1.1816343E3,9.7431006E2,1.1118469E2,7.9052075E2,2.527353E2,0E0,0E0,0E0,0E0,0E0,0E0,0E0,0E0],"parents":[2147483647,0,0,1,1,2,2,3,3,4,4,5,5,6,6],"right_children":[2,4,6,8,10,12,14,-1,-1,-1,-1,-1,-1,-1,-1],"split_conditions":[1E0,1E0,1E0,1E0,-7.989765E-1,1E0,1.1326988E0,3.14749E-3,5.0539926E-2,7.1031265E-2,3.9304357E-2,-4.536852E-2,1.13746775E-2,1.6743271E-3,5.8229066E-2],"split_indices":[13,9,9,10,5,10,0,0,0,0,0,0,0,0,0],"split_type":[0,0,0,0,0,0,0,0,0,0,0,0,0,0,0],"sum_hessian":[1.629E3,1.016E3,6.13E2,8.23E2,1.93E2,4.81E2,1.32E2,7.22E2,1.01E2,2.8E1,1.65E2,4.24E2,5.7E1,1.14E2,1.8E1],"tree_param":{"num_deleted":"0","num_feature":"23","num_nodes":"15","size_leaf_vector":"1"}},{"base_weights":[-7.477555E-2,2.1285627E0,-9.8390126E-1,3.237055E0,3.2467484E-1,9.110091E-2,-2.8174944E0,3.5694323E-2,6.1937314E-2,-9.332813E-3,2.7843596E-2,-7.3203724E-3,2.5540745E-2,-5.6646004E-2,-1.7551241E-2],"categories":[],"categories_nodes":[],"categories_segments":[],"categories_sizes":[],"default_left":[0,0,0,0,0,0,0,0,0,0,0,0,0,0,0],"id":61,"left_children":[1,3,5,7,9,11,13,-1,-1,-1,-1,-1,-1,-1,-1],"loss_changes":[3.2230977E3,9.3875903E2,2.2453584E3,2.2465332E2,2.847437E2,7.30725E2,7.533579E2,0E0,0E0,0E0,0E0,0E0,0E0,0E0,0E0],"parents":[2147483647,0,0,1,1,2,2,3,3,4,4,5,5,6,6],"right_children":[2,4,6,8,10,12,14,-1,-1,-1,-1,-1,-1,-1,-1],"split_conditions":[1E0,1E0,1E0,2.394032E-1,3.138445E-1,6.8605095E-1,2.394032E-1,3.5694323E-2,6.1937314E-2,-9.332813E-3,2.7843596E-2,-7.3203724E-3,2.5540745E-2,-5.6646004E-2,-1.7551241E-2],"split_indices":[8,13,13,0,0,0,0,0,0,0,0,0,0,0,0],"split_type":[0,0,0,0,0,0,0,0,0,0,0,0,0,0,0],"sum_hessian":[1.607E3,4.69E2,1.138E3,2.9E2,1.79E2,7.18E2,4.2E2,1.73E2,1.17E2,1.12E2,6.7E1,5.3E2,1.88E2,2.45E2,1.75E2],"tree_param":{"num_deleted":"0","num_feature":"23","num_nodes":"15","size_leaf_vector":"1"}},{"base_weights":[5.7639427E-2,-7.6008344E-1,1.3408638E0,-1.3119845E0,1.356558E0,9.6606606E-1,4.216512E0,-3.0193971E-2,-2.6221934E-3,3.5339214E-3,3.8830765E-2,3.1977743E-3,3.268937E-2,4.6451263E-2,7.664468E-2],"categories":[],"categories_nodes":[],"categories_segments":[],"categories_sizes":[],"default_left":[0,0,0,0,0,0,0,0,0,0,0,0,0,0,0],"id":62,"left_children":[1,3,5,7,9,11,13,-1,-1,-1,-1,-1,-1,-1,-1],"loss_changes":[1.6904275E3,1.1512656E3,6.716987E2,6.979752E2,3.0489743E2,5.4151605E2,6.200818E1,0E0,0E0,0E0,0E0,0E0,0E0,0E0,0E0],"parents":[2147483647,0,0,1,1,2,2,3,3,4,4,5,5,6,6],"right_children":[2,4,6,8,10,12,14,-1,-1,-1,-1,-1,-1,-1,-1],"split_conditions":[3.138445E-1,1E0,1E0,1E0,1E0,1.1326988E0,3.3918944E-1,-3.0193971E-2,-2.6221934E-3,3.5339214E-3,3.8830765E-2,3.1977743E-3,3.268937E-2,4.6451263E-2,7.664468E-2],"split_indices":[0,9,10,12,12,0,1,0,0,0,0,0,0,0,0],"split_type":[0,0,0,0,0,0,0,0,0,0,0,0,0,0,0],"sum_hessian":[1.609E3,9.83E2,6.26E2,7.8E2,2.03E2,5.55E2,7.1E1,4.58E2,3.22E2,1.12E2,9.1E1,3.55E2,2E2,4E1,3.1E1],"tree_param":{"num_deleted":"0","num_feature":"23","num_nodes":"15","size_leaf_vector":"1"}},{"base_weights":[4.097183E-3,2.2450247E0,-9.4605976E-1,1.4240623E0,3.2473102E0,-1.9663672E0,2.3212662E-1,1.2926311E-2,5.670913E-2,3.082206E-2,5.3436026E-2,-3.475646E-2,-5.525862E-3,-7.346342E-3,1.97986E-2],"categories":[],"categories_nodes":[],"categories_segments":[],"categories_sizes":[],"default_left":[0,0,0,0,0,0,0,0,0,0,0,0,0,0,0],"id":63,"left_children":[1,3,5,7,9,11,13,-1,-1,-1,-1,-1,-1,-1,-1],"loss_changes":[3.411026E3,3.8786963E2,1.3528328E3,3.456496E2,1.040083E2,4.332527E2,4.4715588E2,0E0,0E0,0E0,0E0,0E0,0E0,0E0,0E0],"parents":[2147483647,0,0,1,1,2,2,3,3,4,4,5,5,6,6],"right_children":[2,4,6,8,10,12,14,-1,-1,-1,-1,-1,-1,-1,-1],"split_conditions":[1E0,1E0,1.649619E-1,9.8381615E-1,-4.6765736E-1,1E0,1E0,1.2926311E-2,5.670913E-2,3.082206E-2,5.3436026E-2,-3.475646E-2,-5.525862E-3,-7.346342E-3,1.97986E-2],"split_indices":[8,12,0,0,1,11,12,0,0,0,0,0,0,0,0],"split_type":[0,0,0,0,0,0,0,0,0,0,0,0,0,0,0],"sum_hessian":[1.6E3,4.76E2,1.124E3,2.63E2,2.13E2,6.02E2,5.22E2,2.19E2,4.4E1,6.6E1,1.47E2,4.67E2,1.35E2,3.17E2,2.05E2],"tree_param":{"num_deleted":"0","num_feature":"23","num_nodes":"15","size_leaf_vector":"1"}},{"base_weights":[-6.3009076E-2,2.1460536E0,-1.0105351E0,1.295259E0,3.1829941E0,-1.8247991E0,5.9917474E-1,7.500152E-3,4.031569E-2,4.160101E-2,7.174747E-2,-3.6346592E-2,-1.0815717E-2,-7.095731E-4,2.3295946E-2],"categories":[],"categories_nodes":[],"categories_segments":[],"categories_sizes":[],"default_left":[0,0,0,0,0,0,0,0,0,0,0,0,0,0,0],"id":64,"left_children":[1,3,5,7,9,11,13,-1,-1,-1,-1,-1,-1,-1,-1],"loss_changes":[3.3679446E3,4.219912E2,1.4769741E3,3.1083368E2,9.758594E1,5.651394E2,2.5180547E2,0E0,0E0,0E0,0E0,0E0,0E0,0E0,0E0],"parents":[2147483647,0,0,1,1,2,2,3,3,4,4,5,5,6,6],"right_children":[2,4,6,8,10,12,14,-1,-1,-1,-1,-1,-1,-1,-1],"split_conditions":[1E0,1E0,4.627271E-1,1E0,1.393597E0,1E0,1E0,7.500152E-3,4.031569E-2,4.160101E-2,7.174747E-2,-3.6346592E-2,-1.0815717E-2,-7.095731E-4,2.3295946E-2],"split_indices":[8,12,0,11,4,12,12,0,0,0,0,0,0,0,0],"split_type":[0,0,0,0,0,0,0,0,0,0,0,0,0,0,0],"sum_hessian":[1.607E3,4.82E2,1.125E3,2.66E2,2.16E2,7.47E2,3.78E2,1.77E2,8.9E1,1.89E2,2.7E1,4.49E2,2.98E2,2.32E2,1.46E2],"tree_param":{"num_deleted":"0","num_feature":"23","num_nodes":"15","size_leaf_vector":"1"}},{"base_weights":[4.743645E-2,2.3406963E0,-9.534862E-1,3.2570913E0,7.531849E-1,3.5854473E-3,-2.584658E0,4.510271E-2,1.11669876E-1,-3.6503463E-3,3.4334168E-2,-1.0645342E-2,2.3768114E-2,-4.4564232E-2,-1.2729119E-2],"categories":[],"categories_nodes":[],"categories_segments":[],"categories_sizes":[],"default_left":[0,0,0,0,0,0,0,0,0,0,0,0,0,0,0],"id":65,"left_children":[1,3,5,7,9,11,13,-1,-1,-1,-1,-1,-1,-1,-1],"loss_changes":[3.7092637E3,7.118474E2,1.7563008E3,1.3663428E2,2.9951758E2,8.7568036E2,3.647932E2,0E0,0E0,0E0,0E0,0E0,0E0,0E0,0E0],"parents":[2147483647,0,0,1,1,2,2,3,3,4,4,5,5,6,6],"right_children":[2,4,6,8,10,12,14,-1,-1,-1,-1,-1,-1,-1,-1],"split_conditions":[1E0,1E0,1E0,2.2997763E0,3.138445E-1,5.371684E-1,8.349336E-1,4.510271E-2,1.11669876E-1,-3.6503463E-3,3.4334168E-2,-1.0645342E-2,2.3768114E-2,-4.4564232E-2,-1.2729119E-2],"split_indices":[8,13,13,2,0,0,0,0,0,0,0,0,0,0,0],"split_type":[0,0,0,0,0,0,0,0,0,0,0,0,0,0,0],"sum_hessian":[1.614E3,4.9E2,1.124E3,3.1E2,1.8E2,7.09E2,4.15E2,3.04E2,6E0,1.12E2,6.8E1,4.89E2,2.2E2,3.17E2,9.8E1],"tree_param":{"num_deleted":"0","num_feature":"23","num_nodes":"15","size_leaf_vector":"1"}},{"base_weights":[-7.8660855E-3,1.1236694E0,-1.8491201E0,3.2284844E0,1.9195248E-1,3.1440595E-1,-2.7340188E0,3.7012503E-2,6.043779E-2,-3.9057962E-3,3.68523E-2,1.9774335E-2,-1.1668009E-2,-5.097261E-2,-2.3364326E-2],"categories":[],"categories_nodes":[],"categories_segments":[],"categories_sizes":[],"default_left":[0,0,0,0,0,0,0,0,0,0,0,0,0,0,0],"id":66,"left_children":[1,3,5,7,9,11,13,-1,-1,-1,-1,-1,-1,-1,-1],"loss_changes":[3.3772573E3,1.9683162E3,1.1821069E3,1.8573218E2,7.692007E2,2.1691542E2,3.902976E2,0E0,0E0,0E0,0E0,0E0,0E0,0E0,0E0],"parents":[2147483647,0,0,1,1,2,2,3,3,4,4,5,5,6,6],"right_children":[2,4,6,8,10,12,14,-1,-1,-1,-1,-1,-1,-1,-1],"split_conditions":[1E0,1E0,1E0,3.138445E-1,1.0582575E0,2.928698E-3,2.394032E-1,3.7012503E-2,6.043779E-2,-3.9057962E-3,3.68523E-2,1.9774335E-2,-1.1668009E-2,-5.097261E-2,-2.3364326E-2],"split_indices":[13,8,8,0,0,3,0,0,0,0,0,0,0,0,0],"split_type":[0,0,0,0,0,0,0,0,0,0,0,0,0,0,0],"sum_hessian":[1.619E3,1.003E3,6.16E2,3.07E2,6.96E2,1.79E2,4.37E2,1.87E2,1.2E2,5.83E2,1.13E2,9.2E1,8.7E1,2.5E2,1.87E2],"tree_param":{"num_deleted":"0","num_feature":"23","num_nodes":"15","size_leaf_vector":"1"}},{"base_weights":[-2.5479015E-2,1.0241867E0,-1.7401195E0,3.13426E0,1.9861212E-1,2.397866E-1,-2.5618312E0,4.3077987E-2,9.798657E-2,-1.3577243E-2,5.27102E-3,-7.579121E-4,5.35878E-2,-5.0571248E-2,-2.9881686E-2],"categories":[],"categories_nodes":[],"categories_segments":[],"categories_sizes":[],"default_left":[0,0,0,0,0,0,0,0,0,0,0,0,0,0,0],"id":67,"left_children":[1,3,5,7,9,11,13,-1,-1,-1,-1,-1,-1,-1,-1],"loss_changes":[2.910258E3,1.7466263E3,9.995382E2,1.1775415E2,1.3972551E2,1.8523915E2,1.929336E2,0E0,0E0,0E0,0E0,0E0,0E0,0E0,0E0],"parents":[2147483647,0,0,1,1,2,2,3,3,4,4,5,5,6,6],"right_children":[2,4,6,8,10,12,14,-1,-1,-1,-1,-1,-1,-1,-1],"split_conditions":[1E0,1E0,1E0,2.051541E0,1E0,1.5942844E0,-3.0669478E-1,4.3077987E-2,9.798657E-2,-1.3577243E-2,5.27102E-3,-7.579121E-4,5.35878E-2,-5.0571248E-2,-2.9881686E-2],"split_indices":[13,8,8,2,17,1,2,0,0,0,0,0,0,0,0],"split_type":[0,0,0,0,0,0,0,0,0,0,0,0,0,0,0],"sum_hessian":[1.615E3,1.002E3,6.13E2,2.81E2,7.21E2,1.8E2,4.33E2,2.73E2,8E0,9.2E1,6.29E2,1.67E2,1.3E1,1.42E2,2.91E2],"tree_param":{"num_deleted":"0","num_feature":"23","num_nodes":"15","size_leaf_vector":"1"}},{"base_weights":[6.0451187E-2,1.1283386E0,-1.7469825E0,8.023811E-1,3.9508114E0,-2.2533116E0,3.6323252E-1,3.044938E-3,4.0384687E-2,6.702144E-2,2.6299799E-2,-3.78533E-2,9.241038E-3,2.5822377E-2,-1.3792274E-2],"categories":[],"categories_nodes":[],"categories_segments":[],"categories_sizes":[],"default_left":[0,0,0,0,0,0,0,0,0,0,0,0,0,0,0],"id":68,"left_children":[1,3,5,7,9,11,13,-1,-1,-1,-1,-1,-1,-1,-1],"loss_changes":[3.0921184E3,9.23276E2,6.365541E2,1.0726453E3,1.4984265E2,5.359404E2,2.2230977E2,0E0,0E0,0E0,0E0,0E0,0E0,0E0,0E0],"parents":[2147483647,0,0,1,1,2,2,3,3,4,4,5,5,6,6],"right_children":[2,4,6,8,10,12,14,-1,-1,-1,-1,-1,-1,-1,-1],"split_conditions":[1E0,1E0,1E0,1E0,6.853438E-1,1E0,-1.6767508E-1,3.044938E-3,4.0384687E-2,6.702144E-2,2.6299799E-2,-3.78533E-2,9.241038E-3,2.5822377E-2,-1.3792274E-2],"split_indices":[13,10,9,9,3,10,3,0,0,0,0,0,0,0,0],"split_type":[0,0,0,0,0,0,0,0,0,0,0,0,0,0,0],"sum_hessian":[1.6E3,1.006E3,5.94E2,9.03E2,1.03E2,4.79E2,1.15E2,6.99E2,2.04E2,7.6E1,2.7E1,4.23E2,5.6E1,5.5E1,6E1],"tree_param":{"num_deleted":"0","num_feature":"23","num_nodes":"15","size_leaf_vector":"1"}},{"base_weights":[-6.750059E-2,1.7962552E0,-8.582249E-1,9.5993555E-1,2.9807706E0,-1.5067248E0,6.0846895E-1,9.5672044E-4,3.9680365E-2,3.901673E-2,6.988301E-2,-2.9395316E-2,-9.738154E-3,-1.695826E-3,2.5889663E-2],"categories":[],"categories_nodes":[],"categories_segments":[],"categories_sizes":[],"default_left":[0,0,0,0,0,0,0,0,0,0,0,0,0,0,0],"id":69,"left_children":[1,3,5,7,9,11,13,-1,-1,-1,-1,-1,-1,-1,-1],"loss_changes":[2.384542E3,4.746239E2,1.0814241E3,4.5768723E2,8.530725E1,3.5196338E2,3.033653E2,0E0,0E0,0E0,0E0,0E0,0E0,0E0,0E0],"parents":[2147483647,0,0,1,1,2,2,3,3,4,4,5,5,6,6],"right_children":[2,4,6,8,10,12,14,-1,-1,-1,-1,-1,-1,-1,-1],"split_conditions":[1E0,1E0,5.371684E-1,1E0,1.2815814E0,1E0,1E0,9.5672044E-4,3.9680365E-2,3.901673E-2,6.988301E-2,-2.9395316E-2,-9.738154E-3,-1.695826E-3,2.5889663E-2],"split_indices":[8,12,0,11,0,12,12,0,0,0,0,0,0,0,0],"split_type":[0,0,0,0,0,0,0,0,0,0,0,0,0,0,0],"sum_hessian":[1.616E3,4.81E2,1.135E3,2.83E2,1.98E2,7.87E2,3.48E2,1.9E2,9.3E1,1.76E2,2.2E1,4.75E2,3.12E2,2.17E2,1.31E2],"tree_param":{"num_deleted":"0","num_feature":"23","num_nodes":"15","size_leaf_vector":"1"}},{"base_weights":[1.5271421E-1,2.1810691E0,-7.0316076E-1,1.5880823E0,3.1367614E0,-1.5294538E0,4.871471E-1,1.0112038E-2,3.8783193E-2,3.830915E-2,6.2449824E-2,-3.1241048E-2,-6.6489605E-3,-4.137402E-4,2.8771723E-2],"categories":[],"categories_nodes":[],"categories_segments":[],"categories_sizes":[],"default_left":[0,0,0,0,0,0,0,0,0,0,0,0,0,0,0],"id":70,"left_children":[1,3,5,7,9,11,13,-1,-1,-1,-1,-1,-1,-1,-1],"loss_changes":[2.796523E3,2.6590747E2,1.1150992E3,2.9046246E2,9.172681E1,4.6069885E2,3.641636E2,0E0,0E0,0E0,0E0,0E0,0E0,0E0,0E0],"parents":[2147483647,0,0,1,1,2,2,3,3,4,4,5,5,6,6],"right_children":[2,4,6,8,10,12,14,-1,-1,-1,-1,-1,-1,-1,-1],"split_conditions":[1E0,3.138445E-1,3.138445E-1,1E0,1.2815814E0,1E0,1.3560226E0,1.0112038E-2,3.8783193E-2,3.830915E-2,6.2449824E-2,-3.1241048E-2,-6.6489605E-3,-4.137402E-4,2.8771723E-2],"split_indices":[8,0,0,12,0,12,0,0,0,0,0,0,0,0,0],"split_type":[0,0,0,0,0,0,0,0,0,0,0,0,0,0,0],"sum_hessian":[1.609E3,4.77E2,1.132E3,2.96E2,1.81E2,6.68E2,4.64E2,1.66E2,1.3E2,1.33E2,4.8E1,4.15E2,2.53E2,3.47E2,1.17E2],"tree_param":{"num_deleted":"0","num_feature":"23","num_nodes":"15","size_leaf_vector":"1"}},{"base_weights":[-9.8705724E-2,9.2778313E-1,-1.7232777E0,2.6725817E0,2.0874856E-1,2.925433E-1,-2.6050038E0,5.88481E-2,3.027078E-2,-6.4131417E-3,2.3905767E-2,-5.6210125E-4,4.516878E-2,-4.738894E-2,-1.7536642E-2],"categories":[],"categories_nodes":[],"categories_segments":[],"categories_sizes":[],"default_left":[0,0,0,0,0,0,0,0,0,0,0,0,0,0,0],"id":71,"left_children":[1,3,5,7,9,11,13,-1,-1,-1,-1,-1,-1,-1,-1],"loss_changes":[2.7047864E3,1.246485E3,1.1169706E3,2.2463452E2,6.74121E2,1.8193033E2,4.171765E2,0E0,0E0,0E0,0E0,0E0,0E0,0E0,0E0],"parents":[2147483647,0,0,1,1,2,2,3,3,4,4,5,5,6,6],"right_children":[2,4,6,8,10,12,14,-1,-1,-1,-1,-1,-1,-1,-1],"split_conditions":[1E0,1E0,1E0,-4.930729E-1,5.371684E-1,1.2071401E0,4.627271E-1,5.88481E-2,3.027078E-2,-6.4131417E-3,2.3905767E-2,-5.6210125E-4,4.516878E-2,-4.738894E-2,-1.7536642E-2],"split_indices":[13,8,8,5,0,0,0,0,0,0,0,0,0,0,0],"split_type":[0,0,0,0,0,0,0,0,0,0,0,0,0,0,0],"sum_hessian":[1.62E3,9.93E2,6.27E2,2.89E2,7.04E2,1.91E2,4.36E2,8E1,2.09E2,4.86E2,2.18E2,1.72E2,1.9E1,2.89E2,1.47E2],"tree_param":{"num_deleted":"0","num_feature":"23","num_nodes":"15","size_leaf_vector":"1"}},{"base_weights":[6.8006195E-2,2.052481E0,-8.0103815E-1,1.298119E0,3.0775356E0,-1.692405E0,5.528352E-1,7.0485584E-3,4.1238986E-2,4.0302247E-2,7.0707165E-2,-3.2812845E-2,-9.66865E-3,2.3592068E-3,2.6899535E-2],"categories":[],"categories_nodes":[],"categories_segments":[],"categories_sizes":[],"default_left":[0,0,0,0,0,0,0,0,0,0,0,0,0,0,0],"id":72,"left_children":[1,3,5,7,9,11,13,-1,-1,-1,-1,-1,-1,-1,-1],"loss_changes":[2.7747952E3,3.7490356E2,1.3513424E3,3.5962054E2,8.928992E1,4.068319E2,2.281164E2,0E0,0E0,0E0,0E0,0E0,0E0,0E0,0E0],"parents":[2147483647,0,0,1,1,2,2,3,3,4,4,5,5,6,6],"right_children":[2,4,6,8,10,12,14,-1,-1,-1,-1,-1,-1,-1,-1],"split_conditions":[1E0,1E0,3.138445E-1,1E0,1.3108909E0,1E0,1E0,7.0485584E-3,4.1238986E-2,4.0302247E-2,7.0707165E-2,-3.2812845E-2,-9.66865E-3,2.3592068E-3,2.6899535E-2],"split_indices":[8,12,0,11,3,12,11,0,0,0,0,0,0,0,0],"split_type":[0,0,0,0,0,0,0,0,0,0,0,0,0,0,0],"sum_hessian":[1.607E3,4.89E2,1.118E3,2.83E2,2.06E2,6.74E2,4.44E2,1.88E2,9.5E1,1.82E2,2.4E1,4.25E2,2.49E2,3.44E2,1E2],"tree_param":{"num_deleted":"0","num_feature":"23","num_nodes":"15","size_leaf_vector":"1"}},{"base_weights":[5.3669296E-2,2.0386736E0,-8.425402E-1,2.8600254E0,6.070618E-1,2.277409E-1,-2.6164799E0,3.3232205E-2,5.712226E-2,2.4061244E-2,-6.069572E-3,-1.0484403E-2,1.8407911E-2,-4.816416E-2,-2.4066942E-2],"categories":[],"categories_nodes":[],"categories_segments":[],"categories_sizes":[],"default_left":[0,0,0,0,0,0,0,0,0,0,0,0,0,0,0],"id":73,"left_children":[1,3,5,7,9,11,13,-1,-1,-1,-1,-1,-1,-1,-1],"loss_changes":[2.8196216E3,5.779612E2,2.0738828E3,1.8168091E2,2.0007779E2,6.903163E2,2.7991382E2,0E0,0E0,0E0,0E0,0E0,0E0,0E0,0E0],"parents":[2147483647,0,0,1,1,2,2,3,3,4,4,5,5,6,6],"right_children":[2,4,6,8,10,12,14,-1,-1,-1,-1,-1,-1,-1,-1],"split_conditions":[1E0,1E0,1E0,5.371684E-1,2.928698E-3,1.649619E-1,2.394032E-1,3.3232205E-2,5.712226E-2,2.4061244E-2,-6.069572E-3,-1.0484403E-2,1.8407911E-2,-4.816416E-2,-2.4066942E-2],"split_indices":[8,13,13,0,3,0,0,0,0,0,0,0,0,0,0],"split_type":[0,0,0,0,0,0,0,0,0,0,0,0,0,0,0],"sum_hessian":[1.583E3,4.92E2,1.091E3,3.12E2,1.8E2,6.81E2,4.1E2,2.12E2,1E2,8.8E1,9.2E1,3.57E2,3.24E2,2.28E2,1.82E2],"tree_param":{"num_deleted":"0","num_feature":"23","num_nodes":"15","size_leaf_vector":"1"}},{"base_weights":[-3.3686692E-3,1.997075E0,-8.5740805E-1,1.3093055E0,2.8742135E0,-1.3359321E0,6.774122E-1,7.6955333E-3,4.229716E-2,3.72727E-2,6.086494E-2,-2.8656226E-2,-5.1120725E-3,-2.0190624E-3,2.8664807E-2],"categories":[],"categories_nodes":[],"categories_segments":[],"categories_sizes":[],"default_left":[0,0,0,0,0,0,0,0,0,0,0,0,0,0,0],"id":74,"left_children":[1,3,5,7,9,11,13,-1,-1,-1,-1,-1,-1,-1,-1],"loss_changes":[2.7523293E3,2.8701245E2,8.300973E2,3.4282663E2,6.8916504E1,5.566511E2,2.9073553E2,0E0,0E0,0E0,0E0,0E0,0E0,0E0,0E0],"parents":[2147483647,0,0,1,1,2,2,3,3,4,4,5,5,6,6],"right_children":[2,4,6,8,10,12,14,-1,-1,-1,-1,-1,-1,-1,-1],"split_conditions":[1E0,1E0,7.6049227E-1,1E0,1.2303768E0,1E0,1E0,7.6955333E-3,4.229716E-2,3.72727E-2,6.086494E-2,-2.8656226E-2,-5.1120725E-3,-2.0190624E-3,2.8664807E-2],"split_indices":[8,12,0,11,4,12,12,0,0,0,0,0,0,0,0],"split_type":[0,0,0,0,0,0,0,0,0,0,0,0,0,0,0],"sum_hessian":[1.609E3,4.81E2,1.128E3,2.71E2,2.1E2,8.6E2,2.68E2,1.85E2,8.6E1,1.77E2,3.3E1,5.13E2,3.47E2,1.66E2,1.02E2],"tree_param":{"num_deleted":"0","num_feature":"23","num_nodes":"15","size_leaf_vector":"1"}},{"base_weights":[-5.030776E-2,9.310233E-1,-1.5950022E0,6.3660145E-1,3.4793246E0,-2.0851138E0,7.274772E-1,1.8601626E-3,2.529661E-2,-2.0716947E-2,5.228579E-2,-1.9831691E-2,-3.884218E-2,1.7009793E-2,-3.5818625E-2],"categories":[],"categories_nodes":[],"categories_segments":[],"categories_sizes":[],"default_left":[0,0,0,0,0,0,0,0,0,0,0,0,0,0,0],"id":75,"left_children":[1,3,5,7,9,11,13,-1,-1,-1,-1,-1,-1,-1,-1],"loss_changes":[2.4465618E3,7.383071E2,7.152146E2,5.055531E2,8.748523E1,2.2259814E2,1.6523656E2,0E0,0E0,0E0,0E0,0E0,0E0,0E0,0E0],"parents":[2147483647,0,0,1,1,2,2,3,3,4,4,5,5,6,6],"right_children":[2,4,6,8,10,12,14,-1,-1,-1,-1,-1,-1,-1,-1],"split_conditions":[1E0,1E0,9.8381615E-1,5.371684E-1,-1.6719892E0,-1.453359E-1,1E0,1.8601626E-3,2.529661E-2,-2.0716947E-2,5.228579E-2,-1.9831691E-2,-3.884218E-2,1.7009793E-2,-3.5818625E-2],"split_indices":[13,10,0,0,2,4,16,0,0,0,0,0,0,0,0],"split_type":[0,0,0,0,0,0,0,0,0,0,0,0,0,0,0],"sum_hessian":[1.612E3,9.86E2,6.26E2,8.85E2,1.01E2,5.17E2,1.09E2,6.11E2,2.74E2,3E0,9.8E1,2.44E2,2.73E2,9.6E1,1.3E1],"tree_param":{"num_deleted":"0","num_feature":"23","num_nodes":"15","size_leaf_vector":"1"}},{"base_weights":[-5.77975E-2,9.14951E-1,-1.5856391E0,2.5954242E0,2.0875113E-1,2.5520268E-1,-2.3715377E0,3.464241E-2,9.999465E-2,-7.3195123E-3,2.3749117E-2,-2.1801693E-3,3.9927322E-2,-4.244668E-2,-1.01920245E-2],"categories":[],"categories_nodes":[],"categories_segments":[],"categories_sizes":[],"default_left":[0,0,0,0,0,0,0,0,0,0,0,0,0,0,0],"id":76,"left_children":[1,3,5,7,9,11,13,-1,-1,-1,-1,-1,-1,-1,-1],"loss_changes":[2.3764075E3,1.158913E3,9.0046204E2,2.1271399E2,7.169279E2,1.9278519E2,4.2237256E2,0E0,0E0,0E0,0E0,0E0,0E0,0E0,0E0],"parents":[2147483647,0,0,1,1,2,2,3,3,4,4,5,5,6,6],"right_children":[2,4,6,8,10,12,14,-1,-1,-1,-1,-1,-1,-1,-1],"split_conditions":[1E0,1E0,1E0,1.9274234E0,4.627271E-1,1.1326988E0,6.8605095E-1,3.464241E-2,9.999465E-2,-7.3195123E-3,2.3749117E-2,-2.1801693E-3,3.9927322E-2,-4.244668E-2,-1.01920245E-2],"split_indices":[13,8,8,2,0,0,0,0,0,0,0,0,0,0,0],"split_type":[0,0,0,0,0,0,0,0,0,0,0,0,0,0,0],"sum_hessian":[1.597E3,9.76E2,6.21E2,2.88E2,6.88E2,1.86E2,4.35E2,2.78E2,1E1,4.6E2,2.28E2,1.61E2,2.5E1,3.21E2,1.14E2],"tree_param":{"num_deleted":"0","num_feature":"23","num_nodes":"15","size_leaf_vector":"1"}},{"base_weights":[-7.229316E-2,9.6462333E-1,-1.7689483E0,2.599876E0,2.8439978E-1,5.9847213E-2,-2.5601478E0,2.8728355E-2,4.932272E-2,-7.0796255E-3,2.1675337E-2,-4.779538E-3,3.7587397E-2,-4.4152718E-2,-1.9495167E-2],"categories":[],"categories_nodes":[],"categories_segments":[],"categories_sizes":[],"default_left":[0,0,0,0,0,0,0,0,0,0,0,0,0,0,0],"id":77,"left_children":[1,3,5,7,9,11,13,-1,-1,-1,-1,-1,-1,-1,-1],"loss_changes":[2.8570337E3,1.1204968E3,8.914696E2,1.4127942E2,6.804675E2,1.8888004E2,2.6260522E2,0E0,0E0,0E0,0E0,0E0,0E0,0E0,0E0],"parents":[2147483647,0,0,1,1,2,2,3,3,4,4,5,5,6,6],"right_children":[2,4,6,8,10,12,14,-1,-1,-1,-1,-1,-1,-1,-1],"split_conditions":[1E0,1E0,1E0,2.394032E-1,3.882858E-1,1.1326988E0,6.116097E-1,2.8728355E-2,4.932272E-2,-7.0796255E-3,2.1675337E-2,-4.779538E-3,3.7587397E-2,-4.4152718E-2,-1.9495167E-2],"split_indices":[13,8,8,0,0,0,0,0,0,0,0,0,0,0,0],"split_type":[0,0,0,0,0,0,0,0,0,0,0,0,0,0,0],"sum_hessian":[1.622E3,1.007E3,6.15E2,2.95E2,7.12E2,1.86E2,4.29E2,1.74E2,1.21E2,4.36E2,2.76E2,1.62E2,2.4E1,2.99E2,1.3E2],"tree_param":{"num_deleted":"0","num_feature":"23","num_nodes":"15","size_leaf_vector":"1"}},{"base_weights":[2.4914902E-2,1.0144708E0,-1.6188799E0,2.8099413E0,2.6831767E-1,2.4477983E-1,-2.4328628E0,3.0121118E-2,5.5124804E-2,-5.6927497E-3,2.2442957E-2,-1.1780489E-3,3.9758056E-2,-4.461587E-2,-1.54073415E-2],"categories":[],"categories_nodes":[],"categories_segments":[],"categories_sizes":[],"default_left":[0,0,0,0,0,0,0,0,0,0,0,0,0,0,0],"id":78,"left_children":[1,3,5,7,9,11,13,-1,-1,-1,-1,-1,-1,-1,-1],"loss_changes":[2.5928591E3,1.3322437E3,9.0927075E2,2.0604126E2,6.070567E2,1.5128693E2,3.79739E2,0E0,0E0,0E0,0E0,0E0,0E0,0E0,0E0],"parents":[2147483647,0,0,1,1,2,2,3,3,4,4,5,5,6,6],"right_children":[2,4,6,8,10,12,14,-1,-1,-1,-1,-1,-1,-1,-1],"split_conditions":[1E0,1E0,1E0,2.394032E-1,4.627271E-1,1.225589E0,4.627271E-1,3.0121118E-2,5.5124804E-2,-5.6927497E-3,2.2442957E-2,-1.1780489E-3,3.9758056E-2,-4.461587E-2,-1.54073415E-2],"split_indices":[13,8,8,0,0,3,0,0,0,0,0,0,0,0,0],"split_type":[0,0,0,0,0,0,0,0,0,0,0,0,0,0,0],"sum_hessian":[1.592E3,9.94E2,5.98E2,2.91E2,7.03E2,1.82E2,4.16E2,1.74E2,1.17E2,4.65E2,2.38E2,1.62E2,2E1,2.77E2,1.39E2],"tree_param":{"num_deleted":"0","num_feature":"23","num_nodes":"15","size_leaf_vector":"1"}},{"base_weights":[-9.1941245E-3,9.6275306E-1,-1.5693684E0,2.6854165E0,1.7389837E-1,2.7471423E-1,-2.379505E0,3.693974E-2,1.0236063E-1,-1.592269E-2,5.2075204E-3,1.704192E-2,-9.060093E-3,-5.6810006E-2,-3.0425189E-2],"categories":[],"categories_nodes":[],"categories_segments":[],"categories_sizes":[],"default_left":[0,0,0,0,0,0,0,0,0,0,0,0,0,0,0],"id":79,"left_children":[1,3,5,7,9,11,13,-1,-1,-1,-1,-1,-1,-1,-1],"loss_changes":[2.4216965E3,1.3367211E3,9.1645044E2,1.3497363E2,1.6431633E2,1.5620656E2,1.6620142E2,0E0,0E0,0E0,0E0,0E0,0E0,0E0,0E0],"parents":[2147483647,0,0,1,1,2,2,3,3,4,4,5,5,6,6],"right_children":[2,4,6,8,10,12,14,-1,-1,-1,-1,-1,-1,-1,-1],"split_conditions":[1E0,1E0,1E0,2.2997763E0,1E0,2.928698E-3,-9.2728317E-1,3.693974E-2,1.0236063E-1,-1.592269E-2,5.2075204E-3,1.704192E-2,-9.060093E-3,-5.6810006E-2,-3.0425189E-2],"split_indices":[13,8,8,2,17,3,2,0,0,0,0,0,0,0,0],"split_type":[0,0,0,0,0,0,0,0,0,0,0,0,0,0,0],"sum_hessian":[1.595E3,9.83E2,6.12E2,3.08E2,6.75E2,1.87E2,4.25E2,3.02E2,6E0,8.6E1,5.89E2,9.3E1,9.4E1,5.8E1,3.67E2],"tree_param":{"num_deleted":"0","num_feature":"23","num_nodes":"15","size_leaf_vector":"1"}},{"base_weights":[-4.8296726E-3,9.5796245E-1,-1.55194E0,2.4583826E0,3.179032E-1,1.4061756E-1,-2.241826E0,2.5018446E-2,4.9582105E-2,-1.0528779E-3,3.5644755E-2,-1.0609918E-2,2.1937601E-2,-3.873019E-2,-6.1093895E-3],"categories":[],"categories_nodes":[],"categories_segments":[],"categories_sizes":[],"default_left":[0,0,0,0,0,0,0,0,0,0,0,0,0,0,0],"id":80,"left_children":[1,3,5,7,9,11,13,-1,-1,-1,-1,-1,-1,-1,-1],"loss_changes":[2.360927E3,9.374881E2,7.1025964E2,2.020437E2,5.8146906E2,2.1728134E2,3.572063E2,0E0,0E0,0E0,0E0,0E0,0E0,0E0,0E0],"parents":[2147483647,0,0,1,1,2,2,3,3,4,4,5,5,6,6],"right_children":[2,4,6,8,10,12,14,-1,-1,-1,-1,-1,-1,-1,-1],"split_conditions":[1E0,1E0,1E0,2.394032E-1,1.1326988E0,3.138445E-1,9.093749E-1,2.5018446E-2,4.9582105E-2,-1.0528779E-3,3.5644755E-2,-1.0609918E-2,2.1937601E-2,-3.873019E-2,-6.1093895E-3],"split_indices":[13,8,8,0,0,0,0,0,0,0,0,0,0,0,0],"split_type":[0,0,0,0,0,0,0,0,0,0,0,0,0,0,0],"sum_hessian":[1.583E3,9.76E2,6.07E2,2.91E2,6.85E2,1.76E2,4.31E2,1.71E2,1.2E2,5.81E2,1.04E2,1.08E2,6.8E1,3.44E2,8.7E1],"tree_param":{"num_deleted":"0","num_feature":"23","num_nodes":"15","size_leaf_vector":"1"}},{"base_weights":[-4.8696194E-2,-5.8048075E-1,1.1417402E0,-1.238342E0,4.061368E-1,8.530244E-1,3.69425E0,-2.8558437E-2,1.9543504E-3,-1.4181935E-3,3.1768724E-2,5.8805686E-3,3.2344293E-2,9.721391E-2,4.478435E-2],"categories":[],"categories_nodes":[],"categories_segments":[],"categories_sizes":[],"default_left":[0,0,0,0,0,0,0,0,0,0,0,0,0,0,0],"id":81,"left_children":[1,3,5,7,9,11,13,-1,-1,-1,-1,-1,-1,-1,-1],"loss_changes":[1.0148181E3,7.196587E2,3.6163885E2,6.871849E2,4.0543286E2,2.7598563E2,6.721423E1,0E0,0E0,0E0,0E0,0E0,0E0,0E0,0E0],"parents":[2147483647,0,0,1,1,2,2,3,3,4,4,5,5,6,6],"right_children":[2,4,6,8,10,12,14,-1,-1,-1,-1,-1,-1,-1,-1],"split_conditions":[5.371684E-1,1E0,1E0,1E0,1E0,1E0,-1.3233826E0,-2.8558437E-2,1.9543504E-3,-1.4181935E-3,3.1768724E-2,5.8805686E-3,3.2344293E-2,9.721391E-2,4.478435E-2],"split_indices":[0,12,10,11,9,11,5,0,0,0,0,0,0,0,0],"split_type":[0,0,0,0,0,0,0,0,0,0,0,0,0,0,0],"sum_hessian":[1.601E3,1.107E3,4.94E2,6.64E2,4.43E2,4.45E2,4.9E1,4.29E2,2.35E2,3.47E2,9.6E1,3.39E2,1.06E2,6E0,4.3E1],"tree_param":{"num_deleted":"0","num_feature":"23","num_nodes":"15","size_leaf_vector":"1"}},{"base_weights":[4.7983743E-2,8.745839E-1,-1.3575896E0,1.6634674E-1,1.948683E0,-2.1028817E0,-1.9461468E-1,-3.5838305E-3,2.536742E-2,-4.9412735E-2,2.9245501E-2,-3.8881112E-2,1.1265824E-3,3.116228E-3,-4.701352E-2],"categories":[],"categories_nodes":[],"categories_segments":[],"categories_sizes":[],"default_left":[0,0,0,0,0,0,0,0,0,0,0,0,0,0,0],"id":82,"left_children":[1,3,5,7,9,11,13,-1,-1,-1,-1,-1,-1,-1,-1],"loss_changes":[1.8949983E3,7.80932E2,5.231112E2,4.1346744E2,2.0287341E2,4.8684668E2,3.0137512E2,0E0,0E0,0E0,0E0,0E0,0E0,0E0,0E0],"parents":[2147483647,0,0,1,1,2,2,3,3,4,4,5,5,6,6],"right_children":[2,4,6,8,10,12,14,-1,-1,-1,-1,-1,-1,-1,-1],"split_conditions":[1E0,3.138445E-1,3.138445E-1,1E0,-2.3002222E0,1E0,1E0,-3.5838305E-3,2.536742E-2,-4.9412735E-2,2.9245501E-2,-3.8881112E-2,1.1265824E-3,3.116228E-3,-4.701352E-2],"split_indices":[13,0,0,9,3,9,16,0,0,0,0,0,0,0,0],"split_type":[0,0,0,0,0,0,0,0,0,0,0,0,0,0,0],"sum_hessian":[1.629E3,1.026E3,6.03E2,6.19E2,4.07E2,3.67E2,2.36E2,4.92E2,1.27E2,6E0,4.01E2,2.87E2,8E1,2.09E2,2.7E1],"tree_param":{"num_deleted":"0","num_feature":"23","num_nodes":"15","size_leaf_vector":"1"}},{"base_weights":[-6.903857E-3,9.2106456E-1,-1.5127934E0,6.5540534E-1,3.1593874E0,-1.7545233E0,8.277178E-1,5.156432E-3,3.7165526E-2,-2.6070261E-2,4.7654472E-2,-2.8638054E-2,4.9524633E-3,2.2004703E-2,-8.122752E-2],"categories":[],"categories_nodes":[],"categories_segments":[],"categories_sizes":[],"default_left":[0,0,0,0,0,0,0,0,0,0,0,0,0,0,0],"id":83,"left_children":[1,3,5,7,9,11,13,-1,-1,-1,-1,-1,-1,-1,-1],"loss_changes":[2.2833767E3,5.991013E2,3.5392786E2,5.1740753E2,9.17511E1,2.8642615E2,2.787059E2,0E0,0E0,0E0,0E0,0E0,0E0,0E0,0E0],"parents":[2147483647,0,0,1,1,2,2,3,3,4,4,5,5,6,6],"right_children":[2,4,6,8,10,12,14,-1,-1,-1,-1,-1,-1,-1,-1],"split_conditions":[1E0,1E0,1.3560226E0,1.2071401E0,-1.6719892E0,1E0,1E0,5.156432E-3,3.7165526E-2,-2.6070261E-2,4.7654472E-2,-2.8638054E-2,4.9524633E-3,2.2004703E-2,-8.122752E-2],"split_indices":[13,10,0,0,2,10,16,0,0,0,0,0,0,0,0],"split_type":[0,0,0,0,0,0,0,0,0,0,0,0,0,0,0],"sum_hessian":[1.632E3,1.01E3,6.22E2,9.04E2,1.06E2,5.64E2,5.8E1,7.85E2,1.19E2,3E0,1.03E2,5.06E2,5.8E1,5.3E1,5E0],"tree_param":{"num_deleted":"0","num_feature":"23","num_nodes":"15","size_leaf_vector":"1"}},{"base_weights":[8.829404E-2,1.9027174E0,-7.1091795E-1,1.2659577E0,2.8947616E0,-1.3430367E0,5.690357E-1,5.45478E-3,3.3163793E-2,2.6599395E-3,4.4623934E-2,-2.617553E-2,-8.244882E-3,1.2182762E-3,2.696481E-2],"categories":[],"categories_nodes":[],"categories_segments":[],"categories_sizes":[],"default_left":[0,0,0,0,0,0,0,0,0,0,0,0,0,0,0],"id":84,"left_children":[1,3,5,7,9,11,13,-1,-1,-1,-1,-1,-1,-1,-1],"loss_changes":[2.3142761E3,3.0460193E2,8.9722784E2,2.7586203E2,1.0983081E2,2.7312744E2,2.3256525E2,0E0,0E0,0E0,0E0,0E0,0E0,0E0,0E0],"parents":[2147483647,0,0,1,1,2,2,3,3,4,4,5,5,6,6],"right_children":[2,4,6,8,10,12,14,-1,-1,-1,-1,-1,-1,-1,-1],"split_conditions":[1E0,3.138445E-1,4.627271E-1,1E0,-1.2745042E0,1E0,1.4304639E0,5.45478E-3,3.3163793E-2,2.6599395E-3,4.4623934E-2,-2.617553E-2,-8.244882E-3,1.2182762E-3,2.696481E-2],"split_indices":[8,0,0,12,1,12,0,0,0,0,0,0,0,0,0],"split_type":[0,0,0,0,0,0,0,0,0,0,0,0,0,0,0],"sum_hessian":[1.594E3,4.87E2,1.107E3,2.98E2,1.89E2,7.41E2,3.66E2,1.62E2,1.36E2,1.4E1,1.75E2,4.55E2,2.86E2,2.68E2,9.8E1],"tree_param":{"num_deleted":"0","num_feature":"23","num_nodes":"15","size_leaf_vector":"1"}},{"base_weights":[2.4097417E-2,1.7985874E0,-7.43055E-1,2.5537724E0,6.0571146E-1,1.9477808E-1,-2.2506661E0,3.5323936E-2,1.060806E-1,-1.7627805E-3,1.7423835E-2,5.203071E-3,-1.3569674E-2,-6.418533E-2,-2.9365098E-2],"categories":[],"categories_nodes":[],"categories_segments":[],"categories_sizes":[],"default_left":[0,0,0,0,0,0,0,0,0,0,0,0,0,0,0],"id":85,"left_children":[1,3,5,7,9,11,13,-1,-1,-1,-1,-1,-1,-1,-1],"loss_changes":[2.160365E3,4.2995654E2,1.5670259E3,1.129613E2,8.302389E1,1.3117978E2,1.8403638E2,0E0,0E0,0E0,0E0,0E0,0E0,0E0,0E0],"parents":[2147483647,0,0,1,1,2,2,3,3,4,4,5,5,6,6],"right_children":[2,4,6,8,10,12,14,-1,-1,-1,-1,-1,-1,-1,-1],"split_conditions":[1E0,1E0,1E0,2.2997763E0,-5.8459423E-2,1E0,-1.2996361E0,3.5323936E-2,1.060806E-1,-1.7627805E-3,1.7423835E-2,5.203071E-3,-1.3569674E-2,-6.418533E-2,-2.9365098E-2],"split_indices":[8,13,13,2,2,18,2,0,0,0,0,0,0,0,0],"split_type":[0,0,0,0,0,0,0,0,0,0,0,0,0,0,0],"sum_hessian":[1.585E3,4.78E2,1.107E3,2.92E2,1.86E2,6.83E2,4.24E2,2.88E2,4E0,8.5E1,1.01E2,5.96E2,8.7E1,3.4E1,3.9E2],"tree_param":{"num_deleted":"0","num_feature":"23","num_nodes":"15","size_leaf_vector":"1"}},{"base_weights":[3.352625E-2,1.6194857E0,-6.539374E-1,2.3362565E0,4.3658754E-1,1.5323545E-1,-1.9759669E0,5.4591116E-2,2.9813189E-2,3.3692901E-3,6.3502714E-2,-6.919153E-3,2.0426769E-2,-3.6555704E-2,-6.9224187E-3],"categories":[],"categories_nodes":[],"categories_segments":[],"categories_sizes":[],"default_left":[0,0,0,0,0,0,0,0,0,0,0,0,0,0,0],"id":86,"left_children":[1,3,5,7,9,11,13,-1,-1,-1,-1,-1,-1,-1,-1],"loss_changes":[1.7847727E3,4.1867407E2,1.2189382E3,1.0915271E2,1.5028229E2,5.7358105E2,3.681277E2,0E0,0E0,0E0,0E0,0E0,0E0,0E0,0E0],"parents":[2147483647,0,0,1,1,2,2,3,3,4,4,5,5,6,6],"right_children":[2,4,6,8,10,12,14,