{"learner":{"attributes":{},"feature_names":[],"feature_types":[],"gradient_booster":{"model":{"cats":{"enc":[],"feature_segments":[],"sorted_idx":[]},"gbtree_model_param":{"num_parallel_tree":"1","num_trees":"214"},"iteration_indptr":[0,1,2,3,4,5,6,7,8,9,10,11,12,13,14,15,16,17,18,19,20,21,22,23,24,25,26,27,28,29,30,31,32,33,34,35,36,37,38,39,40,41,42,43,44,45,46,47,48,49,50,51,52,53,54,55,56,57,58,59,60,61,62,63,64,65,66,67,68,69,70,71,72,73,74,75,76,77,78,79,80,81,82,83,84,85,86,87,88,89,90,91,92,93,94,95,96,97,98,99,100,101,102,103,104,105,106,107,108,109,110,111,112,113,114,115,116,117,118,119,120,121,122,123,124,125,126,127,128,129,130,131,132,133,134,135,136,137,138,139,140,141,142,143,144,145,146,147,148,149,150,151,152,153,154,155,156,157,158,159,160,161,162,163,164,165,166,167,168,169,170,171,172,173,174,175,176,177,178,179,180,181,182,183,184,185,186,187,188,189,190,191,192,193,194,195,196,197,198,199,200,201,202,203,204,205,206,207,208,209,210,211,212,213,214],"tree_info":[0,0,0,0,0,0,0,0,0,0,0,0,0,0,0,0,0,0,0,0,0,0,0,0,0,0,0,0,0,0,0,0,0,0,0,0,0,0,0,0,0,0,0,0,0,0,0,0,0,0,0,0,0,0,0,0,0,0,0,0,0,0,0,0,0,0,0,0,0,0,0,0,0,0,0,0,0,0,0,0,0,0,0,0,0,0,0,0,0,0,0,0,0,0,0,0,0,0,0,0,0,0,0,0,0,0,0,0,0,0,0,0,0,0,0,0,0,0,0,0,0,0,0,0,0,0,0,0,0,0,0,0,0,0,0,0,0,0,0,0,0,0,0,0,0,0,0,0,0,0,0,0,0,0,0,0,0,0,0,0,0,0,0,0,0,0,0,0,0,0,0,0,0,0,0,0,0,0,0,0,0,0,0,0,0,0,0,0,0,0,0,0,0,0,0,0,0,0,0,0,0,0,0,0,0,0,0,0,0,0,0,0,0,0],"trees":[{"base_weights":[-3.331106E-2,5.634803E0,-5.2988043E0,2.2441003E0,8.922795E0,-7.387429E0,-2.027205E0,-1.3358731E0,3.3086653E0,5.8774295E0,1.0846393E1,-4.2954698E0,-8.157633E0,-4.3152385E0,1.4276595E0,-1.4491594E-1,5.2602705E-2,1.15549736E-1,3.6934238E-2,1.405529E-1,-1.6895387E-2,3.3665377E-1,1.9794248E-1,-1.0794758E-1,1.4639221E-1,2.1039122E-1,-1.6518423E-1,-9.392488E-2,3.330753E-1,-4.5886192E-2,6.0116213E-2],"categories":[],"categories_nodes":[],"categories_segments":[],"categories_sizes":[],"default_left":[0,0,0,0,0,0,0,0,0,0,0,0,0,0,0,0,0,0,0,0,0,0,0,0,0,0,0,0,0,0,0],"id":0,"left_children":[1,3,5,7,9,11,13,15,17,19,21,23,25,27,29,-1,-1,-1,-1,-1,-1,-1,-1,-1,-1,-1,-1,-1,-1,-1,-1],"loss_changes":[5.1065516E4,9.166424E3,6.0460234E3,1.5555432E3,2.384918E3,1.2533203E3,2.749142E3,2.2273145E3,1.1240762E3,1.2834194E3,1.2688574E3,1.4567479E3,9.86709E2,1.7742954E3,8.258297E2,0E0,0E0,0E0,0E0,0E0,0E0,0E0,0E0,0E0,0E0,0E0,0E0,0E0,0E0,0E0,0E0],"parents":[2147483647,0,0,1,1,2,2,3,3,4,4,5,5,6,6,7,7,8,8,9,9,10,10,11,11,12,12,13,13,14,14],"right_children":[2,4,6,8,10,12,14,16,18,20,22,24,26,28,30,-1,-1,-1,-1,-1,-1,-1,-1,-1,-1,-1,-1,-1,-1,-1,-1],"split_conditions":[1E0,3.320637E-1,-3.66377E-1,-6.440412E-1,1.1125515E-1,1.0524662E-1,3.5725515E-2,1E0,-2.7157873E-1,9.790251E-1,-1.3084546E-1,2.8041934E-3,-2.1546338E0,1.3966695E0,-5.679123E-1,-1.4491594E-1,5.2602705E-2,1.15549736E-1,3.6934238E-2,1.405529E-1,-1.6895387E-2,3.3665377E-1,1.9794248E-1,-1.0794758E-1,1.4639221E-1,2.1039122E-1,-1.6518423E-1,-9.392488E-2,3.330753E-1,-4.5886192E-2,6.0116213E-2],"split_indices":[5,1,2,4,4,0,4,13,1,0,2,1,4,1,1,0,0,0,0,0,0,0,0,0,0,0,0,0,0,0,0],"split_type":[0,0,0,0,0,0,0,0,0,0,0,0,0,0,0,0,0,0,0,0,0,0,0,0,0,0,0,0,0,0,0],"sum_hessian":[1.709E3,8.23E2,8.86E2,4.06E2,4.17E2,5.4E2,3.46E2,9.3E1,3.13E2,1.63E2,2.54E2,1.09E2,4.31E2,2.08E2,1.38E2,3.7E1,5.6E1,1.15E2,1.98E2,1.39E2,2.4E1,3.2E1,2.22E2,1E2,9E0,2E0,4.29E2,2.05E2,3E0,4.1E1,9.7E1],"tree_param":{"num_deleted":"0","num_feature":"28","num_nodes":"31","size_leaf_vector":"1"}},{"base_weights":[-2.3619393E-2,-5.036011E0,5.286095E0,-6.394245E0,2.913366E0,1.9431436E0,8.387457E0,-7.169222E0,-2.6693974E0,-4.9249664E-1,6.711705E0,-1.0429621E0,3.2552285E0,1.4028958E0,9.22559E0,-1.2216909E-1,-1.712624E-1,-1.0699689E-1,9.865034E-3,-4.3461602E-2,1.5629667E-1,-8.514749E-3,1.6499576E-1,3.1233966E-2,-1.2085396E-1,6.0644515E-2,2.9656816E-1,1.4219905E-1,-1.1337263E-1,3.3293027E-1,1.7662518E-1],"categories":[],"categories_nodes":[],"categories_segments":[],"categories_sizes":[],"default_left":[0,0,0,0,0,0,0,0,0,0,0,0,0,0,0,0,0,0,0,0,0,0,0,0,0,0,0,0,0,0,0],"id":1,"left_children":[1,3,5,7,9,11,13,15,17,19,21,23,25,27,29,-1,-1,-1,-1,-1,-1,-1,-1,-1,-1,-1,-1,-1,-1,-1,-1],"loss_changes":[4.620255E4,9.660449E3,8.723678E3,2.1833926E3,1.6980029E3,1.598031E3,2.545248E3,8.8094727E2,1.1330199E3,9.9690765E2,6.885552E2,1.640796E3,6.7457153E2,1.982295E3,9.6640234E2,0E0,0E0,0E0,0E0,0E0,0E0,0E0,0E0,0E0,0E0,0E0,0E0,0E0,0E0,0E0,0E0],"parents":[2147483647,0,0,1,1,2,2,3,3,4,4,5,5,6,6,7,7,8,8,9,9,10,10,11,11,12,12,13,13,14,14],"right_children":[2,4,6,8,10,12,14,16,18,20,22,24,26,28,30,-1,-1,-1,-1,-1,-1,-1,-1,-1,-1,-1,-1,-1,-1,-1,-1],"split_conditions":[1E0,1E0,3.320637E-1,1E0,3.5725515E-2,-4.1745228E-1,-7.9510045E-1,9.790251E-1,-1.9086339E-1,3.979156E-1,-6.1181355E-1,9.790251E-1,1.9401815E0,1.0524662E-1,-1.6423104E0,-1.2216909E-1,-1.712624E-1,-1.0699689E-1,9.865034E-3,-4.3461602E-2,1.5629667E-1,-8.514749E-3,1.6499576E-1,3.1233966E-2,-1.2085396E-1,6.0644515E-2,2.9656816E-1,1.4219905E-1,-1.1337263E-1,3.3293027E-1,1.7662518E-1],"split_indices":[6,26,1,25,4,4,4,0,4,1,1,0,0,0,0,0,0,0,0,0,0,0,0,0,0,0,0,0,0,0,0],"split_type":[0,0,0,0,0,0,0,0,0,0,0,0,0,0,0,0,0,0,0,0,0,0,0,0,0,0,0,0,0,0,0],"sum_hessian":[1.734E3,8.92E2,8.42E2,7.62E2,1.3E2,4.06E2,4.36E2,6.3E2,1.32E2,6.9E1,6.1E1,1.24E2,2.82E2,4.7E1,3.89E2,3.63E2,2.67E2,7.1E1,6.1E1,5.8E1,1.1E1,1.1E1,5E1,8.2E1,4.2E1,2.78E2,4E0,2.6E1,2.1E1,1.7E1,3.72E2],"tree_param":{"num_deleted":"0","num_feature":"28","num_nodes":"31","size_leaf_vector":"1"}},{"base_weights":[9.5187426E-2,-4.9411592E0,5.522117E0,-6.1730065E0,2.2337496E0,2.3242009E0,8.78488E0,-8.47826E0,-4.231483E0,3.8150635E0,-3.2171755E0,1.1225148E0,4.9483333E0,9.662725E0,1.1086823E0,-1.7509376E-1,-3.1239163E-2,8.970708E-2,-9.313699E-2,4.773009E-2,1.5355475E-1,2.5961116E-1,-9.667289E-2,5.7098217E-2,-1.6350962E-3,-8.969988E-2,1.1021612E-1,2.3031183E-1,1.4411622E-1,2.9605985E-1,-3.9337415E-2],"categories":[],"categories_nodes":[],"categories_segments":[],"categories_sizes":[],"default_left":[0,0,0,0,0,0,0,0,0,0,0,0,0,0,0,0,0,0,0,0,0,0,0,0,0,0,0,0,0,0,0],"id":2,"left_children":[1,3,5,7,9,11,13,15,17,19,21,23,25,27,29,-1,-1,-1,-1,-1,-1,-1,-1,-1,-1,-1,-1,-1,-1,-1,-1],"loss_changes":[4.6846832E4,7.871117E3,8.587664E3,3.3611836E3,1.1414446E3,1.3125596E3,2.7386055E3,6.7258203E2,1.5769707E3,5.446854E2,8.5193945E2,6.023092E2,7.283745E2,1.5894492E3,1.8439562E3,0E0,0E0,0E0,0E0,0E0,0E0,0E0,0E0,0E0,0E0,0E0,0E0,0E0,0E0,0E0,0E0],"parents":[2147483647,0,0,1,1,2,2,3,3,4,4,5,5,6,6,7,7,8,8,9,9,10,10,11,11,12,12,13,13,14,14],"right_children":[2,4,6,8,10,12,14,16,18,20,22,24,26,28,30,-1,-1,-1,-1,-1,-1,-1,-1,-1,-1,-1,-1,-1,-1,-1,-1],"split_conditions":[1E0,1E0,4.7474283E-1,-6.9919336E-1,9.790251E-1,1E0,9.790251E-1,8.918049E-1,-1.5549325E0,8.16401E-1,-1.6105675E0,-2.3865278E-1,-1.0627311E0,8.16401E-1,1E0,-1.7509376E-1,-3.1239163E-2,8.970708E-2,-9.313699E-2,4.773009E-2,1.5355475E-1,2.5961116E-1,-9.667289E-2,5.7098217E-2,-1.6350962E-3,-8.969988E-2,1.1021612E-1,2.3031183E-1,1.4411622E-1,2.9605985E-1,-3.9337415E-2],"split_indices":[6,26,1,2,0,26,0,1,0,2,1,1,2,2,11,0,0,0,0,0,0,0,0,0,0,0,0,0,0,0,0],"split_type":[0,0,0,0,0,0,0,0,0,0,0,0,0,0,0,0,0,0,0,0,0,0,0,0,0,0,0,0,0,0,0],"sum_hessian":[1.712E3,8.88E2,8.24E2,7.58E2,1.3E2,4.17E2,4.07E2,3.45E2,4.13E2,1.01E2,2.9E1,2.87E2,1.3E2,3.65E2,4.2E1,3.31E2,1.4E1,1.9E1,3.94E2,7.5E1,2.6E1,2E0,2.7E1,1.17E2,1.7E2,7E0,1.23E2,2.05E2,1.6E2,7E0,3.5E1],"tree_param":{"num_deleted":"0","num_feature":"28","num_nodes":"31","size_leaf_vector":"1"}},{"base_weights":[-1.9163305E-1,5.2416034E0,-5.20113E0,2.0064259E0,8.245868E0,-6.426998E0,1.3160548E0,-6.916252E-1,3.2640967E0,4.894783E0,9.921873E0,-3.3562703E0,-7.089143E0,-1.2874199E0,4.7381334E0,-9.2669606E-2,4.1355744E-2,1.05719395E-1,4.0034916E-2,8.354846E-2,3.0353707E-1,1.3912731E-1,2.2057581E-1,-1.2862228E-1,-1.7108631E-3,2.1165621E-1,-1.4309743E-1,-6.426299E-2,1.5073523E-1,-3.7773136E-2,1.1219048E-1],"categories":[],"categories_nodes":[],"categories_segments":[],"categories_sizes":[],"default_left":[0,0,0,0,0,0,0,0,0,0,0,0,0,0,0,0,0,0,0,0,0,0,0,0,0,0,0,0,0,0,0],"id":3,"left_children":[1,3,5,7,9,11,13,15,17,19,21,23,25,27,29,-1,-1,-1,-1,-1,-1,-1,-1,-1,-1,-1,-1,-1,-1,-1,-1],"loss_changes":[4.6977934E4,8.0310605E3,7.1827676E3,1.3595614E3,2.3608867E3,1.5133555E3,1.2801292E3,1.4050818E3,6.870254E2,1.0004065E3,8.6709375E2,1.3705638E3,8.913906E2,1.421892E3,3.7150952E2,0E0,0E0,0E0,0E0,0E0,0E0,0E0,0E0,0E0,0E0,0E0,0E0,0E0,0E0,0E0,0E0],"parents":[2147483647,0,0,1,1,2,2,3,3,4,4,5,5,6,6,7,7,8,8,9,9,10,10,11,11,12,12,13,13,14,14],"right_children":[2,4,6,8,10,12,14,16,18,20,22,24,26,28,30,-1,-1,-1,-1,-1,-1,-1,-1,-1,-1,-1,-1,-1,-1,-1,-1],"split_conditions":[1E0,3.320637E-1,1E0,-4.1745228E-1,1E0,1E0,1.1125515E-1,1E0,-2.3865278E-1,1.7729071E0,3.5725515E-2,1E0,-2.1546338E0,3.979156E-1,-1.0947275E0,-9.2669606E-2,4.1355744E-2,1.05719395E-1,4.0034916E-2,8.354846E-2,3.0353707E-1,1.3912731E-1,2.2057581E-1,-1.2862228E-1,-1.7108631E-3,2.1165621E-1,-1.4309743E-1,-6.426299E-2,1.5073523E-1,-3.7773136E-2,1.1219048E-1],"split_indices":[5,1,26,4,26,24,4,13,1,4,4,13,4,1,1,0,0,0,0,0,0,0,0,0,0,0,0,0,0,0,0],"split_type":[0,0,0,0,0,0,0,0,0,0,0,0,0,0,0,0,0,0,0,0,0,0,0,0,0,0,0,0,0,0,0],"sum_hessian":[1.724E3,8.27E2,8.97E2,3.99E2,4.28E2,7.55E2,1.42E2,1.27E2,2.72E2,1.44E2,2.84E2,1.35E2,6.2E2,8.1E1,6.1E1,5.2E1,7.5E1,1.03E2,1.69E2,1.36E2,8E0,8E1,2.04E2,6.9E1,6.6E1,2E0,6.18E2,6.7E1,1.4E1,7E0,5.4E1],"tree_param":{"num_deleted":"0","num_feature":"28","num_nodes":"31","size_leaf_vector":"1"}},{"base_weights":[-1.6181803E-1,-4.8829556E0,5.13738E0,-6.7261324E0,-1.488727E0,6.300503E0,8.343795E-1,-3.6057956E0,-7.5585184E0,1.6408533E-2,-4.3771076E0,3.8958426E0,7.594405E0,-1.1894083E0,4.194717E0,-1.2648596E-1,-7.12351E-3,5.5525906E-2,-1.5654682E-1,-4.849879E-2,4.2782817E-2,1.5289243E-1,-1.0758877E-1,6.038321E-2,1.6575341E-1,-2.4306796E-2,1.5653601E-1,2.2583766E-2,-7.982386E-2,1.0814947E-2,1.4431033E-1],"categories":[],"categories_nodes":[],"categories_segments":[],"categories_sizes":[],"default_left":[0,0,0,0,0,0,0,0,0,0,0,0,0,0,0,0,0,0,0,0,0,0,0,0,0,0,0,0,0,0,0],"id":4,"left_children":[1,3,5,7,9,11,13,15,17,19,21,23,25,27,29,-1,-1,-1,-1,-1,-1,-1,-1,-1,-1,-1,-1,-1,-1,-1,-1],"loss_changes":[4.33817E4,5.7268887E3,4.0837617E3,1.5155586E3,1.4086309E3,1.971041E3,1.195096E3,1.1226368E3,1.3675469E3,1.1168645E3,1.3883198E3,8.472927E2,8.9769336E2,7.2072925E2,7.265359E2,0E0,0E0,0E0,0E0,0E0,0E0,0E0,0E0,0E0,0E0,0E0,0E0,0E0,0E0,0E0,0E0],"parents":[2147483647,0,0,1,1,2,2,3,3,4,4,5,5,6,6,7,7,8,8,9,9,10,10,11,11,12,12,13,13,14,14],"right_children":[2,4,6,8,10,12,14,16,18,20,22,24,26,28,30,-1,-1,-1,-1,-1,-1,-1,-1,-1,-1,-1,-1,-1,-1,-1,-1],"split_conditions":[1E0,-2.6397198E-1,9.790251E-1,1.0524662E-1,9.790251E-1,1E0,4.8358467E-1,-6.787123E-1,1E0,3.453379E-1,-2.1276948E-1,1.5485969E0,-1.1804969E0,-4.07339E-1,1E0,-1.2648596E-1,-7.12351E-3,5.5525906E-2,-1.5654682E-1,-4.849879E-2,4.2782817E-2,1.5289243E-1,-1.0758877E-1,6.038321E-2,1.6575341E-1,-2.4306796E-2,1.5653601E-1,2.2583766E-2,-7.982386E-2,1.0814947E-2,1.4431033E-1],"split_indices":[6,2,0,0,0,13,2,2,9,2,2,2,2,2,13,0,0,0,0,0,0,0,0,0,0,0,0,0,0,0,0],"split_type":[0,0,0,0,0,0,0,0,0,0,0,0,0,0,0,0,0,0,0,0,0,0,0,0,0,0,0,0,0,0,0],"sum_hessian":[1.732E3,9.16E2,8.16E2,5.93E2,3.23E2,6.42E2,1.74E2,1.26E2,4.67E2,2.13E2,1.1E2,2.26E2,4.16E2,1.09E2,6.5E1,6.8E1,5.8E1,1.2E1,4.55E2,9.9E1,1.14E2,8E0,1.02E2,1.9E2,3.6E1,1.1E1,4.05E2,6E1,4.9E1,3E1,3.5E1],"tree_param":{"num_deleted":"0","num_feature":"28","num_nodes":"31","size_leaf_vector":"1"}},{"base_weights":[-1.989161E-1,4.8911314E0,-4.84195E0,1.612307E0,7.9723606E0,-5.6809096E0,1.2630185E-1,1.851125E0,-6.979742E0,8.608932E0,2.9379427E0,9.322641E0,-5.8307753E0,4.5540094E0,-2.9406536E0,2.2964291E-2,9.439237E-2,9.1274045E-2,-2.0083748E-1,3.0072382E-1,1.6348645E-1,-5.3841952E-2,1.9924232E-1,4.6775237E-1,1.4431633E-2,-7.13925E-2,-1.3007256E-1,5.0876718E-2,4.0325266E-1,-7.543457E-2,2.0004006E-1],"categories":[],"categories_nodes":[],"categories_segments":[],"categories_sizes":[],"default_left":[0,0,0,0,0,0,0,0,0,0,0,0,0,0,0,0,0,0,0,0,0,0,0,0,0,0,0,0,0,0,0],"id":5,"left_children":[1,3,5,7,9,11,13,15,17,19,21,23,25,27,29,-1,-1,-1,-1,-1,-1,-1,-1,-1,-1,-1,-1,-1,-1,-1,-1],"loss_changes":[4.0672895E4,8.281553E3,3.7520664E3,8.3164307E2,1.3303242E3,1.7857148E3,1.792317E3,7.789143E2,4.3646417E2,9.036758E2,1.9690374E3,9.5269446E2,1.1487383E3,1.6429427E3,8.821231E2,0E0,0E0,0E0,0E0,0E0,0E0,0E0,0E0,0E0,0E0,0E0,0E0,0E0,0E0,0E0,0E0],"parents":[2147483647,0,0,1,1,2,2,3,3,4,4,5,5,6,6,7,7,8,8,9,9,10,10,11,11,12,12,13,13,14,14],"right_children":[2,4,6,8,10,12,14,16,18,20,22,24,26,28,30,-1,-1,-1,-1,-1,-1,-1,-1,-1,-1,-1,-1,-1,-1,-1,-1],"split_conditions":[1E0,3.320637E-1,5.768078E-2,2.662118E-1,9.790251E-1,1E0,1.0524662E-1,-3.0121759E-2,-3.4772453E0,-1.6423104E0,1.2978916E0,-1.0727769E0,1.0524662E-1,-6.81154E-1,1E0,2.2964291E-2,9.439237E-2,9.1274045E-2,-2.0083748E-1,3.0072382E-1,1.6348645E-1,-5.3841952E-2,1.9924232E-1,4.6775237E-1,1.4431633E-2,-7.13925E-2,-1.3007256E-1,5.0876718E-2,4.0325266E-1,-7.543457E-2,2.0004006E-1],"split_indices":[5,1,1,1,0,11,0,1,0,0,1,1,0,0,21,0,0,0,0,0,0,0,0,0,0,0,0,0,0,0,0],"split_type":[0,0,0,0,0,0,0,0,0,0,0,0,0,0,0,0,0,0,0,0,0,0,0,0,0,0,0,0,0,0,0],"sum_hessian":[1.719E3,8.2E2,8.99E2,3.98E2,4.22E2,7.69E2,1.3E2,3.88E2,1E1,3.74E2,4.8E1,7E0,7.62E2,5.3E1,7.7E1,3.13E2,7.5E1,2E0,8E0,2.1E1,3.53E2,2.7E1,2.1E1,2E0,5E0,1.78E2,5.84E2,4.8E1,5E0,7.3E1,4E0],"tree_param":{"num_deleted":"0","num_feature":"28","num_nodes":"31","size_leaf_vector":"1"}},{"base_weights":[1.01238124E-1,4.84916E0,-4.33132E0,1.8773129E0,7.0496063E0,-6.1956086E0,-8.486196E-1,3.1590397E0,-1.6803426E0,8.668134E0,5.0349445E0,-3.04034E0,-7.0236897E0,-2.8264887E0,2.2366815E0,1.2965177E-1,3.9932624E-2,-1.23650834E-1,7.127615E-2,1.7775622E-1,2.1540822E-2,6.4795285E-2,1.357683E-1,-6.931313E-2,3.083782E-1,2.895856E-1,-1.42789E-1,6.935275E-2,-7.140847E-2,3.3846825E-2,2.5209916E-1],"categories":[],"categories_nodes":[],"categories_segments":[],"categories_sizes":[],"default_left":[0,0,0,0,0,0,0,0,0,0,0,0,0,0,0,0,0,0,0,0,0,0,0,0,0,0,0,0,0,0,0],"id":6,"left_children":[1,3,5,7,9,11,13,15,17,19,21,23,25,27,29,-1,-1,-1,-1,-1,-1,-1,-1,-1,-1,-1,-1,-1,-1,-1,-1],"loss_changes":[3.6745293E4,5.4994727E3,5.857705E3,1.6468875E3,1.5345762E3,1.5149824E3,1.9346555E3,1.0110852E3,2.2942146E3,4.5704297E2,6.658574E2,1.0375243E3,1.3471777E3,9.2188367E2,6.768743E2,0E0,0E0,0E0,0E0,0E0,0E0,0E0,0E0,0E0,0E0,0E0,0E0,0E0,0E0,0E0,0E0],"parents":[2147483647,0,0,1,1,2,2,3,3,4,4,5,5,6,6,7,7,8,8,9,9,10,10,11,11,12,12,13,13,14,14],"right_children":[2,4,6,8,10,12,14,16,18,20,22,24,26,28,30,-1,-1,-1,-1,-1,-1,-1,-1,-1,-1,-1,-1,-1,-1,-1,-1],"split_conditions":[1E0,3.5725515E-2,-2.6397198E-1,9.790251E-1,-6.81154E-1,1.0524662E-1,3.5725515E-2,1E0,-5.6851155E-1,1E0,9.420811E-1,1.7729071E0,-2.1546338E0,1E0,1.9735777E0,1.2965177E-1,3.9932624E-2,-1.23650834E-1,7.127615E-2,1.7775622E-1,2.1540822E-2,6.4795285E-2,1.357683E-1,-6.931313E-2,3.083782E-1,2.895856E-1,-1.42789E-1,6.935275E-2,-7.140847E-2,3.3846825E-2,2.5209916E-1],"split_indices":[5,4,2,0,0,0,4,9,4,21,4,4,4,9,2,0,0,0,0,0,0,0,0,0,0,0,0,0,0,0,0],"split_type":[0,0,0,0,0,0,0,0,0,0,0,0,0,0,0,0,0,0,0,0,0,0,0,0,0,0,0,0,0,0,0],"sum_hessian":[1.744E3,8.42E2,9.02E2,3.59E2,4.83E2,5.87E2,3.15E2,2.64E2,9.5E1,2.66E2,2.17E2,1.23E2,4.64E2,1.92E2,1.23E2,6.7E1,1.97E2,5.1E1,4.4E1,2.58E2,8E0,1.09E2,1.08E2,1.21E2,2E0,2E0,4.62E2,2E1,1.72E2,1.18E2,5E0],"tree_param":{"num_deleted":"0","num_feature":"28","num_nodes":"31","size_leaf_vector":"1"}},{"base_weights":[-2.024605E-1,4.7410026E0,-4.773548E0,1.3786447E0,8.124601E0,-2.0622258E-1,-6.8155127E0,3.1113958E0,-1.0292386E0,8.782811E0,4.5608573E0,-1.4595371E0,3.2990155E0,-9.2142515E0,-4.456435E0,4.2115085E-2,1.1149516E-1,3.5341296E-2,-6.036668E-2,2.0182471E-1,1.3441822E-1,-9.667775E-2,1.2245513E-1,1.0343563E-1,-4.2543545E-2,1.0081558E-1,-5.165375E-3,-1.928981E-1,-1.3646747E-1,-1.0790595E-1,7.4692355E-3],"categories":[],"categories_nodes":[],"categories_segments":[],"categories_sizes":[],"default_left":[0,0,0,0,0,0,0,0,0,0,0,0,0,0,0,0,0,0,0,0,0,0,0,0,0,0,0,0,0,0,0],"id":7,"left_children":[1,3,5,7,9,11,13,15,17,19,21,23,25,27,29,-1,-1,-1,-1,-1,-1,-1,-1,-1,-1,-1,-1,-1,-1,-1,-1],"loss_changes":[3.87087E4,9.351961E3,8.29902E3,1.730519E3,9.216797E2,1.2173289E3,3.4391035E3,5.8536865E2,9.756348E2,8.676758E2,1.0032494E3,9.184763E2,4.5520844E2,2.5430273E2,1.4266392E3,0E0,0E0,0E0,0E0,0E0,0E0,0E0,0E0,0E0,0E0,0E0,0E0,0E0,0E0,0E0,0E0],"parents":[2147483647,0,0,1,1,2,2,3,3,4,4,5,5,6,6,7,7,8,8,9,9,10,10,11,11,12,12,13,13,14,14],"right_children":[2,4,6,8,10,12,14,16,18,20,22,24,26,28,30,-1,-1,-1,-1,-1,-1,-1,-1,-1,-1,-1,-1,-1,-1,-1,-1],"split_conditions":[1E0,3.979156E-1,1E0,1E0,1E0,-8.171123E-3,-6.9919336E-1,-3.0121759E-2,-4.07339E-1,9.290465E-1,-4.5342126E-1,-1.2112185E0,1.100336E0,-4.1097075E-2,-3.0121759E-2,4.2115085E-2,1.1149516E-1,3.5341296E-2,-6.036668E-2,2.0182471E-1,1.3441822E-1,-9.667775E-2,1.2245513E-1,1.0343563E-1,-4.2543545E-2,1.0081558E-1,-5.165375E-3,-1.928981E-1,-1.3646747E-1,-1.0790595E-1,7.4692355E-3],"split_indices":[5,1,24,24,24,1,2,1,2,2,2,2,1,1,1,0,0,0,0,0,0,0,0,0,0,0,0,0,0,0,0],"split_type":[0,0,0,0,0,0,0,0,0,0,0,0,0,0,0,0,0,0,0,0,0,0,0,0,0,0,0,0,0,0,0],"sum_hessian":[1.711E3,8.22E2,8.89E2,4.13E2,4.09E2,2.75E2,6.14E2,2.4E2,1.73E2,3.44E2,6.5E1,2.03E2,7.2E1,3.03E2,3.11E2,1.72E2,6.8E1,7.2E1,1.01E2,2.07E2,1.37E2,9E0,5.6E1,1.8E1,1.85E2,4.8E1,2.4E1,2.53E2,5E1,2.6E2,5.1E1],"tree_param":{"num_deleted":"0","num_feature":"28","num_nodes":"31","size_leaf_vector":"1"}},{"base_weights":[-3.176636E-2,4.686397E0,-4.3432465E0,6.378212E0,8.879423E-1,-3.0850194E-2,-6.2552323E0,4.063248E0,1.518666E-1,-6.255931E-1,2.126823E0,-1.988147E0,1.8715287E0,-9.881436E-1,-6.4541645E0,8.467522E-2,-1.1184364E-1,-3.531692E-2,3.3463374E-2,-1.0922557E-3,5.0121088E-2,9.4797626E-2,-5.327875E-2,9.818177E-2,2.6614731E-2,-3.1530127E-2,4.70971E-2,-1.3026877E-1,1.04509756E-1],"categories":[],"categories_nodes":[],"categories_segments":[],"categories_sizes":[],"default_left":[0,0,0,0,0,0,0,0,0,0,0,0,0,0,0,0,0,0,0,0,0,0,0,0,0,0,0,0,0],"id":8,"left_children":[1,3,5,7,9,11,13,15,-1,17,19,21,23,25,27,-1,-1,-1,-1,-1,-1,-1,-1,-1,-1,-1,-1,-1,-1],"loss_changes":[3.5232816E4,5.308873E3,7.461752E3,1.5901035E3,4.8135345E2,1.042583E3,6.505879E2,3.6298608E2,0E0,3.0784277E2,1.1770441E2,6.4358405E2,2.2647739E2,5.1117317E1,5.072832E2,0E0,0E0,0E0,0E0,0E0,0E0,0E0,0E0,0E0,0E0,0E0,0E0,0E0,0E0],"parents":[2147483647,0,0,1,1,2,2,3,3,4,4,5,5,6,6,7,7,9,9,10,10,11,11,12,12,13,13,14,14],"right_children":[2,4,6,8,10,12,14,16,-1,18,20,22,24,26,28,-1,-1,-1,-1,-1,-1,-1,-1,-1,-1,-1,-1,-1,-1],"split_conditions":[1E0,1E0,1E0,1E0,1E0,1E0,1E0,1E0,1.518666E-1,1E0,1E0,1E0,1E0,1E0,1E0,8.467522E-2,-1.1184364E-1,-3.531692E-2,3.3463374E-2,-1.0922557E-3,5.0121088E-2,9.4797626E-2,-5.327875E-2,9.818177E-2,2.6614731E-2,-3.1530127E-2,4.70971E-2,-1.3026877E-1,1.04509756E-1],"split_indices":[5,24,24,13,13,13,9,19,0,18,7,9,9,18,19,0,0,0,0,0,0,0,0,0,0,0,0,0,0],"split_type":[0,0,0,0,0,0,0,0,0,0,0,0,0,0,0,0,0,0,0,0,0,0,0,0,0,0,0,0,0],"sum_hessian":[1.73E3,8.26E2,9.04E2,5.71E2,2.55E2,2.78E2,6.26E2,1.99E2,3.72E2,1.15E2,1.4E2,1.37E2,1.41E2,2.3E1,6.03E2,1.96E2,3E0,7.7E1,3.8E1,2.1E1,1.19E2,1.2E1,1.25E2,2E1,1.21E2,2E1,3E0,6E2,3E0],"tree_param":{"num_deleted":"0","num_feature":"28","num_nodes":"29","size_leaf_vector":"1"}},{"base_weights":[1.5064567E-2,-3.668691E0,3.4250104E0,3.2685095E-1,-5.031489E0,4.83567E-1,6.0518365E0,-2.1573486E0,3.9338057E0,-5.833584E0,7.1270174E-1,2.062075E0,-3.5264578E0,5.0690856E0,9.817429E0,-5.5124283E-2,2.566174E-1,8.839998E-2,-1.4477664E-1,-1.3465062E-1,-2.9522482E-2,5.169381E-4,5.216233E-1,-4.798781E-2,6.258765E-2,5.568302E-2,-9.496639E-2,1.1956686E-1,3.7614517E-2,2.011385E-1,-1.4056689E-1],"categories":[],"categories_nodes":[],"categories_segments":[],"categories_sizes":[],"default_left":[0,0,0,0,0,0,0,0,0,0,0,0,0,0,0,0,0,0,0,0,0,0,0,0,0,0,0,0,0,0,0],"id":9,"left_children":[1,3,5,7,9,11,13,15,17,19,21,23,25,27,29,-1,-1,-1,-1,-1,-1,-1,-1,-1,-1,-1,-1,-1,-1,-1,-1],"loss_changes":[2.148001E4,4.4775303E3,6.8583457E3,1.8901697E3,2.8284863E3,2.6658115E3,1.685834E3,1.1647454E3,5.0465515E2,2.1154023E3,1.3251458E3,1.4515271E3,9.355585E2,1.0806982E3,4.7775098E2,0E0,0E0,0E0,0E0,0E0,0E0,0E0,0E0,0E0,0E0,0E0,0E0,0E0,0E0,0E0,0E0],"parents":[2147483647,0,0,1,1,2,2,3,3,4,4,5,5,6,6,7,7,8,8,9,9,10,10,11,11,12,12,13,13,14,14],"right_children":[2,4,6,8,10,12,14,16,18,20,22,24,26,28,30,-1,-1,-1,-1,-1,-1,-1,-1,-1,-1,-1,-1,-1,-1,-1,-1],"split_conditions":[-1.8204796E-1,1.0524662E-1,3.5725515E-2,3.5725515E-2,7.154922E-1,9.790251E-1,1E0,1E0,1E0,-4.2269978E-1,1E0,8.420509E-2,1E0,1.9262446E-1,1E0,-5.5124283E-2,2.566174E-1,8.839998E-2,-1.4477664E-1,-1.3465062E-1,-2.9522482E-2,5.169381E-4,5.216233E-1,-4.798781E-2,6.258765E-2,5.568302E-2,-9.496639E-2,1.1956686E-1,3.7614517E-2,2.011385E-1,-1.4056689E-1],"split_indices":[2,0,4,4,4,0,12,22,22,2,12,2,9,0,22,0,0,0,0,0,0,0,0,0,0,0,0,0,0,0,0],"split_type":[0,0,0,0,0,0,0,0,0,0,0,0,0,0,0,0,0,0,0,0,0,0,0,0,0,0,0,0,0,0,0],"sum_hessian":[1.708E3,8.21E2,8.87E2,2.09E2,6.12E2,4.19E2,4.68E2,1.24E2,8.5E1,5.37E2,7.5E1,3.01E2,1.18E2,3.73E2,9.5E1,1.2E2,4E0,8.2E1,3E0,4.44E2,9.3E1,7.4E1,1E0,5.8E1,2.43E2,1.9E1,9.9E1,2.89E2,8.4E1,9.4E1,1E0],"tree_param":{"num_deleted":"0","num_feature":"28","num_nodes":"31","size_leaf_vector":"1"}},{"base_weights":[-1.5054263E-1,-2.9719632E0,6.5010295E0,-3.580698E0,4.5385745E-1,7.749926E0,-5.473163E-1,-2.3929405E0,-5.407974E0,9.484013E0,-2.3529969E-1,8.134049E0,-4.382205E0,-3.030953E0,7.3245525E0,-1.0573234E-1,-4.0864177E-2,-1.1572291E-1,5.3523265E-2,5.173209E-2,2.0979196E-1,-2.0930257E-2,6.645215E-2,2.040857E-1,1.4642791E-1,-1.7340285E-1,5.5844814E-2,1.2688088E-1,-8.769549E-2,2.3102428E-1,-1.3706954E-1],"categories":[],"categories_nodes":[],"categories_segments":[],"categories_sizes":[],"default_left":[0,0,0,0,0,0,0,0,0,0,0,0,0,0,0,0,0,0,0,0,0,0,0,0,0,0,0,0,0,0,0],"id":10,"left_children":[1,3,5,7,9,11,13,15,17,19,21,23,25,27,29,-1,-1,-1,-1,-1,-1,-1,-1,-1,-1,-1,-1,-1,-1,-1,-1],"loss_changes":[3.2260822E4,2.5187227E3,4.511201E3,2.2116787E3,1.1410764E3,2.0628438E3,1.5471675E3,6.166279E2,1.2705322E3,6.405005E1,4.9833832E2,6.3158203E2,4.5619513E2,7.9296405E2,1.2223105E3,0E0,0E0,0E0,0E0,0E0,0E0,0E0,0E0,0E0,0E0,0E0,0E0,0E0,0E0,0E0,0E0],"parents":[2147483647,0,0,1,1,2,2,3,3,4,4,5,5,6,6,7,7,8,8,9,9,10,10,11,11,12,12,13,13,14,14],"right_children":[2,4,6,8,10,12,14,16,18,20,22,24,26,28,30,-1,-1,-1,-1,-1,-1,-1,-1,-1,-1,-1,-1,-1,-1,-1,-1],"split_conditions":[3.979156E-1,-3.0121759E-2,9.790251E-1,9.790251E-1,1E0,1E0,1.4186201E0,-1.423987E0,1E0,1E0,1E0,1E0,1E0,4.7474283E-1,1.9564106E0,-1.0573234E-1,-4.0864177E-2,-1.1572291E-1,5.3523265E-2,5.173209E-2,2.0979196E-1,-2.0930257E-2,6.645215E-2,2.040857E-1,1.4642791E-1,-1.7340285E-1,5.5844814E-2,1.2688088E-1,-8.769549E-2,2.3102428E-1,-1.3706954E-1],"split_indices":[1,1,0,0,11,22,1,1,10,13,10,11,10,1,1,0,0,0,0,0,0,0,0,0,0,0,0,0,0,0,0],"split_type":[0,0,0,0,0,0,0,0,0,0,0,0,0,0,0,0,0,0,0,0,0,0,0,0,0,0,0,0,0,0,0],"sum_hessian":[1.717E3,1.206E3,5.11E2,1.024E3,1.82E2,4.34E2,7.7E1,6.22E2,4.02E2,1.2E1,1.7E2,4.21E2,1.3E1,5.9E1,1.8E1,6.5E1,5.57E2,3.84E2,1.8E1,2E0,1E1,1.39E2,3.1E1,1.14E2,3.07E2,8E0,5E0,7E0,5.2E1,1.4E1,4E0],"tree_param":{"num_deleted":"0","num_feature":"28","num_nodes":"31","size_leaf_vector":"1"}},{"base_weights":[1.1208964E-1,4.66841E0,-4.00853E0,1.9168007E0,7.578736E0,-5.1656303E0,2.3147736E0,4.8327965E-1,4.8725457E0,4.9157124E0,8.941825E0,-6.7321534E0,-3.1902833E0,1.0634041E0,6.45378E0,-1.6359513E-1,1.389032E-2,-2.6949536E-2,1.1707337E-1,-5.6825608E-2,1.10654995E-1,2.0559919E-1,1.4607413E-1,-1.4239274E-1,-3.0911343E-2,1.8936096E-1,-6.7996025E-2,1.4205873E-1,5.163467E-3,-4.7341593E-2,1.5486664E-1],"categories":[],"categories_nodes":[],"categories_segments":[],"categories_sizes":[],"default_left":[0,0,0,0,0,0,0,0,0,0,0,0,0,0,0,0,0,0,0,0,0,0,0,0,0,0,0,0,0,0,0],"id":11,"left_children":[1,3,5,7,9,11,13,15,17,19,21,23,25,27,29,-1,-1,-1,-1,-1,-1,-1,-1,-1,-1,-1,-1,-1,-1,-1,-1],"loss_changes":[3.28935E4,6.6481953E3,6.7433164E3,1.815371E3,1.4225391E3,2.3859863E3,7.337951E2,5.3905865E2,8.6856836E2,6.884641E2,5.100293E2,8.7791797E2,9.684912E2,5.3852905E2,3.9655347E2,0E0,0E0,0E0,0E0,0E0,0E0,0E0,0E0,0E0,0E0,0E0,0E0,0E0,0E0,0E0,0E0],"parents":[2147483647,0,0,1,1,2,2,3,3,4,4,5,5,6,6,7,7,8,8,9,9,10,10,11,11,12,12,13,13,14,14],"right_children":[2,4,6,8,10,12,14,16,18,20,22,24,26,28,30,-1,-1,-1,-1,-1,-1,-1,-1,-1,-1,-1,-1,-1,-1,-1,-1],"split_conditions":[1E0,1E0,1E0,3.979156E-1,4.9669346E-1,-5.455858E-1,3.979156E-1,-1.6434934E0,-4.5342126E-1,-1.0729717E0,8.317618E-1,4.4181687E-1,-2.3020124E0,1E0,-3.2029474E-1,-1.6359513E-1,1.389032E-2,-2.6949536E-2,1.1707337E-1,-5.6825608E-2,1.10654995E-1,2.0559919E-1,1.4607413E-1,-1.4239274E-1,-3.0911343E-2,1.8936096E-1,-6.7996025E-2,1.4205873E-1,5.163467E-3,-4.7341593E-2,1.5486664E-1],"split_indices":[5,26,26,1,1,2,1,1,2,2,2,1,1,9,2,0,0,0,0,0,0,0,0,0,0,0,0,0,0,0,0],"split_type":[0,0,0,0,0,0,0,0,0,0,0,0,0,0,0,0,0,0,0,0,0,0,0,0,0,0,0,0,0,0,0],"sum_hessian":[1.75E3,8.31E2,9.19E2,4.28E2,4.03E2,7.77E2,1.42E2,2.89E2,1.39E2,1.38E2,2.65E2,4.32E2,3.45E2,1.1E2,3.2E1,6E0,2.83E2,1.9E1,1.2E2,1E1,1.28E2,1.42E2,1.23E2,4.01E2,3.1E1,5E0,3.4E2,1.2E1,9.8E1,4E0,2.8E1],"tree_param":{"num_deleted":"0","num_feature":"28","num_nodes":"31","size_leaf_vector":"1"}},{"base_weights":[6.9568916E-3,-4.3131976E0,4.687116E0,-5.275392E-2,-6.1774793E0,1.6526996E0,7.76123E0,-1.6320428E0,4.166304E0,-6.617973E0,-3.1788106E0,3.332015E0,-6.422169E-1,8.118564E0,-2.3565552E0,-1.9987615E-2,-1.4097486E-1,1.3005254E-1,1.4777476E-2,-2.1103727E-2,-1.3338627E-1,-8.204452E-2,6.533692E-2,9.686988E-2,4.0309336E-2,3.4451593E-2,-4.0504258E-2,1.1508781E-1,1.8418032E-1,-1.5462221E-2,-1.6837204E-1],"categories":[],"categories_nodes":[],"categories_segments":[],"categories_sizes":[],"default_left":[0,0,0,0,0,0,0,0,0,0,0,0,0,0,0,0,0,0,0,0,0,0,0,0,0,0,0,0,0,0,0],"id":12,"left_children":[1,3,5,7,9,11,13,15,17,19,21,23,25,27,29,-1,-1,-1,-1,-1,-1,-1,-1,-1,-1,-1,-1,-1,-1,-1,-1],"loss_changes":[3.5383266E4,7.2275E3,7.8228145E3,1.8591445E3,8.1508984E2,1.6361887E3,1.5267656E3,6.8837494E2,6.056222E2,1.7463281E2,5.1036658E2,4.7871777E2,5.9372705E2,9.932344E2,1.3761406E2,0E0,0E0,0E0,0E0,0E0,0E0,0E0,0E0,0E0,0E0,0E0,0E0,0E0,0E0,0E0,0E0],"parents":[2147483647,0,0,1,1,2,2,3,3,4,4,5,5,6,6,7,7,8,8,9,9,10,10,11,11,12,12,13,13,14,14],"right_children":[2,4,6,8,10,12,14,16,18,20,22,24,26,28,30,-1,-1,-1,-1,-1,-1,-1,-1,-1,-1,-1,-1,-1,-1,-1,-1],"split_conditions":[1E0,1E0,3.979156E-1,1.1255737E-1,-1.914644E-2,1E0,1E0,1E0,1E0,-2.3020124E0,1E0,-8.499835E-2,-2.7157873E-1,1E0,1E0,-1.9987615E-2,-1.4097486E-1,1.3005254E-1,1.4777476E-2,-2.1103727E-2,-1.3338627E-1,-8.204452E-2,6.533692E-2,9.686988E-2,4.0309336E-2,3.4451593E-2,-4.0504258E-2,1.1508781E-1,1.8418032E-1,-1.5462221E-2,-1.6837204E-1],"split_indices":[6,24,1,1,1,24,22,18,25,1,17,1,1,26,24,0,0,0,0,0,0,0,0,0,0,0,0,0,0,0,0],"split_type":[0,0,0,0,0,0,0,0,0,0,0,0,0,0,0,0,0,0,0,0,0,0,0,0,0,0,0,0,0,0,0],"sum_hessian":[1.748E3,9.09E2,8.39E2,2.77E2,6.32E2,4.23E2,4.16E2,2.02E2,7.5E1,5.5E2,8.2E1,2.44E2,1.79E2,4.02E2,1.4E1,1.82E2,2E1,4.4E1,3.1E1,6E0,5.44E2,7.2E1,1E1,1.12E2,1.32E2,6.6E1,1.13E2,1.3E2,2.72E2,1.2E1,2E0],"tree_param":{"num_deleted":"0","num_feature":"28","num_nodes":"31","size_leaf_vector":"1"}},{"base_weights":[6.1535675E-2,-3.945149E0,4.3699856E0,-4.996807E0,2.3134618E0,1.5568475E0,7.0394444E0,-6.7496524E0,-2.8789093E0,7.5089884E-1,6.788994E0,2.9338664E-1,4.5235353E0,1.0102317E1,5.90027E0,-4.058491E-2,-1.4564651E-1,2.0161653E-1,-6.269069E-2,2.9559058E-1,-4.1242826E-4,3.788681E-2,1.9724934E-1,-3.2122398E-3,1.1921003E-1,1.6765422E-1,4.6595253E-2,2.1361455E-1,-7.528645E-3,4.8160553E-2,1.2713562E-1],"categories":[],"categories_nodes":[],"categories_segments":[],"categories_sizes":[],"default_left":[0,0,0,0,0,0,0,0,0,0,0,0,0,0,0,0,0,0,0,0,0,0,0,0,0,0,0,0,0,0,0],"id":13,"left_children":[1,3,5,7,9,11,13,15,17,19,21,23,25,27,29,-1,-1,-1,-1,-1,-1,-1,-1,-1,-1,-1,-1,-1,-1,-1,-1],"loss_changes":[2.94845E4,5.8365596E3,6.1694053E3,2.7945273E3,8.9004456E2,1.505487E3,1.4128145E3,1.042582E3,1.1923801E3,1.0406871E3,4.7937952E2,7.3029987E2,9.977029E2,7.040293E2,4.8666113E2,0E0,0E0,0E0,0E0,0E0,0E0,0E0,0E0,0E0,0E0,0E0,0E0,0E0,0E0,0E0,0E0],"parents":[2147483647,0,0,1,1,2,2,3,3,4,4,5,5,6,6,7,7,8,8,9,9,10,10,11,11,12,12,13,13,14,14],"right_children":[2,4,6,8,10,12,14,16,18,20,22,24,26,28,30,-1,-1,-1,-1,-1,-1,-1,-1,-1,-1,-1,-1,-1,-1,-1,-1],"split_conditions":[1E0,1E0,3.320637E-1,-5.660668E-1,3.979156E-1,1E0,1E0,1E0,-2.3020124E0,-1.6105675E0,2.5829363E-1,1.4615526E0,1.046861E-1,1.9121348E0,-3.4077576E-1,-4.058491E-2,-1.4564651E-1,2.0161653E-1,-6.269069E-2,2.9559058E-1,-4.1242826E-4,3.788681E-2,1.9724934E-1,-3.2122398E-3,1.1921003E-1,1.6765422E-1,4.6595253E-2,2.1361455E-1,-7.528645E-3,4.8160553E-2,1.2713562E-1],"split_indices":[6,26,1,2,1,26,11,24,1,1,2,2,2,2,2,0,0,0,0,0,0,0,0,0,0,0,0,0,0,0,0],"split_type":[0,0,0,0,0,0,0,0,0,0,0,0,0,0,0,0,0,0,0,0,0,0,0,0,0,0,0,0,0,0,0],"sum_hessian":[1.706E3,8.84E2,8.22E2,7.57E2,1.27E2,4.01E2,4.21E2,4.13E2,3.44E2,9.5E1,3.2E1,2.82E2,1.19E2,1.12E2,3.09E2,4.3E1,3.7E2,6E0,3.38E2,4E0,9.1E1,1.3E1,1.9E1,2.62E2,2E1,4.2E1,7.7E1,1.06E2,6E0,3.7E1,2.72E2],"tree_param":{"num_deleted":"0","num_feature":"28","num_nodes":"31","size_leaf_vector":"1"}},{"base_weights":[-1.1783779E-1,4.2272015E0,-4.0463653E0,1.4017171E0,6.8850994E0,-5.139549E0,1.8232622E0,2.660635E-1,3.8357315E0,4.013109E0,8.1902075E0,-6.7058644E0,-3.1567383E0,3.0828643E-1,7.1401677E0,5.491494E-2,-2.3309274E-2,-1.1840776E-1,9.2916235E-2,-4.8665494E-2,1.0111925E-1,1.312693E-1,1.8561211E-1,1.3319115E-1,-1.3621521E-1,-8.307406E-2,-1.6461462E-2,1.9189375E-2,-1.6238534E-1,2.0923981E-2,1.9959383E-1],"categories":[],"categories_nodes":[],"categories_segments":[],"categories_sizes":[],"default_left":[0,0,0,0,0,0,0,0,0,0,0,0,0,0,0,0,0,0,0,0,0,0,0,0,0,0,0,0,0,0,0],"id":14,"left_children":[1,3,5,7,9,11,13,15,17,19,21,23,25,27,29,-1,-1,-1,-1,-1,-1,-1,-1,-1,-1,-1,-1,-1,-1,-1,-1],"loss_changes":[2.88306E4,6.013248E3,5.700879E3,1.0770164E3,1.5151621E3,2.3019004E3,1.1254965E3,9.5315845E2,1.014985E3,8.9848364E2,4.4358008E2,6.7570703E2,7.7250806E2,6.132294E2,5.2809424E2,0E0,0E0,0E0,0E0,0E0,0E0,0E0,0E0,0E0,0E0,0E0,0E0,0E0,0E0,0E0,0E0],"parents":[2147483647,0,0,1,1,2,2,3,3,4,4,5,5,6,6,7,7,8,8,9,9,10,10,11,11,12,12,13,13,14,14],"right_children":[2,4,6,8,10,12,14,16,18,20,22,24,26,28,30,-1,-1,-1,-1,-1,-1,-1,-1,-1,-1,-1,-1,-1,-1,-1,-1],"split_conditions":[1E0,3.320637E-1,1E0,1E0,1E0,-5.455858E-1,3.979156E-1,-4.07339E-1,-1.0627311E0,-4.5342126E-1,1E0,1E0,3.453379E-1,1.1850591E0,2.2762077E-2,5.491494E-2,-2.3309274E-2,-1.1840776E-1,9.2916235E-2,-4.8665494E-2,1.0111925E-1,1.312693E-1,1.8561211E-1,1.3319115E-1,-1.3621521E-1,-8.307406E-2,-1.6461462E-2,1.9189375E-2,-1.6238534E-1,2.0923981E-2,1.9959383E-1],"split_indices":[5,1,26,26,26,2,1,2,2,2,9,11,2,2,2,0,0,0,0,0,0,0,0,0,0,0,0,0,0,0,0],"split_type":[0,0,0,0,0,0,0,0,0,0,0,0,0,0,0,0,0,0,0,0,0,0,0,0,0,0,0,0,0,0,0],"sum_hessian":[1.687E3,8.01E2,8.86E2,3.89E2,4.12E2,7.47E2,1.39E2,2.66E2,1.23E2,1.3E2,2.82E2,4.16E2,3.31E2,1.09E2,3E1,9.7E1,1.69E2,9E0,1.14E2,1.8E1,1.12E2,1.17E2,1.65E2,3E0,4.13E2,2.31E2,1E2,1.02E2,7E0,1E1,2E1],"tree_param":{"num_deleted":"0","num_feature":"28","num_nodes":"31","size_leaf_vector":"1"}},{"base_weights":[-5.1236622E-2,-2.5995169E0,5.585389E0,-5.1654935E0,-1.09827556E-1,2.8604465E0,7.138688E0,-5.7711563E0,-4.59262E-2,-1.6013678E0,2.5076468E0,7.0266366E0,1.2782608E0,-1.2648919E0,7.501234E0,-1.2943403E-1,-4.1723005E-2,2.406696E-1,-1.278372E-2,8.852155E-2,-4.0223427E-2,-1.622897E-2,8.246774E-2,1.5810828E-1,-2.7928615E-2,-2.338525E-2,8.2105346E-2,-2.3965274E-1,4.8299596E-2,2.0547889E-1,1.3282913E-1],"categories":[],"categories_nodes":[],"categories_segments":[],"categories_sizes":[],"default_left":[0,0,0,0,0,0,0,0,0,0,0,0,0,0,0,0,0,0,0,0,0,0,0,0,0,0,0,0,0,0,0],"id":15,"left_children":[1,3,5,7,9,11,13,15,17,19,21,23,25,27,29,-1,-1,-1,-1,-1,-1,-1,-1,-1,-1,-1,-1,-1,-1,-1,-1],"loss_changes":[2.482063E4,7.6017285E3,2.256748E3,1.8167646E3,2.365977E3,1.2895802E3,1.0514551E3,1.3531504E3,4.6029874E2,9.687857E2,1.1871024E3,4.1513916E2,1.0034639E3,6.218574E2,7.0974805E2,0E0,0E0,0E0,0E0,0E0,0E0,0E0,0E0,0E0,0E0,0E0,0E0,0E0,0E0,0E0,0E0],"parents":[2147483647,0,0,1,1,2,2,3,3,4,4,5,5,6,6,7,7,8,8,9,9,10,10,11,11,12,12,13,13,14,14],"right_children":[2,4,6,8,10,12,14,16,18,20,22,24,26,28,30,-1,-1,-1,-1,-1,-1,-1,-1,-1,-1,-1,-1,-1,-1,-1,-1],"split_conditions":[1E0,-4.5342126E-1,3.5725515E-2,7.154922E-1,1E0,1E0,-1.0217692E0,1E0,1E0,-4.07339E-1,-3.4192264E-1,1.9121348E0,5.091859E-1,5.64433E-1,3.3784404E-1,-1.2943403E-1,-4.1723005E-2,2.406696E-1,-1.278372E-2,8.852155E-2,-4.0223427E-2,-1.622897E-2,8.246774E-2,1.5810828E-1,-2.7928615E-2,-2.338525E-2,8.2105346E-2,-2.3965274E-1,4.8299596E-2,2.0547889E-1,1.3282913E-1],"split_indices":[26,2,4,4,25,9,2,25,9,2,4,2,2,4,4,0,0,0,0,0,0,0,0,0,0,0,0,0,0,0,0],"split_type":[0,0,0,0,0,0,0,0,0,0,0,0,0,0,0,0,0,0,0,0,0,0,0,0,0,0,0,0,0,0,0],"sum_hessian":[1.726E3,1.189E3,5.37E2,5.85E2,6.04E2,1.96E2,3.41E2,5.23E2,6.2E1,3.85E2,2.19E2,5.3E1,1.43E2,1.4E1,3.27E2,4.38E2,8.5E1,2E0,6E1,2.4E1,3.61E2,7.2E1,1.47E2,4.8E1,5E0,7.7E1,6.6E1,3E0,1.1E1,7.4E1,2.53E2],"tree_param":{"num_deleted":"0","num_feature":"28","num_nodes":"31","size_leaf_vector":"1"}},{"base_weights":[1.5958647E-1,3.8873756E0,-3.5124269E0,2.869881E0,8.877193E0,-5.2995076E0,-1.2764213E0,5.505245E0,7.5432414E-1,1.503548E1,7.9344664E0,-7.171542E0,-4.643352E0,9.859331E0,-1.8797963E0,5.6881025E-2,1.3726778E-1,-2.0094678E-2,5.1975578E-2,3.4612814E-1,5.3601753E-2,3.2487282E-1,1.504487E-1,-1.4557117E-1,6.934547E-2,5.010981E-2,-9.741638E-2,8.751554E-2,3.8768858E-1,-1.4172753E-2,-8.496371E-2],"categories":[],"categories_nodes":[],"categories_segments":[],"categories_sizes":[],"default_left":[0,0,0,0,0,0,0,0,0,0,0,0,0,0,0,0,0,0,0,0,0,0,0,0,0,0,0,0,0,0,0],"id":16,"left_children":[1,3,5,7,9,11,13,15,17,19,21,23,25,27,29,-1,-1,-1,-1,-1,-1,-1,-1,-1,-1,-1,-1,-1,-1,-1,-1],"loss_changes":[2.353048E4,4.305301E3,3.453704E3,3.9542832E3,7.1670605E2,5.575332E2,2.6120806E3,1.1279629E3,1.2872219E3,4.6300952E2,3.038496E2,1.7674658E2,6.1116113E2,9.611411E2,1.0163927E3,0E0,0E0,0E0,0E0,0E0,0E0,0E0,0E0,0E0,0E0,0E0,0E0,0E0,0E0,0E0,0E0],"parents":[2147483647,0,0,1,1,2,2,3,3,4,4,5,5,6,6,7,7,8,8,9,9,10,10,11,11,12,12,13,13,14,14],"right_children":[2,4,6,8,10,12,14,16,18,20,22,24,26,28,30,-1,-1,-1,-1,-1,-1,-1,-1,-1,-1,-1,-1,-1,-1,-1,-1],"split_conditions":[1E0,1E0,-4.5342126E-1,-6.81154E-1,-2.946935E-1,-1.2368197E0,-4.07339E-1,1E0,1E0,9.790251E-1,-1.6423104E0,1.9401815E0,-1.2009779E0,-4.2269978E-1,9.790251E-1,5.6881025E-2,1.3726778E-1,-2.0094678E-2,5.1975578E-2,3.4612814E-1,5.3601753E-2,3.2487282E-1,1.504487E-1,-1.4557117E-1,6.934547E-2,5.010981E-2,-9.741638E-2,8.751554E-2,3.8768858E-1,-1.4172753E-2,-8.496371E-2],"split_indices":[24,12,2,0,2,2,2,13,26,0,0,0,2,2,0,0,0,0,0,0,0,0,0,0,0,0,0,0,0,0,0],"split_type":[0,0,0,0,0,0,0,0,0,0,0,0,0,0,0,0,0,0,0,0,0,0,0,0,0,0,0,0,0,0,0],"sum_hessian":[1.717E3,8.52E2,8.65E2,7.09E2,1.43E2,4.8E2,3.85E2,3.15E2,3.94E2,1.7E1,1.26E2,1.22E2,3.58E2,1.9E1,3.66E2,1.08E2,2.07E2,2.02E2,1.92E2,1.4E1,3E0,4E0,1.22E2,1.21E2,1E0,1.1E1,3.47E2,1.3E1,6E0,2.46E2,1.2E2],"tree_param":{"num_deleted":"0","num_feature":"28","num_nodes":"31","size_leaf_vector":"1"}},{"base_weights":[2.9544577E-2,-3.663256E0,4.230068E0,3.324605E-1,-5.4396577E0,1.6253519E0,6.6425757E0,2.5098062E0,-1.847243E0,-7.228055E0,-3.6397057E0,-9.6880406E-2,3.1783834E0,7.220078E0,2.1816363E0,2.762357E-2,1.0830769E-1,-9.155963E-2,1.8277608E-2,-1.4872128E-1,-3.230712E-2,1.0236934E-1,-8.116257E-2,1.1050361E-1,-1.3301529E-2,7.013725E-2,-2.1368757E-1,1.7393337E-1,1.0514333E-1,-4.600828E-2,1.7578535E-1],"categories":[],"categories_nodes":[],"categories_segments":[],"categories_sizes":[],"default_left":[0,0,0,0,0,0,0,0,0,0,0,0,0,0,0,0,0,0,0,0,0,0,0,0,0,0,0,0,0,0,0],"id":17,"left_children":[1,3,5,7,9,11,13,15,17,19,21,23,25,27,29,-1,-1,-1,-1,-1,-1,-1,-1,-1,-1,-1,-1,-1,-1,-1,-1],"loss_changes":[2.6524984E4,6.4609873E3,5.0163213E3,1.338253E3,2.0016797E3,1.0327349E3,1.053373E3,4.552373E2,1.069865E3,3.7125586E2,1.1930425E3,5.9296844E2,9.7456665E2,1.0219375E3,1.4746279E3,0E0,0E0,0E0,0E0,0E0,0E0,0E0,0E0,0E0,0E0,0E0,0E0,0E0,0E0,0E0,0E0],"parents":[2147483647,0,0,1,1,2,2,3,3,4,4,5,5,6,6,7,7,8,8,9,9,10,10,11,11,12,12,13,13,14,14],"right_children":[2,4,6,8,10,12,14,16,18,20,22,24,26,28,30,-1,-1,-1,-1,-1,-1,-1,-1,-1,-1,-1,-1,-1,-1,-1,-1],"split_conditions":[1E0,1E0,3.320637E-1,1E0,-6.9919336E-1,1E0,9.790251E-1,5.091859E-1,1E0,8.918049E-1,-1.5549325E0,-1.0729717E0,2.662118E-1,8.061605E-1,1.3198422E0,2.762357E-2,1.0830769E-1,-9.155963E-2,1.8277608E-2,-1.4872128E-1,-3.230712E-2,1.0236934E-1,-8.116257E-2,1.1050361E-1,-1.3301529E-2,7.013725E-2,-2.1368757E-1,1.7393337E-1,1.0514333E-1,-4.600828E-2,1.7578535E-1],"split_indices":[6,24,1,25,2,13,0,2,13,1,0,2,1,2,1,0,0,0,0,0,0,0,0,0,0,0,0,0,0,0,0],"split_type":[0,0,0,0,0,0,0,0,0,0,0,0,0,0,0,0,0,0,0,0,0,0,0,0,0,0,0,0,0,0,0],"sum_hessian":[1.708E3,9.09E2,7.99E2,2.8E2,6.29E2,3.85E2,4.14E2,1.4E2,1.4E2,3.14E2,3.15E2,1.83E2,2.02E2,3.66E2,4.8E1,1.02E2,3.8E1,7E1,7E1,3.02E2,1.2E1,1.4E1,3.01E2,1.6E1,1.67E2,1.98E2,4E0,2.06E2,1.6E2,2.9E1,1.9E1],"tree_param":{"num_deleted":"0","num_feature":"28","num_nodes":"31","size_leaf_vector":"1"}},{"base_weights":[-2.1575708E-3,3.9493473E0,-3.68494E0,1.4867073E0,5.4430156E0,-1.9262546E-1,-5.2367697E0,2.7162285E0,-7.2652954E-1,6.3982935E0,2.6713097E0,1.9278319E0,-2.3424182E0,-4.384802E0,-6.410621E0,9.114343E-2,6.5280558E-3,-3.974718E-3,-2.4345928E-1,1.4670937E-1,6.838829E-2,6.296773E-2,-7.29985E-2,6.518195E-2,-4.3365244E-2,-1.09095864E-1,2.4857167E-2,-3.4854326E-2,-9.122244E-2,-1.4648004E-1,-7.082889E-2],"categories":[],"categories_nodes":[],"categories_segments":[],"categories_sizes":[],"default_left":[0,0,0,0,0,0,0,0,0,0,0,0,0,0,0,0,0,0,0,0,0,0,0,0,0,0,0,0,0,0,0],"id":18,"left_children":[1,3,5,7,9,11,13,15,17,19,21,23,25,27,29,-1,-1,-1,-1,-1,-1,-1,-1,-1,-1,-1,-1,-1,-1,-1,-1],"loss_changes":[2.521954E4,3.0670234E3,4.8602617E3,8.646006E2,1.3597393E3,1.2672324E3,5.9294336E2,8.98515E2,6.86853E2,1.0610303E3,4.2212524E2,7.7321246E2,1.550554E3,1.6621387E2,6.582285E2,0E0,0E0,0E0,0E0,0E0,0E0,0E0,0E0,0E0,0E0,0E0,0E0,0E0,0E0,0E0,0E0],"parents":[2147483647,0,0,1,1,2,2,3,3,4,4,5,5,6,6,7,7,8,8,9,9,10,10,11,11,12,12,13,13,14,14],"right_children":[2,4,6,8,10,12,14,16,18,20,22,24,26,28,30,-1,-1,-1,-1,-1,-1,-1,-1,-1,-1,-1,-1,-1,-1,-1,-1],"split_conditions":[1E0,1E0,1E0,1E0,1E0,1E0,9.790251E-1,1E0,1.7654258E0,1E0,1.0664029E0,9.790251E-1,1E0,1E0,1.7654258E0,9.114343E-2,6.5280558E-3,-3.974718E-3,-2.4345928E-1,1.4670937E-1,6.838829E-2,6.296773E-2,-7.29985E-2,6.518195E-2,-4.3365244E-2,-1.09095864E-1,2.4857167E-2,-3.4854326E-2,-9.122244E-2,-1.4648004E-1,-7.082889E-2],"split_indices":[5,13,24,24,24,25,0,25,0,25,0,0,13,9,0,0,0,0,0,0,0,0,0,0,0,0,0,0,0,0,0],"split_type":[0,0,0,0,0,0,0,0,0,0,0,0,0,0,0,0,0,0,0,0,0,0,0,0,0,0,0,0,0,0,0],"sum_hessian":[1.731E3,8.35E2,8.96E2,3.16E2,5.19E2,2.76E2,6.2E2,2.03E2,1.13E2,3.85E2,1.34E2,1.39E2,1.37E2,3.62E2,2.58E2,1.14E2,8.9E1,1.09E2,4E0,2.91E2,9.4E1,1.25E2,9E0,1.05E2,3.4E1,7.3E1,6.4E1,2.4E1,3.38E2,1.94E2,6.4E1],"tree_param":{"num_deleted":"0","num_feature":"28","num_nodes":"31","size_leaf_vector":"1"}},{"base_weights":[9.3432754E-2,-2.822849E0,2.8399827E0,1.0648584E1,-3.2141695E0,4.8457706E-1,4.7897882E0,-1.5513483E0,1.39407425E1,-6.7129674E0,-1.9966646E0,-1.6777097E0,2.2665331E0,1.638707E1,4.5628333E0,-1.1014141E-1,3.6121015E-2,3.2565346E-1,2.018014E-2,1.8103868E-1,-1.3951515E-1,-4.7881547E-2,1.01128094E-1,-8.363752E-2,-1.2807149E-3,2.021891E-2,1.1458616E-1,3.4113117E-2,4.0626022E-1,1.3922659E-1,7.8163564E-2],"categories":[],"categories_nodes":[],"categories_segments":[],"categories_sizes":[],"default_left":[0,0,0,0,0,0,0,0,0,0,0,0,0,0,0,0,0,0,0,0,0,0,0,0,0,0,0,0,0,0,0],"id":19,"left_children":[1,3,5,7,9,11,13,15,17,19,21,23,25,27,29,-1,-1,-1,-1,-1,-1,-1,-1,-1,-1,-1,-1,-1,-1,-1,-1],"loss_changes":[1.390487E4,4.472955E3,4.1034478E3,9.855659E2,3.475374E3,1.5681611E3,1.2123066E3,8.983879E1,5.6366504E2,9.6571484E2,1.732874E3,7.4470337E2,9.6473706E2,4.8714258E2,7.25209E2,0E0,0E0,0E0,0E0,0E0,0E0,0E0,0E0,0E0,0E0,0E0,0E0,0E0,0E0,0E0,0E0],"parents":[2147483647,0,0,1,1,2,2,3,3,4,4,5,5,6,6,7,7,8,8,9,9,10,10,11,11,12,12,13,13,14,14],"right_children":[2,4,6,8,10,12,14,16,18,20,22,24,26,28,30,-1,-1,-1,-1,-1,-1,-1,-1,-1,-1,-1,-1,-1,-1,-1,-1],"split_conditions":[-1.7180747E-1,1E0,3.5725515E-2,1E0,-7.9510045E-1,1E0,-1.4108595E-1,-1.0473704E0,-2.946935E-1,-2.1546338E0,1E0,3.453379E-1,1E0,1E0,1E0,-1.1014141E-1,3.6121015E-2,3.2565346E-1,2.018014E-2,1.8103868E-1,-1.3951515E-1,-4.7881547E-2,1.01128094E-1,-8.363752E-2,-1.2807149E-3,2.021891E-2,1.1458616E-1,3.4113117E-2,4.0626022E-1,1.3922659E-1,7.8163564E-2],"split_indices":[2,11,4,13,4,13,2,2,2,4,10,2,10,11,11,0,0,0,0,0,0,0,0,0,0,0,0,0,0,0,0],"split_type":[0,0,0,0,0,0,0,0,0,0,0,0,0,0,0,0,0,0,0,0,0,0,0,0,0,0,0,0,0,0,0],"sum_hessian":[1.734E3,8.41E2,8.93E2,2.3E1,8.18E2,4.05E2,4.88E2,5E0,1.8E1,2.1E2,6.08E2,1.83E2,2.22E2,8E0,4.8E2,2E0,3E0,1.5E1,3E0,3E0,2.07E2,5.76E2,3.2E1,7.1E1,1.12E2,1.64E2,5.8E1,2E0,6E0,1E2,3.8E2],"tree_param":{"num_deleted":"0","num_feature":"28","num_nodes":"31","size_leaf_vector":"1"}},{"base_weights":[1.410461E-1,3.8022914E0,-3.4067364E0,7.4924976E-1,6.200446E0,-4.2932696E0,-1.2350043E-1,-4.713962E0,2.1447206E0,3.7398021E0,7.6508975E0,6.841501E0,-4.385204E0,-9.7549284E-1,1.128959E1,6.750838E-2,-1.1689219E-1,-3.4234454E-3,8.7001964E-2,1.4001358E-2,9.46848E-2,1.314011E-1,2.0449835E-1,-8.0076024E-2,3.801023E-1,6.760114E-2,-9.0017E-2,-4.4506665E-2,3.1320795E-2,1.7896472E-2,3.1581298E-1],"categories":[],"categories_nodes":[],"categories_segments":[],"categories_sizes":[],"default_left":[0,0,0,0,0,0,0,0,0,0,0,0,0,0,0,0,0,0,0,0,0,0,0,0,0,0,0,0,0,0,0],"id":20,"left_children":[1,3,5,7,9,11,13,15,17,19,21,23,25,27,29,-1,-1,-1,-1,-1,-1,-1,-1,-1,-1,-1,-1,-1,-1,-1,-1],"loss_changes":[2.2250639E4,6.1675195E3,2.5317754E3,2.8461462E3,1.6559766E3,7.312158E2,1.8196521E3,7.1951953E2,1.5213499E3,5.3460645E2,7.540703E2,8.696056E2,6.5456055E2,5.577857E2,5.965541E2,0E0,0E0,0E0,0E0,0E0,0E0,0E0,0E0,0E0,0E0,0E0,0E0,0E0,0E0,0E0,0E0],"parents":[2147483647,0,0,1,1,2,2,3,3,4,4,5,5,6,6,7,7,8,8,9,9,10,10,11,11,12,12,13,13,14,14],"right_children":[2,4,6,8,10,12,14,16,18,20,22,24,26,28,30,-1,-1,-1,-1,-1,-1,-1,-1,-1,-1,-1,-1,-1,-1,-1,-1],"split_conditions":[1E0,-8.171123E-3,-3.0121759E-2,-7.9510045E-1,1.1125515E-1,-2.1546338E0,1.6218479E0,-1.5117896E0,1E0,-8.706301E-1,1E0,-2.2301636E0,-2.3020124E0,3.5725515E-2,1.7840926E-1,6.750838E-2,-1.1689219E-1,-3.4234454E-3,8.7001964E-2,1.4001358E-2,9.46848E-2,1.314011E-1,2.0449835E-1,-8.0076024E-2,3.801023E-1,6.760114E-2,-9.0017E-2,-4.4506665E-2,3.1320795E-2,1.7896472E-2,3.1581298E-1],"split_indices":[24,1,1,4,4,4,4,1,13,4,12,4,1,4,1,0,0,0,0,0,0,0,0,0,0,0,0,0,0,0,0],"split_type":[0,0,0,0,0,0,0,0,0,0,0,0,0,0,0,0,0,0,0,0,0,0,0,0,0,0,0,0,0,0,0],"sum_hessian":[1.711E3,8.42E2,8.69E2,3.71E2,4.71E2,6.84E2,1.85E2,7.5E1,2.96E2,1.76E2,2.95E2,5E0,6.79E2,1.73E2,1.2E1,9E0,6.6E1,1.45E2,1.51E2,4.4E1,1.32E2,2.11E2,8.4E1,3E0,2E0,1E1,6.69E2,1.16E2,5.7E1,4E0,8E0],"tree_param":{"num_deleted":"0","num_feature":"28","num_nodes":"31","size_leaf_vector":"1"}},{"base_weights":[8.077099E-2,3.9416757E0,-3.3747003E0,1.4035937E0,6.564657E0,2.9332283E-1,-5.020253E0,6.3263683E0,1.0600681E0,7.0712066E0,4.14476E0,2.2244873E0,-1.6535071E0,-3.4737065E-1,-5.220497E0,2.192889E-2,1.4358816E-1,2.2749733E-2,-1.8992724E-1,1.4318378E-1,1.2957699E-2,-8.174719E-3,1.1794266E-1,9.6546024E-2,3.4164477E-2,1.7281772E-1,-4.0249698E-2,9.949325E-3,-4.1821554E-2,8.347388E-2,-1.0567419E-1],"categories":[],"categories_nodes":[],"categories_segments":[],"categories_sizes":[],"default_left":[0,0,0,0,0,0,0,0,0,0,0,0,0,0,0,0,0,0,0,0,0,0,0,0,0,0,0,0,0,0,0],"id":21,"left_children":[1,3,5,7,9,11,13,15,17,19,21,23,25,27,29,-1,-1,-1,-1,-1,-1,-1,-1,-1,-1,-1,-1,-1,-1,-1,-1],"loss_changes":[2.3106998E4,5.436491E3,5.5183086E3,6.984819E2,4.634629E2,1.0714185E3,5.88625E2,1.13743286E2,3.36322E2,2.005293E2,5.7930066E2,1.835539E2,5.462212E2,4.0902523E1,4.173711E2,0E0,0E0,0E0,0E0,0E0,0E0,0E0,0E0,0E0,0E0,0E0,0E0,0E0,0E0,0E0,0E0],"parents":[2147483647,0,0,1,1,2,2,3,3,4,4,5,5,6,6,7,7,8,8,9,9,10,10,11,11,12,12,13,13,14,14],"right_children":[2,4,6,8,10,12,14,16,18,20,22,24,26,28,30,-1,-1,-1,-1,-1,-1,-1,-1,-1,-1,-1,-1,-1,-1,-1,-1],"split_conditions":[1E0,1E0,1E0,1E0,1E0,1E0,1E0,1E0,1E0,1E0,1E0,1E0,1E0,1E0,1E0,2.192889E-2,1.4358816E-1,2.2749733E-2,-1.8992724E-1,1.4318378E-1,1.2957699E-2,-8.174719E-3,1.1794266E-1,9.6546024E-2,3.4164477E-2,1.7281772E-1,-4.0249698E-2,9.949325E-3,-4.1821554E-2,8.347388E-2,-1.0567419E-1],"split_indices":[5,26,24,11,17,25,9,7,20,21,9,9,11,17,11,0,0,0,0,0,0,0,0,0,0,0,0,0,0,0,0],"split_type":[0,0,0,0,0,0,0,0,0,0,0,0,0,0,0,0,0,0,0,0,0,0,0,0,0,0,0,0,0,0,0],"sum_hessian":[1.73E3,8.17E2,9.13E2,4.16E2,4.01E2,2.83E2,6.3E2,2.6E1,3.9E2,3.3E2,7.1E1,1.42E2,1.41E2,2.6E1,6.04E2,4E0,2.2E1,3.88E2,2E0,3.25E2,5E0,2E1,5.1E1,2.2E1,1.2E2,4E0,1.37E2,1.8E1,8E0,4E0,6E2],"tree_param":{"num_deleted":"0","num_feature":"28","num_nodes":"31","size_leaf_vector":"1"}},{"base_weights":[4.9382526E-2,3.9724271E0,-3.545717E0,1.208259E0,6.0227857E0,-3.5968837E-1,-4.97074E0,-1.9754531E0,3.3800986E0,6.801755E0,3.0846071E0,-3.716277E0,1.6525041E0,-6.5160646E0,-2.5924501E0,-1.1806738E-1,7.1048266E-3,8.333356E-3,1.03329964E-1,2.0178565E-1,1.1910976E-1,1.3192263E-1,8.144266E-3,2.8347242E-1,-9.104402E-2,-3.184917E-3,1.0926799E-1,-1.6904224E-1,-1.1989108E-1,-5.885955E-2,5.488131E-2],"categories":[],"categories_nodes":[],"categories_segments":[],"categories_sizes":[],"default_left":[0,0,0,0,0,0,0,0,0,0,0,0,0,0,0,0,0,0,0,0,0,0,0,0,0,0,0,0,0,0,0],"id":22,"left_children":[1,3,5,7,9,11,13,15,17,19,21,23,25,27,29,-1,-1,-1,-1,-1,-1,-1,-1,-1,-1,-1,-1,-1,-1,-1,-1],"loss_changes":[2.4568691E4,4.7137793E3,4.1252207E3,2.4682434E3,1.073043E3,1.910798E3,2.2911523E3,1.3321633E3,1.123823E3,9.836387E2,9.5825726E2,1.6616575E3,1.2251655E3,3.296006E2,4.7882214E2,0E0,0E0,0E0,0E0,0E0,0E0,0E0,0E0,0E0,0E0,0E0,0E0,0E0,0E0,0E0,0E0],"parents":[2147483647,0,0,1,1,2,2,3,3,4,4,5,5,6,6,7,7,8,8,9,9,10,10,11,11,12,12,13,13,14,14],"right_children":[2,4,6,8,10,12,14,16,18,20,22,24,26,28,30,-1,-1,-1,-1,-1,-1,-1,-1,-1,-1,-1,-1,-1,-1,-1,-1],"split_conditions":[1E0,3.5725515E-2,1E0,1E0,1E0,-3.4192264E-1,-5.455858E-1,-6.440412E-1,-7.9510045E-1,4.1337368E-1,-8.47632E-2,-1.2419399E0,2.6853412E-1,-1.3392247E0,1E0,-1.1806738E-1,7.1048266E-3,8.333356E-3,1.03329964E-1,2.0178565E-1,1.1910976E-1,1.3192263E-1,8.144266E-3,2.8347242E-1,-9.104402E-2,-3.184917E-3,1.0926799E-1,-1.6904224E-1,-1.1989108E-1,-5.885955E-2,5.488131E-2],"split_indices":[5,4,24,13,24,4,2,4,4,4,2,2,2,2,10,0,0,0,0,0,0,0,0,0,0,0,0,0,0,0,0],"split_type":[0,0,0,0,0,0,0,0,0,0,0,0,0,0,0,0,0,0,0,0,0,0,0,0,0,0,0,0,0,0,0],"sum_hessian":[1.74E3,8.32E2,9.08E2,3.55E2,4.77E2,2.81E2,6.27E2,1.44E2,2.11E2,3.76E2,1.01E2,1.05E2,1.76E2,3.79E2,2.48E2,5.3E1,9.1E1,8E1,1.31E2,7.4E1,3.02E2,4.3E1,5.8E1,4E0,1.01E2,1.2E2,5.6E1,7.6E1,3.03E2,2.33E2,1.5E1],"tree_param":{"num_deleted":"0","num_feature":"28","num_nodes":"31","size_leaf_vector":"1"}},{"base_weights":[2.3767431E-1,-3.2984662E0,4.0799093E0,-4.2737923E0,2.1860118E0,1.5089957E0,6.439527E0,-6.176317E0,-2.7444363E0,-2.1748257E0,4.3426695E0,-1.5952047E0,2.898169E0,3.955862E0,7.9242735E0,2.344143E-1,-1.3048728E-1,-7.2090745E-2,-1.2048368E-2,2.4594766E-1,-6.935461E-2,5.5166084E-2,2.135302E-1,-5.516338E-2,1.5512405E-1,1.0531842E-1,2.535264E-2,-5.0097022E-2,9.5285095E-2,2.7741894E-1,1.4168507E-1],"categories":[],"categories_nodes":[],"categories_segments":[],"categories_sizes":[],"default_left":[0,0,0,0,0,0,0,0,0,0,0,0,0,0,0,0,0,0,0,0,0,0,0,0,0,0,0,0,0,0,0],"id":23,"left_children":[1,3,5,7,9,11,13,15,17,19,21,23,25,27,29,-1,-1,-1,-1,-1,-1,-1,-1,-1,-1,-1,-1,-1,-1,-1,-1],"loss_changes":[2.3559176E4,4.839628E3,5.0314404E3,2.2147432E3,1.2979067E3,1.72522E3,1.5653887E3,2.2498945E3,7.881721E2,9.070863E2,8.9364685E2,1.3751365E3,1.0606987E3,8.74916E2,1.2403926E3,0E0,0E0,0E0,0E0,0E0,0E0,0E0,0E0,0E0,0E0,0E0,0E0,0E0,0E0,0E0,0E0],"parents":[2147483647,0,0,1,1,2,2,3,3,4,4,5,5,6,6,7,7,8,8,9,9,10,10,11,11,12,12,13,13,14,14],"right_children":[2,4,6,8,10,12,14,16,18,20,22,24,26,28,30,-1,-1,-1,-1,-1,-1,-1,-1,-1,-1,-1,-1,-1,-1,-1,-1],"split_conditions":[1E0,1E0,3.320637E-1,-6.9919336E-1,-3.4192264E-1,-4.1745228E-1,1.1125515E-1,-1.7769856E0,-5.207239E-2,-1.6105675E0,8.16401E-1,1.1543375E0,-2.3865278E-1,-5.814276E-1,-1.5644671E-1,2.344143E-1,-1.3048728E-1,-7.2090745E-2,-1.2048368E-2,2.4594766E-1,-6.935461E-2,5.5166084E-2,2.135302E-1,-5.516338E-2,1.5512405E-1,1.0531842E-1,2.535264E-2,-5.0097022E-2,9.5285095E-2,2.7741894E-1,1.4168507E-1],"split_indices":[6,26,1,2,4,4,4,4,1,1,2,2,1,2,2,0,0,0,0,0,0,0,0,0,0,0,0,0,0,0,0],"split_type":[0,0,0,0,0,0,0,0,0,0,0,0,0,0,0,0,0,0,0,0,0,0,0,0,0,0,0,0,0,0,0],"sum_hessian":[1.732E3,9.02E2,8.3E2,7.66E2,1.36E2,3.98E2,4.32E2,3.4E2,4.26E2,4.5E1,9.1E1,1.23E2,2.75E2,1.63E2,2.69E2,6E0,3.34E2,3.03E2,1.23E2,3E0,4.2E1,7.4E1,1.7E1,1.1E2,1.3E1,1.11E2,1.64E2,1.8E1,1.45E2,3.1E1,2.38E2],"tree_param":{"num_deleted":"0","num_feature":"28","num_nodes":"31","size_leaf_vector":"1"}},{"base_weights":[5.6891937E-2,3.8763366E0,-3.4411561E0,1.3529143E0,6.283215E0,-4.3583384E0,1.9971877E0,2.753447E0,-3.7825188E-1,1.3730612E1,5.879546E0,7.1302996E0,-4.487802E0,7.760034E-1,5.7509766E0,8.636397E-2,2.6100114E-2,-2.331398E-1,1.3356438E-4,1.0985035E-1,3.486564E-1,8.02535E-2,1.3651884E-1,4.5528638E-1,-1.1990436E-2,-4.7481112E-2,-1.0216888E-1,2.2463839E-1,6.717585E-3,1.9501214E-1,8.889072E-2],"categories":[],"categories_nodes":[],"categories_segments":[],"categories_sizes":[],"default_left":[0,0,0,0,0,0,0,0,0,0,0,0,0,0,0,0,0,0,0,0,0,0,0,0,0,0,0,0,0,0,0],"id":24,"left_children":[1,3,5,7,9,11,13,15,17,19,21,23,25,27,29,-1,-1,-1,-1,-1,-1,-1,-1,-1,-1,-1,-1,-1,-1,-1,-1],"loss_changes":[2.3113818E4,5.0143438E3,4.512825E3,9.8298615E2,1.1909258E3,1.1817256E3,5.9605023E2,5.0315906E2,7.9122546E2,5.4758594E2,6.888457E2,1.103302E3,9.999219E2,4.565786E2,1.23574585E2,0E0,0E0,0E0,0E0,0E0,0E0,0E0,0E0,0E0,0E0,0E0,0E0,0E0,0E0,0E0,0E0],"parents":[2147483647,0,0,1,1,2,2,3,3,4,4,5,5,6,6,7,7,8,8,9,9,10,10,11,11,12,12,13,13,14,14],"right_children":[2,4,6,8,10,12,14,16,18,20,22,24,26,28,30,-1,-1,-1,-1,-1,-1,-1,-1,-1,-1,-1,-1,-1,-1,-1,-1],"split_conditions":[1E0,3.320637E-1,1E0,1E0,-1.6423104E0,1E0,3.979156E-1,-8.499835E-2,-1.6434934E0,-2.516089E0,1E0,-1.0727769E0,1.0524662E-1,-1.8410491E0,7.381504E-1,8.636397E-2,2.6100114E-2,-2.331398E-1,1.3356438E-4,1.0985035E-1,3.486564E-1,8.02535E-2,1.3651884E-1,4.5528638E-1,-1.1990436E-2,-4.7481112E-2,-1.0216888E-1,2.2463839E-1,6.717585E-3,1.9501214E-1,8.889072E-2],"split_indices":[5,1,26,24,0,11,1,1,1,0,26,1,0,1,1,0,0,0,0,0,0,0,0,0,0,0,0,0,0,0,0],"split_type":[0,0,0,0,0,0,0,0,0,0,0,0,0,0,0,0,0,0,0,0,0,0,0,0,0,0,0,0,0,0,0],"sum_hessian":[1.728E3,8.26E2,9.02E2,4.04E2,4.22E2,7.72E2,1.3E2,2.23E2,1.81E2,2E1,4.02E2,8E0,7.64E2,9.9E1,3.1E1,1.06E2,1.17E2,5E0,1.76E2,7E0,1.3E1,1.38E2,2.64E2,2E0,6E0,1.76E2,5.88E2,3E0,9.6E1,6E0,2.5E1],"tree_param":{"num_deleted":"0","num_feature":"28","num_nodes":"31","size_leaf_vector":"1"}},{"base_weights":[-1.9796431E-2,3.6667743E0,-3.3409722E0,1.0582856E0,6.1653295E0,-4.1596236E0,1.2764678E0,-1.7747757E0,2.005426E0,3.2473326E0,7.4205456E0,-5.4703946E0,-2.6614873E0,-1.0148964E0,5.6370273E0,2.9086832E-2,-1.4152096E-1,8.186831E-2,2.2434592E-2,-7.758337E-2,8.481865E-2,1.05028056E-1,1.9315913E-1,2.0320271E-1,-1.1210803E-1,-7.897704E-2,6.7419215E-4,-8.831805E-2,9.993359E-2,3.6769506E-1,7.348399E-2],"categories":[],"categories_nodes":[],"categories_segments":[],"categories_sizes":[],"default_left":[0,0,0,0,0,0,0,0,0,0,0,0,0,0,0,0,0,0,0,0,0,0,0,0,0,0,0,0,0,0,0],"id":25,"left_children":[1,3,5,7,9,11,13,15,17,19,21,23,25,27,29,-1,-1,-1,-1,-1,-1,-1,-1,-1,-1,-1,-1,-1,-1,-1,-1],"loss_changes":[2.0900088E4,5.2660938E3,3.3998154E3,1.068832E3,1.4886045E3,1.4837539E3,1.3645826E3,1.7258022E3,5.457025E2,9.1380347E2,1.3500391E3,9.569346E2,1.2468464E3,1.8668772E3,1.1076981E3,0E0,0E0,0E0,0E0,0E0,0E0,0E0,0E0,0E0,0E0,0E0,0E0,0E0,0E0,0E0,0E0],"parents":[2147483647,0,0,1,1,2,2,3,3,4,4,5,5,6,6,7,7,8,8,9,9,10,10,11,11,12,12,13,13,14,14],"right_children":[2,4,6,8,10,12,14,16,18,20,22,24,26,28,30,-1,-1,-1,-1,-1,-1,-1,-1,-1,-1,-1,-1,-1,-1,-1,-1],"split_conditions":[1E0,3.320637E-1,5.768078E-2,-5.6851155E-1,1E0,-5.660668E-1,2.838949E-1,9.790251E-1,-4.07339E-1,-4.5342126E-1,7.154922E-1,-1.9280449E0,3.5725515E-2,2.623144E-1,4.5798343E-1,2.9086832E-2,-1.4152096E-1,8.186831E-2,2.2434592E-2,-7.758337E-2,8.481865E-2,1.05028056E-1,1.9315913E-1,2.0320271E-1,-1.1210803E-1,-7.897704E-2,6.7419215E-4,-8.831805E-2,9.993359E-2,3.6769506E-1,7.348399E-2],"split_indices":[5,1,1,4,13,2,2,0,2,2,4,4,4,4,2,0,0,0,0,0,0,0,0,0,0,0,0,0,0,0,0],"split_type":[0,0,0,0,0,0,0,0,0,0,0,0,0,0,0,0,0,0,0,0,0,0,0,0,0,0,0,0,0,0,0],"sum_hessian":[1.705E3,8.08E2,8.97E2,3.96E2,4.12E2,7.62E2,1.35E2,9.9E1,2.97E2,1.25E2,2.87E2,4.05E2,3.57E2,8.9E1,4.6E1,6.2E1,3.7E1,8.7E1,2.1E2,1.5E1,1.1E2,1.48E2,1.39E2,3E0,4.02E2,2.41E2,1.16E2,5.7E1,3.2E1,5E0,4.1E1],"tree_param":{"num_deleted":"0","num_feature":"28","num_nodes":"31","size_leaf_vector":"1"}},{"base_weights":[-1.12792864E-1,-2.3293827E0,4.714656E0,9.514643E-1,-4.1131387E0,2.0157487E0,6.25888E0,-1.728474E0,2.4124289E0,-2.8462253E0,-5.3463335E0,5.7961574E0,6.647488E-1,4.1766E0,7.25039E0,5.161927E-3,-1.07138634E-1,5.4280978E-2,-9.957789E-2,3.0461776E-1,-6.1537266E-2,1.6075814E-1,-1.10030316E-1,4.6947113E-1,9.964481E-2,1.4120437E-1,-1.8527154E-4,9.729582E-2,-1.1068469E-1,1.4754179E-1,-2.3884265E-1],"categories":[],"categories_nodes":[],"categories_segments":[],"categories_sizes":[],"default_left":[0,0,0,0,0,0,0,0,0,0,0,0,0,0,0,0,0,0,0,0,0,0,0,0,0,0,0,0,0,0,0],"id":26,"left_children":[1,3,5,7,9,11,13,15,17,19,21,23,25,27,29,-1,-1,-1,-1,-1,-1,-1,-1,-1,-1,-1,-1,-1,-1,-1,-1],"loss_changes":[1.8362293E4,6.8861367E3,2.2379521E3,1.6290172E3,1.1752949E3,1.0073988E3,6.77876E2,1.0630182E3,6.201642E2,1.6496243E3,8.7835645E2,6.2665967E2,6.345717E2,7.890354E2,6.894531E2,0E0,0E0,0E0,0E0,0E0,0E0,0E0,0E0,0E0,0E0,0E0,0E0,0E0,0E0,0E0,0E0],"parents":[2147483647,0,0,1,1,2,2,3,3,4,4,5,5,6,6,7,7,8,8,9,9,10,10,11,11,12,12,13,13,14,14],"right_children":[2,4,6,8,10,12,14,16,18,20,22,24,26,28,30,-1,-1,-1,-1,-1,-1,-1,-1,-1,-1,-1,-1,-1,-1,-1,-1],"split_conditions":[1E0,1E0,3.5725515E-2,-4.1745228E-1,1.9262446E-1,1E0,1E0,9.790251E-1,1E0,1E0,-2.1546338E0,-1.7296882E0,-1.2482783E0,2.4526737E0,1E0,5.161927E-3,-1.07138634E-1,5.4280978E-2,-9.957789E-2,3.0461776E-1,-6.1537266E-2,1.6075814E-1,-1.10030316E-1,4.6947113E-1,9.964481E-2,1.4120437E-1,-1.8527154E-4,9.729582E-2,-1.1068469E-1,1.4754179E-1,-2.3884265E-1],"split_indices":[26,5,4,4,0,9,9,0,22,11,4,0,4,4,14,0,0,0,0,0,0,0,0,0,0,0,0,0,0,0,0],"split_type":[0,0,0,0,0,0,0,0,0,0,0,0,0,0,0,0,0,0,0,0,0,0,0,0,0,0,0,0,0,0,0],"sum_hessian":[1.714E3,1.175E3,5.39E2,4.14E2,7.61E2,1.97E2,3.42E2,1.46E2,2.68E2,3.77E2,3.84E2,5.1E1,1.46E2,1.12E2,2.3E2,9.5E1,5.1E1,2.58E2,1E1,4E0,3.73E2,4E0,3.8E2,1E0,5E1,1.3E1,1.33E2,1.05E2,7E0,2.29E2,1E0],"tree_param":{"num_deleted":"0","num_feature":"28","num_nodes":"31","size_leaf_vector":"1"}},{"base_weights":[6.6008605E-2,-3.017668E0,3.351274E0,-3.6231909E0,2.1259854E0,1.1812998E0,5.629512E0,-3.7684581E0,9.595177E0,6.9024534E0,-9.054605E-1,2.856044E0,8.373286E-2,1.3445132E1,5.278002E0,-8.431547E-2,-3.6243137E-2,2.9086086E-1,-1.0365007E-1,8.7642066E-2,4.4190928E-1,1.2536755E-1,-3.3692162E-2,4.061508E-2,3.8689616E-1,1.3096621E-2,-1.6373712E-1,1.3494875E-1,3.7237382E-1,1.1201198E-1,5.3238306E-2],"categories":[],"categories_nodes":[],"categories_segments":[],"categories_sizes":[],"default_left":[0,0,0,0,0,0,0,0,0,0,0,0,0,0,0,0,0,0,0,0,0,0,0,0,0,0,0,0,0,0,0],"id":27,"left_children":[1,3,5,7,9,11,13,15,17,19,21,23,25,27,29,-1,-1,-1,-1,-1,-1,-1,-1,-1,-1,-1,-1,-1,-1,-1,-1],"loss_changes":[1.7597002E4,2.7983838E3,4.1510156E3,1.5761553E3,1.3818123E3,7.93839E2,1.055418E3,6.941875E2,7.361924E2,1.3192523E3,3.4155832E2,2.2840117E3,1.2460363E3,4.6495386E2,3.240381E2,0E0,0E0,0E0,0E0,0E0,0E0,0E0,0E0,0E0,0E0,0E0,0E0,0E0,0E0,0E0,0E0],"parents":[2147483647,0,0,1,1,2,2,3,3,4,4,5,5,6,6,7,7,8,8,9,9,10,10,11,11,12,12,13,13,14,14],"right_children":[2,4,6,8,10,12,14,16,18,20,22,24,26,28,30,-1,-1,-1,-1,-1,-1,-1,-1,-1,-1,-1,-1,-1,-1,-1,-1],"split_conditions":[1E0,3.6498967E-1,3.979156E-1,1E0,1.0524662E-1,-2.3865278E-1,-1.6423104E0,-5.207239E-2,1.9262446E-1,-6.81154E-1,4.1986623E-1,-3.045047E-1,1.0664029E0,-2.3413332E0,9.790251E-1,-8.431547E-2,-3.6243137E-2,2.9086086E-1,-1.0365007E-1,8.7642066E-2,4.4190928E-1,1.2536755E-1,-3.3692162E-2,4.061508E-2,3.8689616E-1,1.3096621E-2,-1.6373712E-1,1.3494875E-1,3.7237382E-1,1.1201198E-1,5.3238306E-2],"split_indices":[6,1,1,12,0,1,0,1,0,0,1,1,0,0,0,0,0,0,0,0,0,0,0,0,0,0,0,0,0,0,0],"split_type":[0,0,0,0,0,0,0,0,0,0,0,0,0,0,0,0,0,0,0,0,0,0,0,0,0,0,0,0,0,0,0],"sum_hessian":[1.735E3,8.95E2,8.4E2,8.01E2,9.4E1,4.31E2,4.09E2,7.93E2,8E0,3.6E1,5.8E1,1.7E2,2.61E2,1.6E1,3.93E2,6.43E2,1.5E2,6E0,2E0,3.2E1,4E0,5E0,5.3E1,1.63E2,7E0,2.45E2,1.6E1,8E0,8E0,3.48E2,4.5E1],"tree_param":{"num_deleted":"0","num_feature":"28","num_nodes":"31","size_leaf_vector":"1"}},{"base_weights":[-2.6713824E-2,3.6584668E0,-3.2952797E0,1.8971485E0,5.5309167E0,-4.134942E0,1.6178296E0,1.5172567E0,7.1885805E0,-2.5194044E0,5.7897243E0,-5.1403413E0,-1.8671553E0,-7.8934274E0,1.8937932E0,3.6469847E-2,-8.114922E-2,2.0241795E-1,-3.0606943E-3,2.2967165E-2,-3.0230138E-1,3.6771995E-1,1.1134967E-1,-1.5650316E-1,-8.914873E-2,7.3909216E-2,-4.760388E-2,-3.6581594E-2,-1.858531E-1,1.8127732E-1,2.5860887E-2],"categories":[],"categories_nodes":[],"categories_segments":[],"categories_sizes":[],"default_left":[0,0,0,0,0,0,0,0,0,0,0,0,0,0,0,0,0,0,0,0,0,0,0,0,0,0,0,0,0,0,0],"id":28,"left_children":[1,3,5,7,9,11,13,15,17,19,21,23,25,27,29,-1,-1,-1,-1,-1,-1,-1,-1,-1,-1,-1,-1,-1,-1,-1,-1],"loss_changes":[2.0910574E4,2.6806592E3,3.8020137E3,8.373855E2,8.375625E2,1.7825059E3,3.6929123E2,6.8712616E2,6.0682947E2,6.190552E2,9.393633E2,9.58125E2,7.066862E2,1.7160446E1,5.5622644E2,0E0,0E0,0E0,0E0,0E0,0E0,0E0,0E0,0E0,0E0,0E0,0E0,0E0,0E0,0E0,0E0],"parents":[2147483647,0,0,1,1,2,2,3,3,4,4,5,5,6,6,7,7,8,8,9,9,10,10,11,11,12,12,13,13,14,14],"right_children":[2,4,6,8,10,12,14,16,18,20,22,24,26,28,30,-1,-1,-1,-1,-1,-1,-1,-1,-1,-1,-1,-1,-1,-1,-1,-1],"split_conditions":[1E0,1E0,1E0,1E0,-1.0627311E0,-2.6397198E-1,-1.4723512E0,1E0,8.16401E-1,-1.1139337E0,-9.2960465E-1,-1.2368197E0,1E0,-1.5440347E0,-1.2419399E0,3.6469847E-2,-8.114922E-2,2.0241795E-1,-3.0606943E-3,2.2967165E-2,-3.0230138E-1,3.6771995E-1,1.1134967E-1,-1.5650316E-1,-8.914873E-2,7.3909216E-2,-4.760388E-2,-3.6581594E-2,-1.858531E-1,1.8127732E-1,2.5860887E-2],"split_indices":[5,26,26,12,2,2,2,22,2,2,2,2,9,2,2,0,0,0,0,0,0,0,0,0,0,0,0,0,0,0,0],"split_type":[0,0,0,0,0,0,0,0,0,0,0,0,0,0,0,0,0,0,0,0,0,0,0,0,0,0,0,0,0,0,0],"sum_hessian":[1.734E3,8.15E2,9.19E2,4.21E2,3.94E2,7.85E2,1.34E2,3.94E2,2.7E1,1.2E1,3.82E2,5.43E2,2.42E2,3E0,1.31E2,3.74E2,2E1,1.9E1,8E0,1E1,2E0,5E0,3.77E2,1.07E2,4.36E2,2E1,2.22E2,1E0,2E0,9E0,1.22E2],"tree_param":{"num_deleted":"0","num_feature":"28","num_nodes":"31","size_leaf_vector":"1"}},{"base_weights":[-2.0616087E-1,-2.4238315E0,4.5022507E0,-4.120302E0,7.713075E-1,1.7900954E0,6.057992E0,-5.1737237E0,-1.6687746E0,-2.1331604E0,2.363643E0,2.8380547E0,-2.9882643E0,-2.384064E0,6.38974E0,2.6652765E-1,-1.0523573E-1,-4.3651715E-2,7.23937E-2,4.2188847E-3,-1.1932217E-1,4.246997E-2,2.1541788E-1,1.3266039E-1,2.402372E-2,-7.746141E-2,1.6748872E-1,1.989356E-1,-1.3295324E-1,4.5683447E-1,1.21327974E-1],"categories":[],"categories_nodes":[],"categories_segments":[],"categories_sizes":[],"default_left":[0,0,0,0,0,0,0,0,0,0,0,0,0,0,0,0,0,0,0,0,0,0,0,0,0,0,0,0,0,0,0],"id":29,"left_children":[1,3,5,7,9,11,13,15,17,19,21,23,25,27,29,-1,-1,-1,-1,-1,-1,-1,-1,-1,-1,-1,-1,-1,-1,-1,-1],"loss_changes":[1.8033297E4,6.366797E3,2.3224912E3,1.9721377E3,1.8919957E3,1.0250089E3,9.982549E2,1.00650977E3,6.4203436E2,1.3066191E3,5.0526514E2,1.0306459E3,4.0677145E2,8.0439E2,1.621832E3,0E0,0E0,0E0,0E0,0E0,0E0,0E0,0E0,0E0,0E0,0E0,0E0,0E0,0E0,0E0,0E0],"parents":[2147483647,0,0,1,1,2,2,3,3,4,4,5,5,6,6,7,7,8,8,9,9,10,10,11,11,12,12,13,13,14,14],"right_children":[2,4,6,8,10,12,14,16,18,20,22,24,26,28,30,-1,-1,-1,-1,-1,-1,-1,-1,-1,-1,-1,-1,-1,-1,-1,-1],"split_conditions":[1E0,1E0,3.5725515E-2,-2.4861123E-1,-4.1745228E-1,9.790251E-1,-1.0217692E0,-3.3024895E0,1.7431664E0,9.790251E-1,2.3016145E0,1E0,-3.9804116E-2,-1.2880222E0,-9.5520586E-1,2.6652765E-1,-1.0523573E-1,-4.3651715E-2,7.23937E-2,4.2188847E-3,-1.1932217E-1,4.246997E-2,2.1541788E-1,1.3266039E-1,2.402372E-2,-7.746141E-2,1.6748872E-1,1.989356E-1,-1.3295324E-1,4.5683447E-1,1.21327974E-1],"split_indices":[26,6,4,2,4,0,2,0,2,0,4,9,4,2,2,0,0,0,0,0,0,0,0,0,0,0,0,0,0,0,0],"split_type":[0,0,0,0,0,0,0,0,0,0,0,0,0,0,0,0,0,0,0,0,0,0,0,0,0,0,0,0,0,0,0],"sum_hessian":[1.725E3,1.173E3,5.52E2,7.66E2,4.07E2,2.02E2,3.5E2,5.35E2,2.31E2,1.44E2,2.63E2,1.66E2,3.6E1,1.3E1,3.37E2,2E0,5.33E2,2.11E2,2E1,9E1,5.4E1,2.57E2,6E0,4.9E1,1.17E2,3.4E1,2E0,3E0,1E1,5E0,3.32E2],"tree_param":{"num_deleted":"0","num_feature":"28","num_nodes":"31","size_leaf_vector":"1"}},{"base_weights":[4.552492E-2,3.453802E0,-3.099179E0,1.2304269E0,5.09561E0,-4.0170717E0,2.0315514E0,2.5951536E0,-2.1934524E0,5.2004285E0,-8.677899E0,-5.093748E0,-1.3960536E0,-7.910336E-1,4.9487863E0,7.0553236E-2,-3.032386E-2,-1.127482E-1,3.9246447E-2,7.5943194E-2,1.2244208E-1,-2.453956E-1,2.1390636E-2,2.6297817E-1,-1.0358476E-1,-4.9786694E-2,4.5925446E-2,7.7217914E-2,-5.379425E-2,1.18149415E-1,-2.4847861E-2],"categories":[],"categories_nodes":[],"categories_segments":[],"categories_sizes":[],"default_left":[0,0,0,0,0,0,0,0,0,0,0,0,0,0,0,0,0,0,0,0,0,0,0,0,0,0,0,0,0,0,0],"id":30,"left_children":[1,3,5,7,9,11,13,15,17,19,21,23,25,27,29,-1,-1,-1,-1,-1,-1,-1,-1,-1,-1,-1,-1,-1,-1,-1,-1],"loss_changes":[1.8649346E4,3.0417773E3,4.2702217E3,1.6691589E3,7.381133E2,2.1601768E3,1.1402263E3,9.878364E2,1.4746157E3,5.965088E2,1.5378922E2,9.7870703E2,9.171387E2,6.391986E2,4.1402478E2,0E0,0E0,0E0,0E0,0E0,0E0,0E0,0E0,0E0,0E0,0E0,0E0,0E0,0E0,0E0,0E0],"parents":[2147483647,0,0,1,1,2,2,3,3,4,4,5,5,6,6,7,7,8,8,9,9,10,10,11,11,12,12,13,13,14,14],"right_children":[2,4,6,8,10,12,14,16,18,20,22,24,26,28,30,-1,-1,-1,-1,-1,-1,-1,-1,-1,-1,-1,-1,-1,-1,-1,-1],"split_conditions":[1E0,3.5725515E-2,1E0,9.790251E-1,1E0,-2.6397198E-1,3.5725515E-2,1E0,-5.6851155E-1,1E0,6.7815423E-1,-3.3024895E0,4.1337368E-1,-5.1998454E-1,1.1850591E0,7.0553236E-2,-3.032386E-2,-1.127482E-1,3.9246447E-2,7.5943194E-2,1.2244208E-1,-2.453956E-1,2.1390636E-2,2.6297817E-1,-1.0358476E-1,-4.9786694E-2,4.5925446E-2,7.7217914E-2,-5.379425E-2,1.18149415E-1,-2.4847861E-2],"split_indices":[5,4,26,0,14,2,4,17,4,26,2,0,4,2,2,0,0,0,0,0,0,0,0,0,0,0,0,0,0,0,0],"split_type":[0,0,0,0,0,0,0,0,0,0,0,0,0,0,0,0,0,0,0,0,0,0,0,0,0,0,0,0,0,0,0],"sum_hessian":[1.738E3,8.34E2,9.04E2,3.55E2,4.79E2,7.67E2,1.37E2,2.54E2,1.01E2,4.76E2,3E0,5.43E2,2.24E2,7E1,6.7E1,2.07E2,4.7E1,5.5E1,4.6E1,1.92E2,2.84E2,2E0,1E0,2E0,5.41E2,1.73E2,5.1E1,2E1,5E1,5.8E1,9E0],"tree_param":{"num_deleted":"0","num_feature":"28","num_nodes":"31","size_leaf_vector":"1"}},{"base_weights":[-1.3113315E-1,2.7350588E0,-2.8565853E0,4.8179907E-1,4.184205E0,4.2371514E-1,-3.113368E0,2.401659E0,-1.7365123E0,9.6156225E-2,5.553725E-2,1.4313183E0,-5.622303E-2,-3.049059E0,-1.868983E-1,5.218133E-2,-1.5010399E-1,-6.487827E-2,-8.708622E-3,2.0567516E-2,8.535016E-2,-6.1577644E-2,2.6072294E-2],"categories":[],"categories_nodes":[],"categories_segments":[],"categories_sizes":[],"default_left":[0,0,0,0,0,0,0,0,0,0,0,0,0,0,0,0,0,0,0,0,0,0,0],"id":31,"left_children":[1,3,5,7,9,11,13,15,17,-1,-1,19,-1,21,-1,-1,-1,-1,-1,-1,-1,-1,-1],"loss_changes":[1.3670421E4,2.7832876E3,7.568838E2,1.4308842E3,4.4520996E2,2.1937573E2,3.054878E2,3.953689E2,3.0520178E2,0E0,0E0,5.3811737E1,0E0,1.243374E2,0E0,0E0,0E0,0E0,0E0,0E0,0E0,0E0,0E0],"parents":[2147483647,0,0,1,1,2,2,3,3,4,4,5,5,6,6,7,7,8,8,11,11,13,13],"right_children":[2,4,6,8,10,12,14,16,18,-1,-1,20,-1,22,-1,-1,-1,-1,-1,-1,-1,-1,-1],"split_conditions":[1E0,1E0,1E0,1E0,1E0,1E0,1E0,1E0,1E0,9.6156225E-2,5.553725E-2,1E0,-5.622303E-2,1E0,-1.868983E-1,5.218133E-2,-1.5010399E-1,-6.487827E-2,-8.708622E-3,2.0567516E-2,8.535016E-2,-6.1577644E-2,2.6072294E-2],"split_indices":[24,13,9,25,25,17,20,23,17,0,0,18,0,19,0,0,0,0,0,0,0,0,0],"split_type":[0,0,0,0,0,0,0,0,0,0,0,0,0,0,0,0,0,0,0,0,0,0,0],"sum_hessian":[1.748E3,8.52E2,8.96E2,3.34E2,5.18E2,6.5E1,8.31E2,1.79E2,1.55E2,3.56E2,1.62E2,5E1,1.5E1,8.24E2,7E0,1.76E2,3E0,7.1E1,8.4E1,4.5E1,5E0,8.18E2,6E0],"tree_param":{"num_deleted":"0","num_feature":"28","num_nodes":"23","size_leaf_vector":"1"}},{"base_weights":[3.306017E-2,3.100441E0,-2.7881463E0,1.1079196E0,4.5735784E0,1.5673625E-1,-4.0498185E0,2.119203E0,-1.3914933E0,4.7010703E0,-6.154298E0,-2.6836324E0,2.0377367E0,-3.011619E0,-5.507687E0,4.913795E-2,-8.601799E-2,-1.05935484E-1,5.5586267E-2,1.1415104E-1,7.0874274E-2,-1.7916897E-1,7.910412E-2,4.8773956E-2,-6.6914655E-2,9.545473E-3,7.538516E-2,1.6303094E-1,-6.2435556E-2,2.285385E-1,-1.1353292E-1],"categories":[],"categories_nodes":[],"categories_segments":[],"categories_sizes":[],"default_left":[0,0,0,0,0,0,0,0,0,0,0,0,0,0,0,0,0,0,0,0,0,0,0,0,0,0,0,0,0,0,0],"id":32,"left_children":[1,3,5,7,9,11,13,15,17,19,21,23,25,27,29,-1,-1,-1,-1,-1,-1,-1,-1,-1,-1,-1,-1,-1,-1,-1,-1],"loss_changes":[1.49016875E4,2.4165205E3,3.3334165E3,8.9266943E2,6.772295E2,1.4480067E3,9.339287E2,5.599249E2,1.6801573E3,5.277295E2,2.0633568E2,3.7687543E2,4.3960034E2,4.9501E2,8.393589E2,0E0,0E0,0E0,0E0,0E0,0E0,0E0,0E0,0E0,0E0,0E0,0E0,0E0,0E0,0E0,0E0],"parents":[2147483647,0,0,1,1,2,2,3,3,4,4,5,5,6,6,7,7,8,8,9,9,10,10,11,11,12,12,13,13,14,14],"right_children":[2,4,6,8,10,12,14,16,18,20,22,24,26,28,30,-1,-1,-1,-1,-1,-1,-1,-1,-1,-1,-1,-1,-1,-1,-1,-1],"split_conditions":[1E0,3.5725515E-2,1E0,9.790251E-1,1E0,-3.4192264E-1,9.790251E-1,1E0,-5.6851155E-1,-6.81154E-1,1.9262446E-1,1E0,2.623144E-1,-3.3024895E0,-2.1546338E0,4.913795E-2,-8.601799E-2,-1.05935484E-1,5.5586267E-2,1.1415104E-1,7.0874274E-2,-1.7916897E-1,7.910412E-2,4.8773956E-2,-6.6914655E-2,9.545473E-3,7.538516E-2,1.6303094E-1,-6.2435556E-2,2.285385E-1,-1.1353292E-1],"split_indices":[5,4,24,0,14,4,0,22,4,0,0,9,4,0,4,0,0,0,0,0,0,0,0,0,0,0,0,0,0,0,0],"split_type":[0,0,0,0,0,0,0,0,0,0,0,0,0,0,0,0,0,0,0,0,0,0,0,0,0,0,0,0,0,0,0],"sum_hessian":[1.72E3,8.24E2,8.96E2,3.51E2,4.73E2,2.69E2,6.27E2,2.5E2,1.01E2,4.68E2,5E0,1.07E2,1.62E2,3.68E2,2.59E2,2.38E2,1.2E1,5.2E1,4.9E1,2.47E2,2.21E2,4E0,1E0,1.2E1,9.5E1,8.6E1,7.6E1,3E0,3.65E2,2E0,2.57E2],"tree_param":{"num_deleted":"0","num_feature":"28","num_nodes":"31","size_leaf_vector":"1"}},{"base_weights":[-1.1833312E-1,-2.235759E0,4.4774847E0,-3.603096E0,4.5276773E-1,4.8109493E0,-4.433154E0,-1.1427255E0,-4.488724E0,-1.732557E-1,3.0072381E0,1.6974349E0,5.6115503E0,-8.701493E0,-1.4983177E-1,6.3748956E-2,-3.7290566E-2,9.060029E-2,-9.271567E-2,3.3963677E-2,-4.3779388E-2,2.4387825E-1,2.2958936E-2,2.2252157E-2,2.6957408E-1,1.5257698E-1,9.582824E-2,-2.6041627E-1,2.1171741E-2,3.8775124E-2,-8.578119E-2],"categories":[],"categories_nodes":[],"categories_segments":[],"categories_sizes":[],"default_left":[0,0,0,0,0,0,0,0,0,0,0,0,0,0,0,0,0,0,0,0,0,0,0,0,0,0,0,0,0,0,0],"id":33,"left_children":[1,3,5,7,9,11,13,15,17,19,21,23,25,27,29,-1,-1,-1,-1,-1,-1,-1,-1,-1,-1,-1,-1,-1,-1,-1,-1],"loss_changes":[1.6660271E4,4.310047E3,1.625876E3,1.6879326E3,6.337878E2,1.2891621E3,3.6434973E2,6.555034E2,8.072871E2,1.209946E3,1.3193893E3,7.284132E2,6.466035E2,4.369552E2,1.0365461E2,0E0,0E0,0E0,0E0,0E0,0E0,0E0,0E0,0E0,0E0,0E0,0E0,0E0,0E0,0E0,0E0],"parents":[2147483647,0,0,1,1,2,2,3,3,4,4,5,5,6,6,7,7,8,8,9,9,10,10,11,11,12,12,13,13,14,14],"right_children":[2,4,6,8,10,12,14,16,18,20,22,24,26,28,30,-1,-1,-1,-1,-1,-1,-1,-1,-1,-1,-1,-1,-1,-1,-1,-1],"split_conditions":[3.320637E-1,1E0,1E0,1E0,-3.0121759E-2,1E0,1.1113112E0,-1.2374066E0,-2.3020124E0,-2.3865278E-1,-1.914644E-2,1E0,1E0,1E0,1.7149537E0,6.3748956E-2,-3.7290566E-2,9.060029E-2,-9.271567E-2,3.3963677E-2,-4.3779388E-2,2.4387825E-1,2.2958936E-2,2.2252157E-2,2.6957408E-1,1.5257698E-1,9.582824E-2,-2.6041627E-1,2.1171741E-2,3.8775124E-2,-8.578119E-2],"split_indices":[1,6,22,24,1,6,1,1,1,1,1,21,11,25,1,0,0,0,0,0,0,0,0,0,0,0,0,0,0,0,0],"split_type":[0,0,0,0,0,0,0,0,0,0,0,0,0,0,0,0,0,0,0,0,0,0,0,0,0,0,0,0,0,0,0],"sum_hessian":[1.71E3,1.171E3,5.39E2,7.76E2,3.95E2,5.2E2,1.9E1,2.06E2,5.7E2,3.18E2,7.7E1,1.07E2,4.13E2,9E0,1E1,2.9E1,1.77E2,9E0,5.61E2,1.65E2,1.53E2,1.2E1,6.5E1,1.03E2,4E0,1.16E2,2.97E2,6E0,3E0,7E0,3E0],"tree_param":{"num_deleted":"0","num_feature":"28","num_nodes":"31","size_leaf_vector":"1"}},{"base_weights":[-9.62193E-2,3.1674511E0,-3.1107025E0,9.66091E-1,4.5096397E0,-2.6711208E-1,-4.353196E0,2.0834599E0,-9.758438E-1,-5.872014E-1,4.8287506E0,1.5487998E0,-1.9652202E0,-6.0250735E0,-2.7361488E0,5.9223667E-2,7.59419E-3,-4.7360588E-2,4.0532906E-2,3.0778846E-1,-3.2640282E-2,2.1843234E-1,9.0694584E-2,1.0527742E-2,9.998689E-2,-8.848382E-2,1.8021919E-2,-1.4865229E-1,-1.0638122E-1,3.2449715E-2,-6.0947392E-2],"categories":[],"categories_nodes":[],"categories_segments":[],"categories_sizes":[],"default_left":[0,0,0,0,0,0,0,0,0,0,0,0,0,0,0,0,0,0,0,0,0,0,0,0,0,0,0,0,0,0,0],"id":34,"left_children":[1,3,5,7,9,11,13,15,17,19,21,23,25,27,29,-1,-1,-1,-1,-1,-1,-1,-1,-1,-1,-1,-1,-1,-1,-1,-1],"loss_changes":[1.6862828E4,2.4273115E3,3.1468682E3,6.811985E2,8.3395703E2,8.41787E2,1.6596865E3,2.9757898E2,4.8687518E2,5.4420416E2,7.9800195E2,4.6356027E2,1.00029486E3,2.6163965E2,4.40177E2,0E0,0E0,0E0,0E0,0E0,0E0,0E0,0E0,0E0,0E0,0E0,0E0,0E0,0E0,0E0,0E0],"parents":[2147483647,0,0,1,1,2,2,3,3,4,4,5,5,6,6,7,7,8,8,9,9,10,10,11,11,12,12,13,13,14,14],"right_children":[2,4,6,8,10,12,14,16,18,20,22,24,26,28,30,-1,-1,-1,-1,-1,-1,-1,-1,-1,-1,-1,-1,-1,-1,-1,-1],"split_conditions":[1E0,1E0,1E0,1E0,-1.0627311E0,1E0,-7.0943385E-1,9.18806E-1,1E0,-1.4006678E0,-7.452756E-1,8.16401E-1,1E0,-1.2573007E0,-6.479908E-1,5.9223667E-2,7.59419E-3,-4.7360588E-2,4.0532906E-2,3.0778846E-1,-3.2640282E-2,2.1843234E-1,9.0694584E-2,1.0527742E-2,9.998689E-2,-8.848382E-2,1.8021919E-2,-1.4865229E-1,-1.0638122E-1,3.2449715E-2,-6.0947392E-2],"split_indices":[5,13,24,24,2,25,2,2,18,2,2,2,13,2,2,0,0,0,0,0,0,0,0,0,0,0,0,0,0,0,0],"split_type":[0,0,0,0,0,0,0,0,0,0,0,0,0,0,0,0,0,0,0,0,0,0,0,0,0,0,0,0,0,0,0],"sum_hessian":[1.712E3,8.22E2,8.9E2,3.12E2,5.1E2,2.71E2,6.19E2,1.98E2,1.14E2,3E1,4.8E2,1.31E2,1.4E2,3.03E2,3.16E2,1.3E2,6.8E1,7.8E1,3.6E1,1E0,2.9E1,2E1,4.6E2,1.02E2,2.9E1,7.5E1,6.5E1,9.7E1,2.06E2,2.1E1,2.95E2],"tree_param":{"num_deleted":"0","num_feature":"28","num_nodes":"31","size_leaf_vector":"1"}},{"base_weights":[8.022647E-2,2.8352382E0,-2.6844554E0,-2.781947E0,3.831184E0,-3.544049E0,3.7896875E-1,-5.697346E-1,-4.5317903E0,1.943991E0,5.713094E0,-2.480997E0,-4.5687633E0,-5.453459E-1,1.4135081E1,2.3037538E-1,-3.3152062E-2,-2.0546743E-1,-5.7259634E-2,1.36207305E-2,6.3035116E-2,1.2288452E-1,4.683754E-2,-5.382259E-2,2.407724E-1,-8.704361E-2,-2.3784126E-1,-4.710097E-2,4.7510047E-2,3.3126932E-1,1.0173923E-1],"categories":[],"categories_nodes":[],"categories_segments":[],"categories_sizes":[],"default_left":[0,0,0,0,0,0,0,0,0,0,0,0,0,0,0,0,0,0,0,0,0,0,0,0,0,0,0,0,0,0,0],"id":35,"left_children":[1,3,5,7,9,11,13,15,17,19,21,23,25,27,29,-1,-1,-1,-1,-1,-1,-1,-1,-1,-1,-1,-1,-1,-1,-1,-1],"loss_changes":[1.3169323E4,4.855418E3,2.2738804E3,5.0452246E2,2.6028184E3,7.228701E2,2.423554E3,7.9732227E2,6.700326E2,5.620908E2,5.2907715E2,1.0649995E3,4.7859912E2,9.5416394E2,1.811748E2,0E0,0E0,0E0,0E0,0E0,0E0,0E0,0E0,0E0,0E0,0E0,0E0,0E0,0E0,0E0,0E0],"parents":[2147483647,0,0,1,1,2,2,3,3,4,4,5,5,6,6,7,7,8,8,9,9,10,10,11,11,12,12,13,13,14,14],"right_children":[2,4,6,8,10,12,14,16,18,20,22,24,26,28,30,-1,-1,-1,-1,-1,-1,-1,-1,-1,-1,-1,-1,-1,-1,-1,-1],"split_conditions":[1E0,-7.9510045E-1,-3.0121759E-2,-1.1727486E0,4.1986623E-1,1.9262446E-1,1.6218479E0,-1.5117896E0,-9.3009776E-1,1E0,9.790251E-1,2.1505554E0,1.6973774E0,3.5725515E-2,1.1661878E0,2.3037538E-1,-3.3152062E-2,-2.0546743E-1,-5.7259634E-2,1.36207305E-2,6.3035116E-2,1.2288452E-1,4.683754E-2,-5.382259E-2,2.407724E-1,-8.704361E-2,-2.3784126E-1,-4.710097E-2,4.7510047E-2,3.3126932E-1,1.0173923E-1],"split_indices":[24,4,1,4,1,0,4,1,1,13,0,4,4,4,1,0,0,0,0,0,0,0,0,0,0,0,0,0,0,0,0],"split_type":[0,0,0,0,0,0,0,0,0,0,0,0,0,0,0,0,0,0,0,0,0,0,0,0,0,0,0,0,0,0,0],"sum_hessian":[1.727E3,8.65E2,8.62E2,1.3E2,7.35E2,6.73E2,1.89E2,5.8E1,7.2E1,3.68E2,3.67E2,3.32E2,3.41E2,1.78E2,1.1E1,4E0,5.4E1,1.5E1,5.7E1,1.81E2,1.87E2,3.24E2,4.3E1,3.28E2,4E0,3.33E2,8E0,1.1E2,6.8E1,8E0,3E0],"tree_param":{"num_deleted":"0","num_feature":"28","num_nodes":"31","size_leaf_vector":"1"}},{"base_weights":[-2.5721967E-2,2.8118203E0,-2.567659E0,1.224744E0,4.47956E0,3.9382118E-1,-3.8938987E0,5.803237E0,8.703207E-1,7.940598E0,3.9479933E0,1.0139E1,7.345596E-2,-6.151639E0,-2.4793305E0,1.8721484E-1,-6.6070743E-3,3.545706E-2,-2.0902958E-2,-4.8665456E-2,2.2896685E-1,-4.8533272E-2,8.476804E-2,3.6651218E-1,5.9466474E-2,-3.157164E-2,3.3551928E-2,-1.5080552E-1,-1.0894337E-1,6.623214E-2,-5.5981316E-2],"categories":[],"categories_nodes":[],"categories_segments":[],"categories_sizes":[],"default_left":[0,0,0,0,0,0,0,0,0,0,0,0,0,0,0,0,0,0,0,0,0,0,0,0,0,0,0,0,0,0,0],"id":36,"left_children":[1,3,5,7,9,11,13,15,17,19,21,23,25,27,29,-1,-1,-1,-1,-1,-1,-1,-1,-1,-1,-1,-1,-1,-1,-1,-1],"loss_changes":[1.247103E4,2.1569731E3,3.5835342E3,6.764937E2,7.008799E2,8.827858E2,1.9967959E3,6.5980316E2,6.7983044E2,1.9280371E3,6.641665E2,4.7449213E2,7.331717E2,1.9490234E2,7.3756177E2,0E0,0E0,0E0,0E0,0E0,0E0,0E0,0E0,0E0,0E0,0E0,0E0,0E0,0E0,0E0,0E0],"parents":[2147483647,0,0,1,1,2,2,3,3,4,4,5,5,6,6,7,7,8,8,9,9,10,10,11,11,12,12,13,13,14,14],"right_children":[2,4,6,8,10,12,14,16,18,20,22,24,26,28,30,-1,-1,-1,-1,-1,-1,-1,-1,-1,-1,-1,-1,-1,-1,-1,-1],"split_conditions":[1E0,1E0,1E0,1E0,-2.84453E-1,1E0,-8.732819E-1,8.16401E-1,9.790251E-1,-1.0627311E0,-8.47632E-2,-2.946935E-1,1E0,-1.3392247E0,-1.5549325E0,1.8721484E-1,-6.6070743E-3,3.545706E-2,-2.0902958E-2,-4.8665456E-2,2.2896685E-1,-4.8533272E-2,8.476804E-2,3.6651218E-1,5.9466474E-2,-3.157164E-2,3.3551928E-2,-1.5080552E-1,-1.0894337E-1,6.623214E-2,-5.5981316E-2],"split_indices":[5,26,24,11,2,11,2,2,0,2,2,2,26,2,0,0,0,0,0,0,0,0,0,0,0,0,0,0,0,0,0],"split_type":[0,0,0,0,0,0,0,0,0,0,0,0,0,0,0,0,0,0,0,0,0,0,0,0,0,0,0,0,0,0,0],"sum_hessian":[1.727E3,8.16E2,9.11E2,4.19E2,3.97E2,2.82E2,6.29E2,2.9E1,3.9E2,5.1E1,3.46E2,8E0,2.74E2,2.41E2,3.88E2,1.8E1,1.1E1,2.65E2,1.25E2,1.3E1,3.8E1,1.5E1,3.31E2,3E0,5E0,1.35E2,1.39E2,7.7E1,1.64E2,2E1,3.68E2],"tree_param":{"num_deleted":"0","num_feature":"28","num_nodes":"31","size_leaf_vector":"1"}},{"base_weights":[-5.7810094E-2,-2.7460794E0,3.0064192E0,-3.0861676E0,3.062588E0,1.15642E0,4.9240866E0,-1.664129E0,-4.624407E0,-4.7926304E-1,1.0174481E1,2.0636437E0,-8.742944E-1,2.4776778E0,5.9903555E0,2.542768E-1,-4.0355403E-2,-1.03804685E-1,-4.4848155E-2,-2.2270606E-1,3.337172E-2,3.4805757E-1,1.1390503E-1,6.818179E-2,2.0372415E-2,-2.582759E-2,1.5548366E-1,-2.929598E-2,8.190114E-2,1.8285044E-1,1.0866909E-1],"categories":[],"categories_nodes":[],"categories_segments":[],"categories_sizes":[],"default_left":[0,0,0,0,0,0,0,0,0,0,0,0,0,0,0,0,0,0,0,0,0,0,0,0,0,0,0,0,0,0,0],"id":37,"left_children":[1,3,5,7,9,11,13,15,17,19,21,23,25,27,29,-1,-1,-1,-1,-1,-1,-1,-1,-1,-1,-1,-1,-1,-1,-1,-1],"loss_changes":[1.4119049E4,1.8130454E3,2.836001E3,1.8800615E3,1.2895289E3,7.5531E2,1.0103096E3,2.3317905E3,5.5179004E2,8.214297E2,4.5181274E2,3.9516125E2,4.7035477E2,7.8023773E2,4.2550684E2,0E0,0E0,0E0,0E0,0E0,0E0,0E0,0E0,0E0,0E0,0E0,0E0,0E0,0E0,0E0,0E0],"parents":[2147483647,0,0,1,1,2,2,3,3,4,4,5,5,6,6,7,7,8,8,9,9,10,10,11,11,12,12,13,13,14,14],"right_children":[2,4,6,8,10,12,14,16,18,20,22,24,26,28,30,-1,-1,-1,-1,-1,-1,-1,-1,-1,-1,-1,-1,-1,-1,-1,-1],"split_conditions":[1E0,1E0,4.7474283E-1,1.9262446E-1,1.9262446E-1,9.790251E-1,1E0,1E0,1.7654258E0,-1.2374066E0,9.790251E-1,-8.499835E-2,1.9401815E0,9.2473084E-1,7.710764E-1,2.542768E-1,-4.0355403E-2,-1.03804685E-1,-4.4848155E-2,-2.2270606E-1,3.337172E-2,3.4805757E-1,1.1390503E-1,6.818179E-2,2.0372415E-2,-2.582759E-2,1.5548366E-1,-2.929598E-2,8.190114E-2,1.8285044E-1,1.0866909E-1],"split_indices":[6,10,1,0,0,0,13,11,0,1,0,1,0,1,1,0,0,0,0,0,0,0,0,0,0,0,0,0,0,0,0],"split_type":[0,0,0,0,0,0,0,0,0,0,0,0,0,0,0,0,0,0,0,0,0,0,0,0,0,0,0,0,0,0,0],"sum_hessian":[1.712E3,9.12E2,8E2,8.62E2,5E1,4.08E2,3.92E2,4.49E2,4.13E2,3.4E1,1.6E1,2.82E2,1.26E2,1.2E2,2.72E2,1E1,4.39E2,3.32E2,8.1E1,5E0,2.9E1,5E0,1.1E1,1.22E2,1.6E2,1.21E2,5E0,3.5E1,8.5E1,3.8E1,2.34E2],"tree_param":{"num_deleted":"0","num_feature":"28","num_nodes":"31","size_leaf_vector":"1"}},{"base_weights":[2.5805604E-2,2.6360073E0,-2.5996373E0,1.02471545E-1,4.3069696E0,-2.705176E0,3.956077E0,-1.9920628E0,1.7322252E0,3.3552928E0,7.5206876E0,-2.742522E0,2.8780562E-1,2.1178585E-1,1.7805114E-1,-7.53513E-2,1.6928855E-2,-2.1839097E-2,6.809252E-2,7.086041E-2,-4.4578023E-2,2.0773697E-1,9.309754E-2,-8.460356E-2,-4.8478603E-2,6.275501E-2,-2.3198202E-1],"categories":[],"categories_nodes":[],"categories_segments":[],"categories_sizes":[],"default_left":[0,0,0,0,0,0,0,0,0,0,0,0,0,0,0,0,0,0,0,0,0,0,0,0,0,0,0],"id":38,"left_children":[1,3,5,7,9,11,13,15,17,19,21,23,-1,25,-1,-1,-1,-1,-1,-1,-1,-1,-1,-1,-1,-1,-1],"loss_changes":[1.17939E4,3.6530195E3,6.043374E2,1.1777206E3,1.5651445E3,5.79542E2,2.5796338E2,7.663981E2,9.226662E2,4.400918E2,9.230742E2,3.8745654E2,0E0,3.482681E2,0E0,0E0,0E0,0E0,0E0,0E0,0E0,0E0,0E0,0E0,0E0,0E0,0E0],"parents":[2147483647,0,0,1,1,2,2,3,3,4,4,5,5,6,6,7,7,8,8,9,9,10,10,11,11,13,13],"right_children":[2,4,6,8,10,12,14,16,18,20,22,24,-1,26,-1,-1,-1,-1,-1,-1,-1,-1,-1,-1,-1,-1,-1],"split_conditions":[1E0,-3.9804116E-2,1E0,1E0,1E0,9.888005E0,4.889033E-1,-3.4192264E-1,-7.9510045E-1,2.5282035E0,1.2441996E0,-1.0216893E0,2.8780562E-1,2.623144E-1,1.7805114E-1,-7.53513E-2,1.6928855E-2,-2.1839097E-2,6.809252E-2,7.086041E-2,-4.4578023E-2,2.0773697E-1,9.309754E-2,-8.460356E-2,-4.8478603E-2,6.275501E-2,-2.3198202E-1],"split_indices":[24,4,12,13,12,3,4,4,4,4,4,4,0,4,0,0,0,0,0,0,0,0,0,0,0,0,0],"split_type":[0,0,0,0,0,0,0,0,0,0,0,0,0,0,0,0,0,0,0,0,0,0,0,0,0,0,0],"sum_hessian":[1.719E3,8.62E2,8.57E2,3.43E2,5.19E2,8.44E2,1.3E1,1.5E2,1.93E2,4.02E2,1.17E2,8.43E2,1E0,8E0,5E0,9.2E1,5.8E1,7.2E1,1.21E2,3.89E2,1.3E1,5.7E1,6E1,1.45E2,6.98E2,7E0,1E0],"tree_param":{"num_deleted":"0","num_feature":"28","num_nodes":"27","size_leaf_vector":"1"}},{"base_weights":[-1.4383626E-1,2.6235442E0,-2.6941884E0,7.339608E-1,4.57111E0,-3.4276752E0,1.343517E0,-8.46695E0,9.082989E-1,2.723662E0,5.435409E0,-3.721301E0,-1.2329067E0,1.3718061E1,8.786916E-1,4.0652333E-3,-2.2754917E-1,5.1621314E-2,-1.3786535E-3,4.6497308E-2,2.4763264E-1,1.114076E-1,-3.8701274E-2,-5.2455142E-2,-8.401824E-2,-3.77902E-2,2.11938E-1,4.042645E-1,1.4041102E-1,-1.4584012E-2,9.5046125E-2],"categories":[],"categories_nodes":[],"categories_segments":[],"categories_sizes":[],"default_left":[0,0,0,0,0,0,0,0,0,0,0,0,0,0,0,0,0,0,0,0,0,0,0,0,0,0,0,0,0,0,0],"id":39,"left_children":[1,3,5,7,9,11,13,15,17,19,21,23,25,27,29,-1,-1,-1,-1,-1,-1,-1,-1,-1,-1,-1,-1,-1,-1,-1,-1],"loss_changes":[1.228763E4,3.0695186E3,2.6878179E3,6.8942E2,6.41459E2,4.8969922E2,7.9322626E2,2.0514221E2,6.8478894E2,4.8062177E2,3.0209863E2,3.4781543E2,7.378963E2,7.579462E1,8.52227E2,0E0,0E0,0E0,0E0,0E0,0E0,0E0,0E0,0E0,0E0,0E0,0E0,0E0,0E0,0E0,0E0],"parents":[2147483647,0,0,1,1,2,2,3,3,4,4,5,5,6,6,7,7,8,8,9,9,10,10,11,11,12,12,13,13,14,14],"right_children":[2,4,6,8,10,12,14,16,18,20,22,24,26,28,30,-1,-1,-1,-1,-1,-1,-1,-1,-1,-1,-1,-1,-1,-1,-1,-1],"split_conditions":[1E0,4.7474283E-1,1E0,-1.6105675E0,1E0,1.3779511E-2,-1.6105675E0,1E0,-2.3865278E-1,8.951783E0,1E0,-9.959497E-1,1E0,-2.3020124E0,1.1255737E-1,4.0652333E-3,-2.2754917E-1,5.1621314E-2,-1.3786535E-3,4.6497308E-2,2.4763264E-1,1.114076E-1,-3.8701274E-2,-5.2455142E-2,-8.401824E-2,-3.77902E-2,2.11938E-1,4.042645E-1,1.4041102E-1,-1.4584012E-2,9.5046125E-2],"split_indices":[5,1,26,1,26,1,1,24,1,3,21,1,21,1,1,0,0,0,0,0,0,0,0,0,0,0,0,0,0,0,0],"split_type":[0,0,0,0,0,0,0,0,0,0,0,0,0,0,0,0,0,0,0,0,0,0,0,0,0,0,0,0,0,0,0],"sum_hessian":[1.739E3,8.34E2,9.05E2,4.24E2,4.1E2,7.66E2,1.39E2,7E0,4.17E2,1.32E2,2.78E2,6.75E2,9.1E1,4E0,1.35E2,2E0,5E0,1.53E2,2.64E2,1.28E2,4E0,2.73E2,5E0,2.09E2,4.66E2,8.7E1,4E0,1E0,3E0,9.6E1,3.9E1],"tree_param":{"num_deleted":"0","num_feature":"28","num_nodes":"31","size_leaf_vector":"1"}},{"base_weights":[1.1640511E-1,2.8161705E0,-2.3306692E0,2.4236069E0,5.4986606E0,-3.6421556E0,4.5486767E-2,-3.4174335E-1,2.6423323E0,7.920381E0,4.1357107E0,-5.9248276E0,-3.2474353E0,1.755137E-1,-2.0679337E-1,-2.3818757E-2,1.6106048E-1,2.546893E-1,5.0225407E-2,1.6951358E-1,5.4290228E-2,-5.732659E-2,9.708318E-2,-1.2564301E-1,2.1916194E-2,9.800046E-4,-7.113818E-2,-2.1726407E-2,1.5016999E-2],"categories":[],"categories_nodes":[],"categories_segments":[],"categories_sizes":[],"default_left":[0,0,0,0,0,0,0,0,0,0,0,0,0,0,0,0,0,0,0,0,0,0,0,0,0,0,0,0,0],"id":40,"left_children":[1,3,5,7,9,11,13,15,17,19,21,23,25,-1,27,-1,-1,-1,-1,-1,-1,-1,-1,-1,-1,-1,-1,-1,-1],"loss_changes":[1.1297116E4,8.428013E2,2.7954844E3,4.3095264E2,3.072141E2,5.0154688E2,7.07447E2,3.8850363E2,8.2097363E2,8.283423E1,3.5895068E2,2.2208154E2,5.1208057E2,0E0,2.642396E2,0E0,0E0,0E0,0E0,0E0,0E0,0E0,0E0,0E0,0E0,0E0,0E0,0E0,0E0],"parents":[2147483647,0,0,1,1,2,2,3,3,4,4,5,5,6,6,7,7,8,8,9,9,10,10,11,11,12,12,14,14],"right_children":[2,4,6,8,10,12,14,16,18,20,22,24,26,-1,28,-1,-1,-1,-1,-1,-1,-1,-1,-1,-1,-1,-1,-1,-1],"split_conditions":[1E0,1.5229957E0,-2.6397198E-1,-1.0217692E0,1.8097297E0,-1.3392247E0,-2.3837073E-1,1E0,-9.5520586E-1,1E0,1.855812E0,1E0,-1.2112185E0,1.755137E-1,3.453379E-1,-2.3818757E-2,1.6106048E-1,2.546893E-1,5.0225407E-2,1.6951358E-1,5.4290228E-2,-5.732659E-2,9.708318E-2,-1.2564301E-1,2.1916194E-2,9.800046E-4,-7.113818E-2,-2.1726407E-2,1.5016999E-2],"split_indices":[5,2,2,2,2,2,2,18,2,25,2,25,2,0,2,0,0,0,0,0,0,0,0,0,0,0,0,0,0],"split_type":[0,0,0,0,0,0,0,0,0,0,0,0,0,0,0,0,0,0,0,0,0,0,0,0,0,0,0,0,0],"sum_hessian":[1.708E3,8.12E2,8.96E2,7.1E2,1.02E2,5.77E2,3.19E2,5.2E1,6.58E2,3.5E1,6.7E1,8.3E1,4.94E2,8E0,3.11E2,4.8E1,4E0,7E0,6.51E2,3.1E1,4E0,6E0,6.1E1,7.9E1,4E0,4.3E1,4.51E2,1.62E2,1.49E2],"tree_param":{"num_deleted":"0","num_feature":"28","num_nodes":"29","size_leaf_vector":"1"}},{"base_weights":[-9.0008676E-2,2.4056625E0,-2.4525886E0,4.434899E-1,4.6542115E0,-2.7572815E0,2.6726491E0,-9.6003443E-1,1.6800303E0,5.3904386E0,-6.883714E-1,-2.6300166E0,-1.0582452E1,3.5219512E0,-4.142557E0,-1.375516E-2,-1.387558E-1,2.0248625E-1,2.8319055E-2,7.12173E-2,1.3229698E-1,2.0941365E-1,-5.0617747E-2,1.584984E-2,-5.7660673E-2,6.1493594E-2,-2.3926245E-1,4.9375445E-2,2.2831786E-1,7.293914E-2,-2.627572E-1],"categories":[],"categories_nodes":[],"categories_segments":[],"categories_sizes":[],"default_left":[0,0,0,0,0,0,0,0,0,0,0,0,0,0,0,0,0,0,0,0,0,0,0,0,0,0,0,0,0,0,0],"id":41,"left_children":[1,3,5,7,9,11,13,15,17,19,21,23,25,27,29,-1,-1,-1,-1,-1,-1,-1,-1,-1,-1,-1,-1,-1,-1,-1,-1],"loss_changes":[1.0123818E4,3.6819902E3,1.3847227E3,7.773879E2,1.5337852E3,8.0172705E2,3.039983E2,3.3645587E2,5.137192E2,7.4566504E2,1.01619977E3,7.230913E2,2.845963E2,3.454652E2,4.694086E2,0E0,0E0,0E0,0E0,0E0,0E0,0E0,0E0,0E0,0E0,0E0,0E0,0E0,0E0,0E0,0E0],"parents":[2147483647,0,0,1,1,2,2,3,3,4,4,5,5,6,6,7,7,8,8,9,9,10,10,11,11,12,12,13,13,14,14],"right_children":[2,4,6,8,10,12,14,16,18,20,22,24,26,28,30,-1,-1,-1,-1,-1,-1,-1,-1,-1,-1,-1,-1,-1,-1,-1,-1],"split_conditions":[1E0,4.7474283E-1,1.1552125E0,1E0,9.790251E-1,9.686321E-1,2.1320157E0,1E0,-1.8410491E0,1E0,1E0,1E0,-1.5549325E0,1.8686081E0,1.0524662E-1,-1.375516E-2,-1.387558E-1,2.0248625E-1,2.8319055E-2,7.12173E-2,1.3229698E-1,2.0941365E-1,-5.0617747E-2,1.584984E-2,-5.7660673E-2,6.1493594E-2,-2.3926245E-1,4.9375445E-2,2.2831786E-1,7.293914E-2,-2.627572E-1],"split_indices":[24,1,1,13,0,1,1,14,1,9,11,9,0,1,0,0,0,0,0,0,0,0,0,0,0,0,0,0,0,0,0],"split_type":[0,0,0,0,0,0,0,0,0,0,0,0,0,0,0,0,0,0,0,0,0,0,0,0,0,0,0,0,0,0,0],"sum_hessian":[1.715E3,8.34E2,8.81E2,4.46E2,3.88E2,8.32E2,4.9E1,2.09E2,2.37E2,3.41E2,4.7E1,8.2E2,1.2E1,4.4E1,5E0,2.01E2,8E0,6E0,2.31E2,1.39E2,2.02E2,6E0,4.1E1,5.7E1,7.63E2,1E0,1.1E1,4E1,4E0,3E0,2E0],"tree_param":{"num_deleted":"0","num_feature":"28","num_nodes":"31","size_leaf_vector":"1"}},{"base_weights":[1.4698842E-1,1.4168086E0,-2.778331E0,-6.3693553E-1,2.7743828E0,3.4229913E0,-3.2525373E0,1.1072411E1,-1.0987626E0,2.6357064E0,1.225977E1,-6.7624917E0,6.938414E0,-2.8324864E0,-6.131682E0,3.8085255E-1,1.3047749E-1,2.9042475E-3,-4.0600266E-2,1.0026043E-1,4.199867E-2,-2.0281194E-2,2.7662194E-1,1.8419437E-3,-2.2668299E-1,1.6850904E-1,-1.6678284E-1,-8.241223E-2,-3.560899E-2,-9.495189E-2,-1.8146266E-1],"categories":[],"categories_nodes":[],"categories_segments":[],"categories_sizes":[],"default_left":[0,0,0,0,0,0,0,0,0,0,0,0,0,0,0,0,0,0,0,0,0,0,0,0,0,0,0,0,0,0,0],"id":42,"left_children":[1,3,5,7,9,11,13,15,17,19,21,23,25,27,29,-1,-1,-1,-1,-1,-1,-1,-1,-1,-1,-1,-1,-1,-1,-1,-1],"loss_changes":[6.307663E3,3.30289E3,1.522656E3,2.5645967E3,9.055679E2,1.3717534E3,5.607197E2,5.287622E2,5.288345E2,8.841875E2,2.2484155E2,3.153457E2,7.112532E2,5.6147095E2,2.0099097E2,0E0,0E0,0E0,0E0,0E0,0E0,0E0,0E0,0E0,0E0,0E0,0E0,0E0,0E0,0E0,0E0],"parents":[2147483647,0,0,1,1,2,2,3,3,4,4,5,5,6,6,7,7,8,8,9,9,10,10,11,11,12,12,13,13,14,14],"right_children":[2,4,6,8,10,12,14,16,18,20,22,24,26,28,30,-1,-1,-1,-1,-1,-1,-1,-1,-1,-1,-1,-1,-1,-1,-1,-1],"split_conditions":[9.790251E-1,-1.9228847E-1,1E0,1E0,2.6187294E0,-4.3294027E-1,1E0,-1.0064085E0,1.0524662E-1,1E0,1E0,1E0,1E0,-6.1726934E-1,2.2810719E-3,3.8085255E-1,1.3047749E-1,2.9042475E-3,-4.0600266E-2,1.0026043E-1,4.199867E-2,-2.0281194E-2,2.7662194E-1,1.8419437E-3,-2.2668299E-1,1.6850904E-1,-1.6678284E-1,-8.241223E-2,-3.560899E-2,-9.495189E-2,-1.8146266E-1],"split_indices":[0,2,9,11,2,2,18,2,0,11,11,13,22,2,2,0,0,0,0,0,0,0,0,0,0,0,0,0,0,0,0],"split_type":[0,0,0,0,0,0,0,0,0,0,0,0,0,0,0,0,0,0,0,0,0,0,0,0,0,0,0,0,0,0,0],"sum_hessian":[1.696E3,1.183E3,5.13E2,4.71E2,7.12E2,3.6E1,4.77E2,1.7E1,4.54E2,7.03E2,9E0,9E0,2.7E1,4.18E2,5.9E1,5E0,1.2E1,1.95E2,2.59E2,1.27E2,5.76E2,1E0,8E0,4E0,5E0,2.5E1,2E0,1.86E2,2.32E2,4.2E1,1.7E1],"tree_param":{"num_deleted":"0","num_feature":"28","num_nodes":"31","size_leaf_vector":"1"}},{"base_weights":[1.899438E-1,-1.5075496E0,3.9005408E0,-2.2293673E0,1.7843682E0,1.8550447E0,5.524149E0,6.1680737E0,-2.3307457E0,1.4746629E0,2.472708E-1,-4.8946443E-1,2.3590415E0,3.9732482E0,6.593648E0,4.414786E-2,1.5722951E-1,9.867792E-2,-4.801925E-2,1.2462681E-1,1.3609149E-2,8.2810305E-2,-1.3596232E-1,1.1214399E-1,2.186297E-2,5.432312E-2,1.2703654E-1,1.77081E-1,1.1016631E-1],"categories":[],"categories_nodes":[],"categories_segments":[],"categories_sizes":[],"default_left":[0,0,0,0,0,0,0,0,0,0,0,0,0,0,0,0,0,0,0,0,0,0,0,0,0,0,0,0,0],"id":43,"left_children":[1,3,5,7,9,11,13,15,17,19,-1,21,23,25,27,-1,-1,-1,-1,-1,-1,-1,-1,-1,-1,-1,-1,-1,-1],"loss_changes":[1.0997137E4,2.8506226E3,1.809706E3,8.5122363E2,6.9043976E2,2.8947113E2,4.7970117E2,6.348111E1,5.283154E2,7.932904E2,0E0,1.3164299E3,8.211798E2,3.6267578E2,3.896328E2,0E0,0E0,0E0,0E0,0E0,0E0,0E0,0E0,0E0,0E0,0E0,0E0,0E0,0E0],"parents":[2147483647,0,0,1,1,2,2,3,3,4,4,5,5,6,6,7,7,8,8,9,9,11,11,12,12,13,13,14,14],"right_children":[2,4,6,8,10,12,14,16,18,20,-1,22,24,26,28,-1,-1,-1,-1,-1,-1,-1,-1,-1,-1,-1,-1,-1,-1],"split_conditions":[1E0,3.5401434E-1,4.4181687E-1,-2.3020124E0,8.951783E0,-8.422952E-1,1E0,1E0,1E0,5.076688E-1,2.472708E-1,-1.1166781E0,-1.0694898E-1,1.4625213E0,1E0,4.414786E-2,1.5722951E-1,9.867792E-2,-4.801925E-2,1.2462681E-1,1.3609149E-2,8.2810305E-2,-1.3596232E-1,1.1214399E-1,2.186297E-2,5.432312E-2,1.2703654E-1,1.77081E-1,1.1016631E-1],"split_indices":[26,1,1,1,3,1,9,13,11,1,0,1,1,1,11,0,0,0,0,0,0,0,0,0,0,0,0,0,0],"split_type":[0,0,0,0,0,0,0,0,0,0,0,0,0,0,0,0,0,0,0,0,0,0,0,0,0,0,0,0,0],"sum_hessian":[1.744E3,1.197E3,5.47E2,9.82E2,2.15E2,2.43E2,3.04E2,1.1E1,9.71E2,2.1E2,5E0,4.3E1,2E2,1.26E2,1.78E2,4E0,7E0,9E0,9.62E2,2.9E1,1.81E2,2.5E1,1.8E1,5.5E1,1.45E2,8.4E1,4.2E1,5.5E1,1.23E2],"tree_param":{"num_deleted":"0","num_feature":"28","num_nodes":"29","size_leaf_vector":"1"}},{"base_weights":[6.7005344E-2,-1.6170038E0,3.7348342E0,5.539169E-1,-2.4381192E0,4.1696553E0,9.461649E-1,6.2190504E0,1.5945579E-1,2.4812233E0,-2.7807102E0,4.256736E0,-2.1351859E-1,-9.5608807E-1,7.9015875E0,2.0930437E-2,1.999656E-1,3.5000693E-2,-1.1965613E-2,3.448457E-2,1.9649288E-1,-2.295271E-2,-6.508826E-2,8.1658885E-2,2.1657713E-1,2.8794956E-1,-4.0689986E-2,3.8417885E-1,7.60602E-2],"categories":[],"categories_nodes":[],"categories_segments":[],"categories_sizes":[],"default_left":[0,0,0,0,0,0,0,0,0,0,0,0,0,0,0,0,0,0,0,0,0,0,0,0,0,0,0,0,0],"id":44,"left_children":[1,3,5,7,9,11,13,15,17,19,21,23,-1,25,27,-1,-1,-1,-1,-1,-1,-1,-1,-1,-1,-1,-1,-1,-1],"loss_changes":[1.0580476E4,2.0940952E3,6.4963135E2,7.208083E2,1.4427944E3,6.484404E2,9.8664655E2,4.0121844E2,3.6706012E2,2.939698E2,6.173364E2,4.7182422E2,0E0,1.00954236E3,6.689586E2,0E0,0E0,0E0,0E0,0E0,0E0,0E0,0E0,0E0,0E0,0E0,0E0,0E0,0E0],"parents":[2147483647,0,0,1,1,2,2,3,3,4,4,5,5,6,6,7,7,8,8,9,9,10,10,11,11,13,13,14,14],"right_children":[2,4,6,8,10,12,14,16,18,20,22,24,-1,26,28,-1,-1,-1,-1,-1,-1,-1,-1,-1,-1,-1,-1,-1,-1],"split_conditions":[1E0,1.0524662E-1,9.790251E-1,1E0,1E0,1E0,1E0,1E0,1E0,1.8528036E0,1E0,1.9262446E-1,-2.1351859E-1,1E0,1E0,2.0930437E-2,1.999656E-1,3.5000693E-2,-1.1965613E-2,3.448457E-2,1.9649288E-1,-2.295271E-2,-6.508826E-2,8.1658885E-2,2.1657713E-1,2.8794956E-1,-4.0689986E-2,3.8417885E-1,7.60602E-2],"split_indices":[26,0,0,11,9,14,17,9,24,0,24,0,0,11,7,0,0,0,0,0,0,0,0,0,0,0,0,0,0],"split_type":[0,0,0,0,0,0,0,0,0,0,0,0,0,0,0,0,0,0,0,0,0,0,0,0,0,0,0,0,0],"sum_hessian":[1.711E3,1.173E3,5.38E2,3.22E2,8.51E2,4.65E2,7.3E1,2E1,3.02E2,5.5E1,7.96E2,4.63E2,2E0,5.8E1,1.5E1,9E0,1.1E1,9.7E1,2.05E2,5.1E1,4E0,1.81E2,6.15E2,4.53E2,1E1,3E0,5.5E1,3E0,1.2E1],"tree_param":{"num_deleted":"0","num_feature":"28","num_nodes":"29","size_leaf_vector":"1"}},{"base_weights":[-2.7937429E-2,-2.229435E0,2.3439636E0,-2.993616E0,-4.0316525E-1,-2.201601E0,3.118602E0,-3.1105263E0,1.2195506E1,4.3991163E-1,-5.7216436E-1,7.3822813E0,-2.854842E0,1.2228758E0,4.2252426E0,2.3822547E-1,-6.300098E-2,4.2852655E-1,-2.2493588E-2,-1.1068418E-1,2.3098798E-3,-6.571408E-2,2.8852305E-1,6.8335176E-2,-6.842517E-2,4.3998554E-2,-5.942902E-2,6.778442E-2,1.3165104E-1],"categories":[],"categories_nodes":[],"categories_segments":[],"categories_sizes":[],"default_left":[0,0,0,0,0,0,0,0,0,0,0,0,0,0,0,0,0,0,0,0,0,0,0,0,0,0,0,0,0],"id":45,"left_children":[1,3,5,7,9,11,13,15,17,-1,19,21,23,25,27,-1,-1,-1,-1,-1,-1,-1,-1,-1,-1,-1,-1,-1,-1],"loss_changes":[8.970943E3,1.2422734E3,2.918873E3,1.1531147E3,1.0131068E3,7.7860596E2,1.4780396E3,4.4365332E2,6.406992E2,0E0,8.994198E2,6.50353E2,4.1986432E2,1.0840385E3,8.552617E2,0E0,0E0,0E0,0E0,0E0,0E0,0E0,0E0,0E0,0E0,0E0,0E0,0E0,0E0],"parents":[2147483647,0,0,1,1,2,2,3,3,4,4,5,5,6,6,7,7,8,8,10,10,11,11,12,12,13,13,14,14],"right_children":[2,4,6,8,10,12,14,16,18,-1,20,22,24,26,28,-1,-1,-1,-1,-1,-1,-1,-1,-1,-1,-1,-1,-1,-1],"split_conditions":[1E0,-5.207239E-2,-7.9510045E-1,1E0,-2.1546338E0,-1.5549325E0,-3.0121759E-2,-4.904307E0,-1.0727769E0,4.3991163E-1,-1.0216893E0,-2.428711E0,-1.006925E0,1.2441996E0,1E0,2.3822547E-1,-6.300098E-2,4.2852655E-1,-2.2493588E-2,-1.1068418E-1,2.3098798E-3,-6.571408E-2,2.8852305E-1,6.8335176E-2,-6.842517E-2,4.3998554E-2,-5.942902E-2,6.778442E-2,1.3165104E-1],"split_indices":[6,1,4,12,4,0,1,3,1,0,4,0,1,4,12,0,0,0,0,0,0,0,0,0,0,0,0,0,0],"split_type":[0,0,0,0,0,0,0,0,0,0,0,0,0,0,0,0,0,0,0,0,0,0,0,0,0,0,0,0,0],"sum_hessian":[1.716E3,8.9E2,8.26E2,6.27E2,2.63E2,1.2E2,7.06E2,6.23E2,4E0,1E0,2.62E2,7E0,1.13E2,2.61E2,4.45E2,1E0,6.22E2,2E0,2E0,3.1E1,2.31E2,3E0,4E0,9E0,1.04E2,2.12E2,4.9E1,3.31E2,1.14E2],"tree_param":{"num_deleted":"0","num_feature":"28","num_nodes":"29","size_leaf_vector":"1"}},{"base_weights":[-2.4562135E-1,-1.8993597E0,2.8727152E0,-2.8794575E0,-7.8698015E-1,5.1862705E-1,4.6975136E0,6.7498393E0,-3.0367193E0,-2.7880194E0,6.284086E-1,-4.710722E0,2.6576762E0,5.0263543E0,-2.7405407E0,3.7747803E-1,-8.983822E-2,-6.8689615E-2,5.726415E-3,-8.420274E-2,2.076054E-3,2.622358E-2,-7.161846E-2,-7.707291E-2,-2.1420503E-1,4.0524974E-2,1.566123E-1,7.8825675E-2,1.3475505E-1,8.49689E-2,-9.675492E-2],"categories":[],"categories_nodes":[],"categories_segments":[],"categories_sizes":[],"default_left":[0,0,0,0,0,0,0,0,0,0,0,0,0,0,0,0,0,0,0,0,0,0,0,0,0,0,0,0,0,0,0],"id":46,"left_children":[1,3,5,7,9,11,13,15,17,19,21,23,25,27,29,-1,-1,-1,-1,-1,-1,-1,-1,-1,-1,-1,-1,-1,-1,-1,-1],"loss_changes":[8.957857E3,1.2351572E3,2.5835967E3,9.336323E2,1.5113406E3,2.9655803E3,8.4294775E2,1.4511179E3,7.942827E2,9.125487E2,9.072438E2,3.5328247E2,5.9692163E2,5.771084E2,2.4122618E2,0E0,0E0,0E0,0E0,0E0,0E0,0E0,0E0,0E0,0E0,0E0,0E0,0E0,0E0,0E0,0E0],"parents":[2147483647,0,0,1,1,2,2,3,3,4,4,5,5,6,6,7,7,8,8,9,9,10,10,11,11,12,12,13,13,14,14],"right_children":[2,4,6,8,10,12,14,16,18,20,22,24,26,28,30,-1,-1,-1,-1,-1,-1,-1,-1,-1,-1,-1,-1,-1,-1,-1,-1],"split_conditions":[9.0606734E-2,-1.9086339E-1,1.1125515E-1,-2.3020124E0,-5.660668E-1,-1.7180747E-1,1E0,-4.07339E-1,9.290465E-1,5.64433E-1,1.5463182E0,3.5725515E-2,1.9564106E0,1.2649657E0,1.149266E-1,3.7747803E-1,-8.983822E-2,-6.8689615E-2,5.726415E-3,-8.420274E-2,2.076054E-3,2.622358E-2,-7.161846E-2,-7.707291E-2,-2.1420503E-1,4.0524974E-2,1.566123E-1,7.8825675E-2,1.3475505E-1,8.49689E-2,-9.675492E-2],"split_indices":[1,4,4,1,2,2,22,2,2,4,4,4,1,1,2,0,0,0,0,0,0,0,0,0,0,0,0,0,0,0,0],"split_type":[0,0,0,0,0,0,0,0,0,0,0,0,0,0,0,0,0,0,0,0,0,0,0,0,0,0,0,0,0,0,0],"sum_hessian":[1.735E3,1.134E3,6.01E2,6.02E2,5.32E2,2.63E2,3.38E2,9E0,5.93E2,2.2E2,3.12E2,7.6E1,1.87E2,3.24E2,1.4E1,4E0,5E0,5.29E2,6.4E1,1.47E2,7.3E1,2.69E2,4.3E1,6.8E1,8E0,1.68E2,1.9E1,2.01E2,1.23E2,3E0,1.1E1],"tree_param":{"num_deleted":"0","num_feature":"28","num_nodes":"31","size_leaf_vector":"1"}},{"base_weights":[-7.315981E-2,-1.684975E0,3.6734457E0,3.4430504E-1,-2.7433865E0,4.0045276E0,-4.8203797E0,-1.057297E0,1.597811E0,-4.301653E0,-1.1101615E0,-4.210132E0,4.3011446E0,-7.225008E0,3.8385081E0,9.5887795E-2,-3.7138496E-2,-4.333104E-2,4.8880953E-2,1.4026718E-1,-8.7957524E-2,1.8657975E-1,-2.4823446E-2,-3.799993E-2,-1.6997403E-1,1.0021895E-1,5.9317943E-2,-2.0505255E-1,-5.797216E-2,1.1558574E-1,1.2212223E-2],"categories":[],"categories_nodes":[],"categories_segments":[],"categories_sizes":[],"default_left":[0,0,0,0,0,0,0,0,0,0,0,0,0,0,0,0,0,0,0,0,0,0,0,0,0,0,0,0,0,0,0],"id":47,"left_children":[1,3,5,7,9,11,13,15,17,19,21,23,25,27,29,-1,-1,-1,-1,-1,-1,-1,-1,-1,-1,-1,-1,-1,-1,-1,-1],"loss_changes":[1.0459415E4,2.601946E3,1.4844341E3,7.3256665E2,2.0210444E3,1.2412856E3,4.4416144E2,9.341748E2,7.090218E2,4.985298E2,5.5158374E2,1.6238916E2,4.474082E2,1.8046777E2,2.788993E1,0E0,0E0,0E0,0E0,0E0,0E0,0E0,0E0,0E0,0E0,0E0,0E0,0E0,0E0,0E0,0E0],"parents":[2147483647,0,0,1,1,2,2,3,3,4,4,5,5,6,6,7,7,8,8,9,9,10,10,11,11,12,12,13,13,14,14],"right_children":[2,4,6,8,10,12,14,16,18,20,22,24,26,28,30,-1,-1,-1,-1,-1,-1,-1,-1,-1,-1,-1,-1,-1,-1,-1,-1],"split_conditions":[3.979156E-1,1E0,1E0,1E0,-5.660668E-1,-1.1804969E0,1.7431664E0,-9.091236E-1,-8.2034457E-1,1E0,1E0,-1.2726614E0,9.290465E-1,1.1113112E0,1E0,9.5887795E-2,-3.7138496E-2,-4.333104E-2,4.8880953E-2,1.4026718E-1,-8.7957524E-2,1.8657975E-1,-2.4823446E-2,-3.799993E-2,-1.6997403E-1,1.0021895E-1,5.9317943E-2,-2.0505255E-1,-5.797216E-2,1.1558574E-1,1.2212223E-2],"split_indices":[1,5,22,13,2,2,2,2,1,11,11,2,2,1,9,0,0,0,0,0,0,0,0,0,0,0,0,0,0,0,0],"split_type":[0,0,0,0,0,0,0,0,0,0,0,0,0,0,0,0,0,0,0,0,0,0,0,0,0,0,0,0,0,0,0],"sum_hessian":[1.73E3,1.21E3,5.2E2,4.15E2,7.95E2,5.01E2,1.9E1,1.96E2,2.19E2,4.06E2,3.89E2,1.7E1,4.84E2,1.5E1,4E0,2.3E1,1.73E2,4E1,1.79E2,3E0,4.03E2,4E0,3.85E2,1.2E1,5E0,3.13E2,1.71E2,8E0,7E0,2E0,2E0],"tree_param":{"num_deleted":"0","num_feature":"28","num_nodes":"31","size_leaf_vector":"1"}},{"base_weights":[1.6371114E-2,2.3056488E0,-2.1365972E0,9.571689E-1,3.7348056E0,-2.821862E0,1.3747654E0,1.2342643E0,-4.023973E0,3.9165337E0,-4.7165923E0,-2.931881E0,6.5010047E0,4.145913E0,8.7604535E-1,1.8904801E-2,9.9561535E-2,-1.44447E-1,-3.6586735E-2,5.5105694E-2,9.085305E-2,-1.0453494E-1,-5.8482084E-3,1.6607255E-2,-6.233952E-2,1.6760601E-1,-8.603009E-2,9.964147E-2,-5.6933068E-2,1.0403701E-2,1.5651032E-1],"categories":[],"categories_nodes":[],"categories_segments":[],"categories_sizes":[],"default_left":[0,0,0,0,0,0,0,0,0,0,0,0,0,0,0,0,0,0,0,0,0,0,0,0,0,0,0,0,0,0,0],"id":48,"left_children":[1,3,5,7,9,11,13,15,17,19,21,23,25,27,29,-1,-1,-1,-1,-1,-1,-1,-1,-1,-1,-1,-1,-1,-1,-1,-1],"loss_changes":[8.511936E3,1.6094819E3,2.1454092E3,6.012352E2,6.4203076E2,7.832007E2,1.9814395E2,4.378958E2,1.4847333E2,2.785088E2,1.9027588E1,5.2625977E2,2.1990204E2,1.4382434E2,3.0492523E2,0E0,0E0,0E0,0E0,0E0,0E0,0E0,0E0,0E0,0E0,0E0,0E0,0E0,0E0,0E0,0E0],"parents":[2147483647,0,0,1,1,2,2,3,3,4,4,5,5,6,6,7,7,8,8,9,9,10,10,11,11,12,12,13,13,14,14],"right_children":[2,4,6,8,10,12,14,16,18,20,22,24,26,28,30,-1,-1,-1,-1,-1,-1,-1,-1,-1,-1,-1,-1,-1,-1,-1,-1],"split_conditions":[1E0,1E0,1E0,1E0,1E0,1E0,1E0,1E0,1E0,1E0,1E0,1E0,1E0,1E0,1E0,1.8904801E-2,9.9561535E-2,-1.44447E-1,-3.6586735E-2,5.5105694E-2,9.085305E-2,-1.0453494E-1,-5.8482084E-3,1.6607255E-2,-6.233952E-2,1.6760601E-1,-8.603009E-2,9.964147E-2,-5.6933068E-2,1.0403701E-2,1.5651032E-1],"split_indices":[5,26,26,22,21,12,9,12,25,9,12,9,18,12,12,0,0,0,0,0,0,0,0,0,0,0,0,0,0,0,0],"split_type":[0,0,0,0,0,0,0,0,0,0,0,0,0,0,0,0,0,0,0,0,0,0,0,0,0,0,0,0,0,0,0],"sum_hessian":[1.725E3,8.36E2,8.89E2,4.31E2,4.05E2,7.44E2,1.45E2,4.09E2,2.2E1,3.97E2,8E0,7.36E2,8E0,2.1E1,1.24E2,3.81E2,2.8E1,8E0,1.4E1,1.42E2,2.55E2,7E0,1E0,3.5E1,7.01E2,7E0,1E0,1.9E1,2E0,1.19E2,5E0],"tree_param":{"num_deleted":"0","num_feature":"28","num_nodes":"31","size_leaf_vector":"1"}},{"base_weights":[9.522343E-3,-1.6965252E0,3.160644E0,-2.769338E0,6.807704E-1,3.9331772E0,6.4405656E-1,-6.384831E-1,-3.4858806E0,2.1522946E0,-5.136114E-1,3.271089E0,5.852444E0,3.6563593E-1,2.7183497E-1,4.8900038E-5,-1.3203044E-1,6.393217E-2,-7.2094366E-2,2.9034762E-2,3.379872E-1,-3.190816E-2,6.650233E-2,3.384354E-2,7.636604E-2,2.1411842E-1,9.240211E-2,3.8737383E-2,-1.616842E-2],"categories":[],"categories_nodes":[],"categories_segments":[],"categories_sizes":[],"default_left":[0,0,0,0,0,0,0,0,0,0,0,0,0,0,0,0,0,0,0,0,0,0,0,0,0,0,0,0,0],"id":49,"left_children":[1,3,5,7,9,11,13,15,17,19,21,23,25,27,-1,-1,-1,-1,-1,-1,-1,-1,-1,-1,-1,-1,-1,-1,-1],"loss_changes":[9.305778E3,2.8659766E3,1.1795078E3,1.1795547E3,6.16252E2,5.7174316E2,5.147802E2,7.5009625E2,4.8824805E2,1.5956029E3,8.13195E2,2.963086E2,6.548865E2,2.6411957E2,0E0,0E0,0E0,0E0,0E0,0E0,0E0,0E0,0E0,0E0,0E0,0E0,0E0,0E0,0E0],"parents":[2147483647,0,0,1,1,2,2,3,3,4,4,5,5,6,6,7,7,8,8,9,9,10,10,11,11,12,12,13,13],"right_children":[2,4,6,8,10,12,14,16,18,20,22,24,26,28,-1,-1,-1,-1,-1,-1,-1,-1,-1,-1,-1,-1,-1,-1,-1],"split_conditions":[5.768078E-2,1E0,1E0,1E0,-2.3865278E-1,1E0,8.951783E0,1E0,-2.3020124E0,-3.045047E-1,-3.0121759E-2,7.161998E-1,7.491258E-1,7.491258E-1,2.7183497E-1,4.8900038E-5,-1.3203044E-1,6.393217E-2,-7.2094366E-2,2.9034762E-2,3.379872E-1,-3.190816E-2,6.650233E-2,3.384354E-2,7.636604E-2,2.1411842E-1,9.240211E-2,3.8737383E-2,-1.616842E-2],"split_indices":[1,6,24,24,1,12,3,18,1,1,1,1,1,1,0,0,0,0,0,0,0,0,0,0,0,0,0,0,0],"split_type":[0,0,0,0,0,0,0,0,0,0,0,0,0,0,0,0,0,0,0,0,0,0,0,0,0,0,0,0,0],"sum_hessian":[1.729E3,1.122E3,6.07E2,7.73E2,3.49E2,4.64E2,1.43E2,1.95E2,5.78E2,1.56E2,1.93E2,3.47E2,1.17E2,1.41E2,2E0,1.77E2,1.8E1,1E1,5.68E2,1.5E2,6E0,1.51E2,4.2E1,9.1E1,2.56E2,2.2E1,9.5E1,6E1,8.1E1],"tree_param":{"num_deleted":"0","num_feature":"28","num_nodes":"29","size_leaf_vector":"1"}},{"base_weights":[5.075009E-2,-2.0279753E0,2.347959E0,4.918149E-2,-2.940944E0,-2.8115E-1,3.2391322E0,-3.8595846E0,1.034955E0,-3.8579042E0,-1.1864349E0,-9.357542E-1,3.3484151E0,5.336447E0,2.6995702E0,-1.06855355E-1,5.4341603E-2,4.0460024E-3,7.362093E-2,2.388959E-1,-7.919019E-2,-2.6424492E-2,1.7942277E-1,-1.3191179E-2,-1.5041922E-1,1.24544255E-1,-9.4291955E-2,-8.547049E-2,1.1371655E-1,5.563568E-2,-1.667163E-1],"categories":[],"categories_nodes":[],"categories_segments":[],"categories_sizes":[],"default_left":[0,0,0,0,0,0,0,0,0,0,0,0,0,0,0,0,0,0,0,0,0,0,0,0,0,0,0,0,0,0,0],"id":50,"left_children":[1,3,5,7,9,11,13,15,17,19,21,23,25,27,29,-1,-1,-1,-1,-1,-1,-1,-1,-1,-1,-1,-1,-1,-1,-1,-1],"loss_changes":[8.222995E3,1.7144714E3,1.9174775E3,1.0713192E3,1.0057583E3,4.973264E2,6.770205E2,5.6341315E2,4.8905096E2,7.4027783E2,3.1277124E2,3.1647635E2,7.746398E2,4.489912E2,4.8425684E2,0E0,0E0,0E0,0E0,0E0,0E0,