{"learner":{"attributes":{"best_iteration":"112","best_score":"4.166684811924159"},"feature_names":[],"feature_types":[],"gradient_booster":{"model":{"cats":{"enc":[],"feature_segments":[],"sorted_idx":[]},"gbtree_model_param":{"num_parallel_tree":"1","num_trees":"183"},"iteration_indptr":[0,1,2,3,4,5,6,7,8,9,10,11,12,13,14,15,16,17,18,19,20,21,22,23,24,25,26,27,28,29,30,31,32,33,34,35,36,37,38,39,40,41,42,43,44,45,46,47,48,49,50,51,52,53,54,55,56,57,58,59,60,61,62,63,64,65,66,67,68,69,70,71,72,73,74,75,76,77,78,79,80,81,82,83,84,85,86,87,88,89,90,91,92,93,94,95,96,97,98,99,100,101,102,103,104,105,106,107,108,109,110,111,112,113,114,115,116,117,118,119,120,121,122,123,124,125,126,127,128,129,130,131,132,133,134,135,136,137,138,139,140,141,142,143,144,145,146,147,148,149,150,151,152,153,154,155,156,157,158,159,160,161,162,163,164,165,166,167,168,169,170,171,172,173,174,175,176,177,178,179,180,181,182,183],"tree_info":[0,0,0,0,0,0,0,0,0,0,0,0,0,0,0,0,0,0,0,0,0,0,0,0,0,0,0,0,0,0,0,0,0,0,0,0,0,0,0,0,0,0,0,0,0,0,0,0,0,0,0,0,0,0,0,0,0,0,0,0,0,0,0,0,0,0,0,0,0,0,0,0,0,0,0,0,0,0,0,0,0,0,0,0,0,0,0,0,0,0,0,0,0,0,0,0,0,0,0,0,0,0,0,0,0,0,0,0,0,0,0,0,0,0,0,0,0,0,0,0,0,0,0,0,0,0,0,0,0,0,0,0,0,0,0,0,0,0,0,0,0,0,0,0,0,0,0,0,0,0,0,0,0,0,0,0,0,0,0,0,0,0,0,0,0,0,0,0,0,0,0,0,0,0,0,0,0,0,0,0,0,0,0],"trees":[{"base_weights":[2.1065507E-2,-3.6967432E0,5.0987306E0,-1.3439652E0,-1.1675141E1,2.2117863E0,9.618123E0,-7.527496E0,1.2679548E0,-1.8788132E1,-8.945648E0,-2.6304479E0,3.981796E0,2.993433E0,1.2583665E1,-1.4318844E1,-4.6527276E0,5.1908197E0,-2.3278446E0,-1.7741302E0,-1.3305508E0,-1.0013498E1,1.7616338E0,1.132259E0,-1.1648917E1,2.8471081E0,1.0157873E1,-1.4295629E0,5.787588E0,9.684189E0,1.4644661E1,-1.8346127E1,-1.1033104E1,-7.9234905E0,-2.162859E0,2.5274847E0,9.143414E0,-5.2866917E0,5.328418E-1,-1.4190811E1,-8.359924E0,-1.3093762E0,4.8596343E-1,-5.0901265E0,4.160247E0,-1.2174458E1,-4.0463287E-1,-3.244293E-2,4.827025E0,2.973671E-1,1.0538489E1,-6.296451E-3,-5.887033E-1,9.783072E-1,8.161656E0,5.812934E0,1.1540688E1,1.107647E1,1.5983808E1,-1.0055594E0,-1.6647911E0,-1.3351775E1,-5.4763355E0,-1.0153104E1,-4.7397876E0,-1.144217E0,-6.6365123E0,-2.9931042E0,4.3788743E0,7.014715E0,1.060504E1,-7.6696916E0,-3.007259E0,-3.4436865E0,3.4274323E0,-1.4916469E1,-5.3667504E-1,-1.1044961E1,-5.1429276E0,1.785249E-1,-3.670751E-1,-8.755044E0,-2.0631785E0,2.5954673E0,7.137131E0,-4.9463293E-1,-1.01169E0,-3.8021553E0,2.147429E0,6.7687135E0,3.0972793E0,7.8400373E0,1.2123224E1,-3.5094936E0,2.054778E0,-3.990751E-1,3.197955E0,-2.3063286E-1,9.403608E0,2.9282699E0,6.7215858E0,4.6832377E-1,1.2848696E1,1.0607089E0,6.4081234E-1,1.0520866E0,1.4260495E0,-5.3827506E-1,-1.1472017E0,4.124939E-3,-6.597383E-1,-1.1318558E0,-5.9628546E-1,-4.6780872E-1,2.4736708E-1,-3.057354E-1,-1.975074E-2,-7.5452787E-1,-1.6758053E-1,-3.939566E-1,3.3126158E-1,1.11175746E-1,5.1313716E-1,3.7885794E-1,7.855587E-1,5.928848E-1,9.6623975E-1,-1.0071595E0,-5.22587E-1,-3.37307E-1,9.7879045E-2,-6.9892097E-1,-1.0982279E-1,1.4874263E-1,6.2951636E-1,-5.3463286E-1,-1.2430217E0,-1.0145059E0,-4.930543E-1,-5.2019006E-1,9.3472116E-2,-9.2643756E-1,-2.4387512E-1,-3.7230563E-1,1.24990925E-1,6.3196324E-2,3.9601237E-1,7.456826E-1,2.5249633E-3,-4.324901E-1,-3.400975E-2,-9.729114E-2,2.5615296E-1,6.6644806E-1,2.8985792E-1,4.1557327E-2,4.2355716E-1,3.0441946E-1,7.6322645E-1,6.492616E-1,1.0636762E0,-5.5907506E-1,-2.0365906E-3,7.799029E-2,3.5612488E-1,-2.3369903E-2,4.3326154E-1,8.1241935E-1,1.7336708E-1,3.4332487E-1,3.9367065E-2,5.89079E-1,2.7612486E-1,6.1844045E-1,1.1301175E0],"categories":[],"categories_nodes":[],"categories_segments":[],"categories_sizes":[],"default_left":[0,0,0,0,0,0,0,0,0,0,0,0,0,0,0,0,0,0,0,0,0,0,0,0,0,0,0,0,0,0,0,0,0,0,0,0,0,0,0,0,0,0,0,0,0,0,0,0,0,0,0,0,0,0,0,0,0,0,0,0,0,0,0,0,0,0,0,0,0,0,0,0,0,0,0,0,0,0,0,0,0,0,0,0,0,0,0,0,0,0,0,0,0,0,0,0,0,0,0,0,0,0,0,0,0,0,0,0,0,0,0,0,0,0,0,0,0,0,0,0,0,0,0,0,0,0,0,0,0,0,0,0,0,0,0,0,0,0,0,0,0,0,0,0,0,0,0,0,0,0,0,0,0,0,0,0,0,0,0,0,0,0,0,0,0,0,0,0,0,0,0,0,0,0,0],"id":0,"left_children":[1,3,5,7,9,11,13,15,17,19,21,23,25,27,29,31,33,35,37,-1,-1,39,41,43,45,47,49,51,53,55,57,59,61,63,65,67,69,71,73,75,77,79,-1,81,83,85,-1,87,89,-1,91,93,-1,95,97,99,101,103,105,-1,-1,107,109,111,113,115,117,119,121,123,125,127,129,131,133,135,-1,137,139,-1,-1,141,143,145,147,-1,-1,149,151,153,155,157,159,161,163,-1,165,-1,167,169,171,-1,173,-1,-1,-1,-1,-1,-1,-1,-1,-1,-1,-1,-1,-1,-1,-1,-1,-1,-1,-1,-1,-1,-1,-1,-1,-1,-1,-1,-1,-1,-1,-1,-1,-1,-1,-1,-1,-1,-1,-1,-1,-1,-1,-1,-1,-1,-1,-1,-1,-1,-1,-1,-1,-1,-1,-1,-1,-1,-1,-1,-1,-1,-1,-1,-1,-1,-1,-1,-1,-1,-1,-1,-1],"loss_changes":[2.8448795E4,1.631543E4,8.289814E3,1.0879092E4,3.6760684E3,3.3530867E3,4.83449E3,3.838088E3,6.6982495E3,2.5707031E1,1.6755381E3,3.5762449E3,1.9753447E3,9.7223956E2,8.8003906E2,5.783096E2,1.1392778E3,2.3665376E3,2.1019714E3,0E0,0E0,7.931553E2,1.9338368E2,1.4342743E3,4.5801758E1,1.3855654E3,6.8691895E1,2.615587E2,5.4005835E2,4.6475146E2,2.9123242E2,9.423633E1,3.7783203E2,3.8488086E2,3.660846E2,1.4133506E3,2.087417E2,6.3962573E2,1.4736265E3,9.540088E1,7.810586E2,1.14737976E2,0E0,2.5927466E2,2.1904236E2,9.3896484E-1,0E0,8.299139E2,4.6267798E2,0E0,8.02832E1,1.9494034E2,0E0,2.4110205E2,4.6604834E2,4.8467407E1,2.892539E2,9.455176E1,1.25572266E2,0E0,0E0,6.060498E1,1.8419864E2,2.7201685E2,2.5234204E2,1.6243237E2,1.7066211E2,5.026221E2,6.1773755E2,2.091792E2,1.5512842E2,2.4789893E2,3.3253833E2,5.7989636E2,5.0077722E2,5.9858887E1,0E0,3.372378E2,4.0227405E2,0E0,0E0,1.4205713E2,1.4815918E2,1.4488928E2,2.6350946E2,0E0,0E0,1.9811835E2,2.3089081E2,2.9898022E2,4.3903644E2,8.718286E1,4.88501E0,1.210298E2,3.9661102E1,0E0,1.02206604E2,0E0,1.3572974E2,2.445797E1,1.4466187E1,0E0,1.4585059E2,0E0,0E0,0E0,0E0,0E0,0E0,0E0,0E0,0E0,0E0,0E0,0E0,0E0,0E0,0E0,0E0,0E0,0E0,0E0,0E0,0E0,0E0,0E0,0E0,0E0,0E0,0E0,0E0,0E0,0E0,0E0,0E0,0E0,0E0,0E0,0E0,0E0,0E0,0E0,0E0,0E0,0E0,0E0,0E0,0E0,0E0,0E0,0E0,0E0,0E0,0E0,0E0,0E0,0E0,0E0,0E0,0E0,0E0,0E0,0E0,0E0,0E0,0E0,0E0,0E0,0E0,0E0,0E0,0E0,0E0,0E0,0E0],"parents":[2147483647,0,0,1,1,2,2,3,3,4,4,5,5,6,6,7,7,8,8,9,9,10,10,11,11,12,12,13,13,14,14,15,15,16,16,17,17,18,18,21,21,22,22,23,23,24,24,25,25,26,26,27,27,28,28,29,29,30,30,31,31,32,32,33,33,34,34,35,35,36,36,37,37,38,38,39,39,40,40,41,41,43,43,44,44,45,45,47,47,48,48,50,50,51,51,53,53,54,54,55,55,56,56,57,57,58,58,61,61,62,62,63,63,64,64,65,65,66,66,67,67,68,68,69,69,70,70,71,71,72,72,73,73,74,74,75,75,77,77,78,78,81,81,82,82,83,83,84,84,87,87,88,88,89,89,90,90,91,91,92,92,93,93,94,94,96,96,98,98,99,99,100,100,102,102],"right_children":[2,4,6,8,10,12,14,16,18,20,22,24,26,28,30,32,34,36,38,-1,-1,40,42,44,46,48,50,52,54,56,58,60,62,64,66,68,70,72,74,76,78,80,-1,82,84,86,-1,88,90,-1,92,94,-1,96,98,100,102,104,106,-1,-1,108,110,112,114,116,118,120,122,124,126,128,130,132,134,136,-1,138,140,-1,-1,142,144,146,148,-1,-1,150,152,154,156,158,160,162,164,-1,166,-1,168,170,172,-1,174,-1,-1,-1,-1,-1,-1,-1,-1,-1,-1,-1,-1,-1,-1,-1,-1,-1,-1,-1,-1,-1,-1,-1,-1,-1,-1,-1,-1,-1,-1,-1,-1,-1,-1,-1,-1,-1,-1,-1,-1,-1,-1,-1,-1,-1,-1,-1,-1,-1,-1,-1,-1,-1,-1,-1,-1,-1,-1,-1,-1,-1,-1,-1,-1,-1,-1,-1,-1,-1,-1,-1,-1],"split_conditions":[1.9511849E-1,1E0,1E0,1E0,1E0,1E0,1E0,1E0,1E0,-8.561206E-1,1E0,1E0,8.4873486E-1,1E0,1E0,-8.277087E-1,-6.8564934E-1,-4.015307E-1,1E0,-1.7741302E0,-1.3305508E0,-1.1402392E0,-1.4582391E-1,1E0,1.2179457E0,1E0,-1.5118396E0,1E0,1E0,-6.6102177E-1,-7.8683484E-1,1E0,3.4548265E-1,3.4548265E-1,1E0,-4.093957E-1,-2.4297628E-1,-4.5835444E-1,-7.424731E-1,1.2309332E0,1E0,3.327696E-1,4.8596343E-1,1E0,9.3382704E-1,-1.5556768E0,-4.0463287E-1,6.781202E-1,1E0,2.973671E-1,-4.7327462E-1,1E0,-5.887033E-1,-2.8358263E-1,4.224134E-1,5.6447273E-1,1E0,1E0,6.2129647E-1,-1.0055594E0,-1.6647911E0,-1.2900871E0,1E0,-4.6116057E-1,1.5072912E0,-5.4359E-1,8.4873486E-1,7.01247E-1,1E0,-3.217644E-2,1E0,-1.5664172E0,8.624558E-1,-1.5664172E0,1.100361E0,-2.3051257E0,-5.3667504E-1,8.4873486E-1,1.226174E0,1.785249E-1,-3.670751E-1,1.2550108E-1,2.196696E-1,3.4548265E-1,1E0,-4.9463293E-1,-1.01169E0,9.385654E-2,-1.164274E0,1E0,7.9176766E-1,5.6447273E-1,1E0,7.0653206E-1,1.3315932E0,-3.990751E-1,-3.1206578E-1,-2.3063286E-1,1E0,-1.164274E0,5.4574025E-1,4.6832377E-1,4.5082527E-1,1.0607089E0,6.4081234E-1,1.0520866E0,1.4260495E0,-5.3827506E-1,-1.1472017E0,4.124939E-3,-6.597383E-1,-1.1318558E0,-5.9628546E-1,-4.6780872E-1,2.4736708E-1,-3.057354E-1,-1.975074E-2,-7.5452787E-1,-1.6758053E-1,-3.939566E-1,3.3126158E-1,1.11175746E-1,5.1313716E-1,3.7885794E-1,7.855587E-1,5.928848E-1,9.6623975E-1,-1.0071595E0,-5.22587E-1,-3.37307E-1,9.7879045E-2,-6.9892097E-1,-1.0982279E-1,1.4874263E-1,6.2951636E-1,-5.3463286E-1,-1.2430217E0,-1.0145059E0,-4.930543E-1,-5.2019006E-1,9.3472116E-2,-9.2643756E-1,-2.4387512E-1,-3.7230563E-1,1.24990925E-1,6.3196324E-2,3.9601237E-1,7.456826E-1,2.5249633E-3,-4.324901E-1,-3.400975E-2,-9.729114E-2,2.5615296E-1,6.6644806E-1,2.8985792E-1,4.1557327E-2,4.2355716E-1,3.0441946E-1,7.6322645E-1,6.492616E-1,1.0636762E0,-5.5907506E-1,-2.0365906E-3,7.799029E-2,3.5612488E-1,-2.3369903E-2,4.3326154E-1,8.1241935E-1,1.7336708E-1,3.4332487E-1,3.9367065E-2,5.89079E-1,2.7612486E-1,6.1844045E-1,1.1301175E0],"split_indices":[3,11,13,8,21,21,8,21,12,3,10,11,2,7,7,3,3,3,7,0,0,3,3,8,3,7,5,18,9,2,2,12,2,2,18,2,4,3,3,4,7,4,0,7,3,4,0,3,14,0,4,9,0,2,3,3,19,14,3,0,0,2,12,5,4,3,2,4,7,3,7,3,4,3,2,3,0,2,2,0,0,4,2,2,18,0,0,2,2,11,3,3,8,3,3,0,4,0,18,2,5,0,3,0,0,0,0,0,0,0,0,0,0,0,0,0,0,0,0,0,0,0,0,0,0,0,0,0,0,0,0,0,0,0,0,0,0,0,0,0,0,0,0,0,0,0,0,0,0,0,0,0,0,0,0,0,0,0,0,0,0,0,0,0,0,0,0,0,0,0,0,0,0,0,0],"split_type":[0,0,0,0,0,0,0,0,0,0,0,0,0,0,0,0,0,0,0,0,0,0,0,0,0,0,0,0,0,0,0,0,0,0,0,0,0,0,0,0,0,0,0,0,0,0,0,0,0,0,0,0,0,0,0,0,0,0,0,0,0,0,0,0,0,0,0,0,0,0,0,0,0,0,0,0,0,0,0,0,0,0,0,0,0,0,0,0,0,0,0,0,0,0,0,0,0,0,0,0,0,0,0,0,0,0,0,0,0,0,0,0,0,0,0,0,0,0,0,0,0,0,0,0,0,0,0,0,0,0,0,0,0,0,0,0,0,0,0,0,0,0,0,0,0,0,0,0,0,0,0,0,0,0,0,0,0,0,0,0,0,0,0,0,0,0,0,0,0,0,0,0,0,0,0],"sum_hessian":[1.505E3,8.69E2,6.36E2,6.72E2,1.97E2,3.89E2,2.47E2,1.99E2,4.73E2,5.3E1,1.44E2,1.04E2,2.85E2,7.7E1,1.7E2,5.8E1,1.41E2,2.26E2,2.47E2,1.7E1,3.6E1,1.31E2,1.3E1,7.4E1,3E1,2.42E2,4.3E1,3E1,4.7E1,7.3E1,9.7E1,2.4E1,3.4E1,6E1,8.1E1,1.36E2,9E1,1.21E2,1.26E2,3.5E1,9.6E1,8E0,5E0,2.4E1,5E1,2.7E1,3E0,9.9E1,1.43E2,3E0,4E1,2.5E1,5E0,1.6E1,3.1E1,2.5E1,4.8E1,2.9E1,6.8E1,9E0,1.5E1,2.3E1,1.1E1,3.4E1,2.6E1,6.7E1,1.4E1,3.4E1,1.02E2,3.9E1,5.1E1,5.8E1,6.3E1,5.3E1,7.3E1,3.1E1,4E0,5.1E1,4.5E1,4E0,4E0,1E1,1.4E1,3.4E1,1.6E1,3E0,2.4E1,3.6E1,6.3E1,6.6E1,7.7E1,1.7E1,2.3E1,9E0,1.6E1,4E0,1.2E1,3E0,2.8E1,7E0,1.8E1,1E1,3.8E1,1.5E1,1.4E1,3E1,3.8E1,4E0,1.9E1,4E0,7E0,1.2E1,2.2E1,2.3E1,3E0,1.6E1,5.1E1,8E0,6E0,2.7E1,7E0,4.2E1,6E1,2.3E1,1.6E1,1.8E1,3.3E1,9E0,4.9E1,4.9E1,1.4E1,1.4E1,3.9E1,5.5E1,1.8E1,3E0,2.8E1,3.7E1,1.4E1,3.7E1,8E0,6E0,4E0,8E0,6E0,2E1,1.4E1,1.2E1,4E0,2.4E1,1.2E1,1.5E1,4.8E1,4.3E1,2.3E1,3.6E1,4.1E1,6E0,1.1E1,7E0,1.6E1,4E0,5E0,1.2E1,4E0,5E0,7E0,2.5E1,3E0,4E0,3E0,1.4E1,4E0,9E0,2.9E1],"tree_param":{"num_deleted":"0","num_feature":"23","num_nodes":"175","size_leaf_vector":"1"}},{"base_weights":[1.5621255E-2,-4.3603663E0,4.2010846E0,-7.324575E0,3.8927427E-1,1.4582368E0,8.641814E0,-1.1637743E1,-5.0512905E0,-6.331613E0,3.3781228E0,-3.1138566E0,3.876702E0,2.8139596E0,1.0954272E1,-9.926892E0,-1.3893229E0,-8.861328E0,-2.8024595E0,-4.9305787E0,-9.92064E0,-5.1546407E-1,5.0905275E0,-2.4927337E-2,-1.1818455E1,2.0613742E0,6.8001966E0,-8.278299E-1,5.329459E0,9.813964E0,1.59474325E1,-1.2665815E1,-6.983681E0,-6.863246E0,-1.3642059E1,-1.5125397E0,-6.339051E0,-7.5531907E0,-3.352131E0,-1.1417802E1,-1.5582922E-1,-4.554678E0,7.575292E-1,-5.7717983E-2,6.220035E0,-1.477521E0,7.2392273E0,-6.12915E0,-1.3529158E1,-6.732513E-1,4.0171356E0,7.7771276E-1,8.282278E0,-3.4552667E0,8.0747205E-1,3.5796192E-1,7.0208144E0,7.4509845E0,1.1661637E1,1.0200645E1,1.3903337E0,-1.2421566E0,-1.0751863E1,-1.0235795E0,-5.6201167E0,-9.552239E0,-3.7224774E0,-1.8030912E1,-1.0107202E1,-3.9589996E0,6.040692E-1,-1.23628025E1,-3.7256637E0,-2.846548E-1,-8.174283E0,-6.8694854E-1,-2.4373813E0,-9.7649765E-1,-4.1700575E-1,-5.555275E0,-3.3137437E-2,-1.3477012E0,2.7482493E0,-3.1974208E0,2.861843E0,4.3299894E0,8.919886E0,-3.984193E0,5.443625E-1,4.116711E0,8.213786E0,-6.1974025E-1,-2.5763366E-1,-1.1712763E0,-4.8687285E-1,-5.558424E0,7.2093286E-2,5.199042E0,1.5910353E-1,3.2598693E0,-4.904353E0,5.1098304E0,9.560089E0,-7.1384937E-1,-3.7581444E-1,-1.9163797E0,2.3879516E0,2.6108773E0,-3.3755687E-1,4.500485E0,9.571154E0,6.8184886E0,8.373536E-1,6.499193E0,1.2454107E1,2.4361046E-1,1.0265821E0,-5.124594E-1,-9.55776E-1,-5.0541633E-1,3.46429E-1,-8.2172096E-1,-4.097187E-1,-3.7274353E-2,-4.9741778E-1,-1.8310504E0,-9.707307E-1,-1.0809392E0,-5.787699E-1,-1.7366798E-1,-3.9971095E-1,1.1615038E-1,-2.9451603E-1,-1.0989316E0,-4.120459E-1,8.327637E-3,-3.3544248E-1,-9.240023E-1,-5.0232255E-1,-3.0072093E-1,7.7417647E-3,-5.2300334E-1,-1.5650848E-1,-1.8587387E-1,3.2894126E-1,-2.0169097E-1,2.865119E-1,-3.2819754E-1,-1.1662287E-1,3.1129152E-1,-5.4735642E-2,1.3970767E-1,4.8414683E-1,5.1847136E-1,8.4374154E-1,-4.184105E-1,4.5511197E-2,4.1539565E-1,-6.0228776E-2,4.7064957E-1,1.0569E-1,7.1856666E-1,3.0843598E-1,-1.6089691E-1,-7.5302696E-1,-7.1955934E-2,1.4085014E-1,1.9065139E-1,4.881253E-1,9.726324E-2,-5.187973E-1,3.5248965E-1,-1.482833E-1,-6.2398862E-2,-7.06698E-1,5.705094E-1,-3.1957056E-2,5.717335E-1,8.937149E-1,1.7268972E-1,-3.773699E-1,-3.7848663E-1,2.2358855E-2,5.189734E-2,2.3691411E-1,-1.0887212E-1,4.3884373E-1,7.064689E-1,2.0762508E-1,3.6875486E-1,8.527633E-1,1.4558032E-1,5.6784856E-1,5.802721E-1,2.832079E-1,7.232625E-1,1.0557052E0],"categories":[],"categories_nodes":[],"categories_segments":[],"categories_sizes":[],"default_left":[0,0,0,0,0,0,0,0,0,0,0,0,0,0,0,0,0,0,0,0,0,0,0,0,0,0,0,0,0,0,0,0,0,0,0,0,0,0,0,0,0,0,0,0,0,0,0,0,0,0,0,0,0,0,0,0,0,0,0,0,0,0,0,0,0,0,0,0,0,0,0,0,0,0,0,0,0,0,0,0,0,0,0,0,0,0,0,0,0,0,0,0,0,0,0,0,0,0,0,0,0,0,0,0,0,0,0,0,0,0,0,0,0,0,0,0,0,0,0,0,0,0,0,0,0,0,0,0,0,0,0,0,0,0,0,0,0,0,0,0,0,0,0,0,0,0,0,0,0,0,0,0,0,0,0,0,0,0,0,0,0,0,0,0,0,0,0,0,0,0,0,0,0,0,0,0,0,0,0,0,0,0,0,0,0,0,0,0,0,0,0,0,0,0,0,0,0],"id":1,"left_children":[1,3,5,7,9,11,13,15,17,19,21,23,25,27,29,31,-1,33,35,37,39,41,43,45,47,49,51,53,55,57,59,61,63,65,67,69,71,73,75,77,-1,79,81,83,85,87,89,91,93,95,97,99,101,103,105,107,109,111,113,115,-1,-1,117,-1,119,121,123,125,127,129,131,133,135,-1,137,-1,139,-1,-1,141,-1,143,145,147,149,151,153,155,157,159,161,-1,-1,-1,-1,163,165,167,169,171,173,175,177,-1,179,181,183,185,-1,187,189,191,-1,193,195,-1,-1,-1,-1,-1,-1,-1,-1,-1,-1,-1,-1,-1,-1,-1,-1,-1,-1,-1,-1,-1,-1,-1,-1,-1,-1,-1,-1,-1,-1,-1,-1,-1,-1,-1,-1,-1,-1,-1,-1,-1,-1,-1,-1,-1,-1,-1,-1,-1,-1,-1,-1,-1,-1,-1,-1,-1,-1,-1,-1,-1,-1,-1,-1,-1,-1,-1,-1,-1,-1,-1,-1,-1,-1,-1,-1,-1,-1,-1,-1,-1,-1],"loss_changes":[2.7986139E4,1.0519812E4,9.500169E3,4.451539E3,5.806651E3,5.3638765E3,3.9852227E3,1.3761816E3,2.5713105E3,3.986084E2,1.3361035E3,4.51687E3,1.668334E3,7.9225085E2,1.0562617E3,9.111387E2,0E0,9.762285E2,8.663004E2,2.478982E2,2.6423633E2,3.2224762E2,8.086411E2,1.3296792E3,3.4531787E2,1.0563147E3,1.073582E3,1.5746953E2,4.2632385E2,6.8152734E2,1.3538086E2,1.780498E2,4.1936523E2,6.4852783E2,3.1420508E2,7.376958E2,7.5680225E2,3.04646E1,1.8497452E2,3.4220703E1,0E0,5.9842896E1,2.048682E2,2.4748093E2,5.431006E2,5.3432983E2,3.009082E1,3.151419E1,1.8398389E2,3.0261508E2,5.2355347E2,3.6858197E2,3.443672E2,2.3237837E2,1.0359104E2,1.5539214E2,2.0117749E2,8.123682E1,3.1589355E2,1.4923083E2,0E0,0E0,1.3646777E2,0E0,3.8830725E2,8.443213E1,3.140125E2,9.461719E1,9.784375E1,1.1158374E2,2.8510983E2,7.787549E1,6.6663025E1,0E0,5.5434814E1,0E0,1.2763388E2,0E0,0E0,2.9631409E1,0E0,1.3739954E2,1.18783905E2,1.4487381E1,5.3761482E1,2.963872E2,1.14173584E2,2.695998E2,3.596554E2,2.6794693E1,1.5597473E1,0E0,0E0,0E0,0E0,1.3146542E2,1.2133879E2,2.0910376E2,2.0446404E2,1.1366951E2,1.227592E2,3.3696588E2,1.8460352E2,0E0,1.20210205E2,5.6948658E1,1.3039978E1,1.2164082E2,0E0,1.503334E2,4.8070557E1,8.35271E1,0E0,7.798828E0,9.096777E1,0E0,0E0,0E0,0E0,0E0,0E0,0E0,0E0,0E0,0E0,0E0,0E0,0E0,0E0,0E0,0E0,0E0,0E0,0E0,0E0,0E0,0E0,0E0,0E0,0E0,0E0,0E0,0E0,0E0,0E0,0E0,0E0,0E0,0E0,0E0,0E0,0E0,0E0,0E0,0E0,0E0,0E0,0E0,0E0,0E0,0E0,0E0,0E0,0E0,0E0,0E0,0E0,0E0,0E0,0E0,0E0,0E0,0E0,0E0,0E0,0E0,0E0,0E0,0E0,0E0,0E0,0E0,0E0,0E0,0E0,0E0,0E0,0E0,0E0,0E0,0E0,0E0,0E0,0E0,0E0,0E0,0E0],"parents":[2147483647,0,0,1,1,2,2,3,3,4,4,5,5,6,6,7,7,8,8,9,9,10,10,11,11,12,12,13,13,14,14,15,15,17,17,18,18,19,19,20,20,21,21,22,22,23,23,24,24,25,25,26,26,27,27,28,28,29,29,30,30,31,31,32,32,33,33,34,34,35,35,36,36,37,37,38,38,39,39,41,41,42,42,43,43,44,44,45,45,46,46,47,47,48,48,49,49,50,50,51,51,52,52,53,53,54,54,55,55,56,56,57,57,58,58,59,59,62,62,64,64,65,65,66,66,67,67,68,68,69,69,70,70,71,71,72,72,74,74,76,76,79,79,81,81,82,82,83,83,84,84,85,85,86,86,87,87,88,88,89,89,90,90,95,95,96,96,97,97,98,98,99,99,100,100,101,101,102,102,104,104,105,105,106,106,107,107,109,109,110,110,111,111,113,113,114,114],"right_children":[2,4,6,8,10,12,14,16,18,20,22,24,26,28,30,32,-1,34,36,38,40,42,44,46,48,50,52,54,56,58,60,62,64,66,68,70,72,74,76,78,-1,80,82,84,86,88,90,92,94,96,98,100,102,104,106,108,110,112,114,116,-1,-1,118,-1,120,122,124,126,128,130,132,134,136,-1,138,-1,140,-1,-1,142,-1,144,146,148,150,152,154,156,158,160,162,-1,-1,-1,-1,164,166,168,170,172,174,176,178,-1,180,182,184,186,-1,188,190,192,-1,194,196,-1,-1,-1,-1,-1,-1,-1,-1,-1,-1,-1,-1,-1,-1,-1,-1,-1,-1,-1,-1,-1,-1,-1,-1,-1,-1,-1,-1,-1,-1,-1,-1,-1,-1,-1,-1,-1,-1,-1,-1,-1,-1,-1,-1,-1,-1,-1,-1,-1,-1,-1,-1,-1,-1,-1,-1,-1,-1,-1,-1,-1,-1,-1,-1,-1,-1,-1,-1,-1,-1,-1,-1,-1,-1,-1,-1,-1,-1,-1,-1,-1,-1],"split_conditions":[-8.218198E-3,1E0,1E0,1E0,1E0,1E0,1E0,1E0,-9.063819E-1,1E0,-9.9619824E-1,1E0,9.7976184E-1,1E0,1.3390273E0,1E0,-1.3893229E0,1E0,1E0,-9.9619824E-1,5.971088E-1,-1.7147292E0,1E0,1.4288437E0,-3.1956516E-2,1E0,1E0,1E0,1E0,1E0,-1.2332592E0,-9.9619824E-1,1E0,1E0,1E0,1E0,1E0,-8.5516524E-1,1E0,1.0697243E0,-1.5582922E-1,1.2024146E0,1E0,1E0,2.8670993E-1,1E0,1.6084764E0,5.3068E-1,1.249211E0,1.7141454E-1,1E0,1E0,1E0,5.3068E-1,1E0,1E0,9.7976184E-1,1.2461929E0,-1.0302784E0,-3.2982567E-1,1.3903337E0,-1.2421566E0,1E0,-1.0235795E0,1E0,6.3329685E-1,1E0,-1.3554637E0,-8.41752E-1,1E0,1E0,9.545751E-1,-1.2793188E0,-2.846548E-1,1E0,-6.8694854E-1,3.2684875E-1,-9.7649765E-1,-4.1700575E-1,6.0912764E-1,-3.3137437E-2,1E0,-1.164274E0,5.170083E-1,-9.803457E-2,1E0,1E0,1E0,1E0,9.385654E-2,1E0,-6.1974025E-1,-2.5763366E-1,-1.1712763E0,-4.8687285E-1,1E0,7.7033645E-1,-3.7360397E-1,1E0,1.0273014E0,4.712957E-1,1E0,1.3390273E0,-7.1384937E-1,1E0,3.5104728E-1,4.4086364E-1,8.899455E-1,-3.3755687E-1,-6.6102177E-1,1E0,8.159817E-2,8.373536E-1,-1.5556179E0,1E0,2.4361046E-1,1.0265821E0,-5.124594E-1,-9.55776E-1,-5.0541633E-1,3.46429E-1,-8.2172096E-1,-4.097187E-1,-3.7274353E-2,-4.9741778E-1,-1.8310504E0,-9.707307E-1,-1.0809392E0,-5.787699E-1,-1.7366798E-1,-3.9971095E-1,1.1615038E-1,-2.9451603E-1,-1.0989316E0,-4.120459E-1,8.327637E-3,-3.3544248E-1,-9.240023E-1,-5.0232255E-1,-3.0072093E-1,7.7417647E-3,-5.2300334E-1,-1.5650848E-1,-1.8587387E-1,3.2894126E-1,-2.0169097E-1,2.865119E-1,-3.2819754E-1,-1.1662287E-1,3.1129152E-1,-5.4735642E-2,1.3970767E-1,4.8414683E-1,5.1847136E-1,8.4374154E-1,-4.184105E-1,4.5511197E-2,4.1539565E-1,-6.0228776E-2,4.7064957E-1,1.0569E-1,7.1856666E-1,3.0843598E-1,-1.6089691E-1,-7.5302696E-1,-7.1955934E-2,1.4085014E-1,1.9065139E-1,4.881253E-1,9.726324E-2,-5.187973E-1,3.5248965E-1,-1.482833E-1,-6.2398862E-2,-7.06698E-1,5.705094E-1,-3.1957056E-2,5.717335E-1,8.937149E-1,1.7268972E-1,-3.773699E-1,-3.7848663E-1,2.2358855E-2,5.189734E-2,2.3691411E-1,-1.0887212E-1,4.3884373E-1,7.064689E-1,2.0762508E-1,3.6875486E-1,8.527633E-1,1.4558032E-1,5.6784856E-1,5.802721E-1,2.832079E-1,7.232625E-1,1.0557052E0],"split_indices":[1,13,13,12,8,12,8,22,1,22,1,22,1,7,1,7,0,22,22,1,2,1,17,1,2,7,17,9,9,7,4,1,17,7,8,7,8,5,17,4,0,5,7,7,4,7,1,1,1,1,22,22,8,1,19,22,1,5,5,5,0,0,8,0,10,5,14,1,4,14,10,4,4,0,9,0,5,0,0,4,0,16,2,4,1,7,7,10,8,2,16,0,0,0,0,15,4,5,10,5,2,22,1,0,22,1,1,1,0,2,19,1,0,5,17,0,0,0,0,0,0,0,0,0,0,0,0,0,0,0,0,0,0,0,0,0,0,0,0,0,0,0,0,0,0,0,0,0,0,0,0,0,0,0,0,0,0,0,0,0,0,0,0,0,0,0,0,0,0,0,0,0,0,0,0,0,0,0,0,0,0,0,0,0,0,0,0,0,0,0,0,0,0,0,0,0,0],"split_type":[0,0,0,0,0,0,0,0,0,0,0,0,0,0,0,0,0,0,0,0,0,0,0,0,0,0,0,0,0,0,0,0,0,0,0,0,0,0,0,0,0,0,0,0,0,0,0,0,0,0,0,0,0,0,0,0,0,0,0,0,0,0,0,0,0,0,0,0,0,0,0,0,0,0,0,0,0,0,0,0,0,0,0,0,0,0,0,0,0,0,0,0,0,0,0,0,0,0,0,0,0,0,0,0,0,0,0,0,0,0,0,0,0,0,0,0,0,0,0,0,0,0,0,0,0,0,0,0,0,0,0,0,0,0,0,0,0,0,0,0,0,0,0,0,0,0,0,0,0,0,0,0,0,0,0,0,0,0,0,0,0,0,0,0,0,0,0,0,0,0,0,0,0,0,0,0,0,0,0,0,0,0,0,0,0,0,0,0,0,0,0,0,0,0,0,0,0],"sum_hessian":[1.526E3,7.46E2,7.8E2,4.59E2,2.87E2,4.83E2,2.97E2,1.57E2,3.02E2,8.8E1,1.99E2,1.67E2,3.16E2,8.5E1,2.12E2,1.23E2,3.4E1,1.11E2,1.91E2,6.5E1,2.3E1,6.1E1,1.38E2,1.24E2,4.3E1,1.96E2,1.2E2,3.5E1,5E1,1.75E2,3.7E1,6.2E1,6.1E1,8E1,3.1E1,1.41E2,5E1,2.3E1,4.2E1,1.9E1,4E0,1.4E1,4.7E1,2.5E1,1.13E2,1.04E2,2E1,1.1E1,3.2E1,8.2E1,1.14E2,2.4E1,9.6E1,1.3E1,2.2E1,1.3E1,3.7E1,7.9E1,9.6E1,9E0,2.8E1,2.2E1,4E1,1E1,5.1E1,4.2E1,3.8E1,1.2E1,1.9E1,6.5E1,7.6E1,1.4E1,3.6E1,4E0,1.9E1,5E0,3.7E1,1.6E1,3E0,1.1E1,3E0,2.3E1,2.4E1,1.2E1,1.3E1,6.8E1,4.5E1,4.6E1,5.8E1,6E0,1.4E1,6E0,5E0,2.7E1,5E0,1E1,7.2E1,8.7E1,2.7E1,1.7E1,7E0,2.9E1,6.7E1,4E0,9E0,8E0,1.4E1,9E0,4E0,2E1,1.7E1,6.8E1,1.1E1,1.4E1,8.2E1,3E0,6E0,1E1,3E1,4.8E1,3E0,3.5E1,7E0,1.7E1,2.1E1,5E0,7E0,7E0,1.2E1,2.5E1,4E1,6.4E1,1.2E1,1.1E1,3E0,4E0,3.2E1,5E0,1.4E1,2.4E1,1.3E1,8E0,3E0,2E1,3E0,3E0,2.1E1,7E0,5E0,1E1,3E0,2.8E1,4E1,2E1,2.5E1,3.6E1,1E1,1.2E1,4.6E1,3E0,3E0,1.1E1,3E0,6E0,4E0,4.6E1,2.6E1,2.2E1,6.5E1,2.4E1,3E0,1.4E1,3E0,4E0,3E0,2.1E1,8E0,2.9E1,3.8E1,6E0,3E0,3E0,5E0,4E0,1E1,4E0,5E0,5E0,1.5E1,4E0,1.3E1,4E0,6.4E1,1E1,4E0,1.7E1,6.5E1],"tree_param":{"num_deleted":"0","num_feature":"23","num_nodes":"197","size_leaf_vector":"1"}},{"base_weights":[8.5520424E-2,-3.9809463E0,4.36326E0,-2.0383954E0,-1.1079506E1,6.126125E0,-2.3364935E0,-7.103228E0,2.0945536E-1,-9.19878E0,-1.6201593E1,1.3866199E0,7.9957447E0,7.2337604E-1,-9.933065E0,-4.7908835E0,-1.3130202E1,3.6163192E0,-2.9339051E0,-1.1251967E1,-6.8554E0,-1.3472437E0,-7.563711E-1,3.372693E0,-3.6714509E0,1.08720045E1,5.2955236E0,-1.7648717E0,3.6365426E0,-1.15676155E1,-3.2188344E0,-8.505149E0,-3.098357E0,-9.527016E0,-1.5535136E1,-9.069514E-1,5.4444904E0,-6.3804846E0,-9.820353E-1,-1.1786472E1,-3.2965395E-1,-9.781617E0,-3.9892845E0,1.838413E0,7.002439E0,-8.446415E0,-9.3448824E-1,9.722235E0,1.601457E1,3.9738872E0,9.603879E0,-4.721511E0,3.3737427E-1,1.7153627E0,5.9007893E0,-1.1329179E0,-9.1640215E0,-4.0574255E0,-7.572731E-2,-8.951217E-1,-5.801557E0,-4.990134E0,-1.4380387E0,-5.436924E-1,-1.146396E1,-1.3435855E0,-6.3257736E-1,-3.6125093E0,5.731425E-1,3.154232E0,6.997091E0,-7.641861E0,-9.3619776E-1,-3.6246839E0,1.2615258E0,-1.35517E1,-8.843695E0,-1.1795495E1,-5.945665E0,-8.0382675E-1,-2.495189E0,-5.055279E-1,3.4892821E0,1.8141297E-1,7.71598E0,-8.435881E-1,-3.1537932E-1,-5.7058644E-1,2.4787098E-1,7.5080395E0,1.1464614E1,9.250371E0,1.3676065E0,1.0351118E0,6.083982E0,4.416714E0,1.0486751E1,-5.589386E0,-1.0570739E-2,4.2626395E0,-1.3362908E0,2.966156E-1,4.3813205E0,2.6659355E0,7.149417E0,-4.0256098E-1,-7.872206E-1,-1.0831222E-1,-4.5972732E-1,-7.622917E-2,-5.184974E-1,-5.9149534E-1,-3.086197E-1,-2.8724036E-1,2.0809568E-2,-1.0245806E0,-4.4604385E-1,-4.310811E-1,-5.1662393E-2,2.6885727E-1,-7.59922E-2,-7.204907E-2,3.3493647E-1,3.7005484E-1,6.789862E-1,-7.3487216E-1,-2.8011605E-1,-5.925505E-1,1.4703496E-1,-1.4648645E-1,-3.70395E-1,-3.0337198E-2,2.436439E-1,-6.5168023E-1,-1.1511378E0,-9.374096E-1,-5.6600624E-1,-1.0083417E0,-4.650964E-1,-2.1235092E-1,-5.398261E-1,-2.8232622E-1,3.4655523E-1,1.0557035E-1,-2.0984279E-1,1.8173301E-1,7.0270467E-1,5.115804E-1,8.070648E-1,-2.6514813E-1,1.3282931E-1,3.0051616E-1,6.522214E-1,5.048426E-1,9.6755344E-1,3.962779E-1,8.987739E-1,-2.5473785E-2,3.2514203E-1,5.748339E-1,2.8977057E-1,5.84281E-2,5.775787E-1,3.2060894E-1,8.8506407E-1,-2.100473E-1,-5.081178E-1,2.2556031E-2,5.1976323E-1,-2.1150011E-1,8.160172E-2,-1.9975111E-1,1.3377447E-1,4.643005E-1,6.3738175E-2,-6.706627E-2,3.9489275E-1,6.5067565E-1,1.7311744E-1],"categories":[],"categories_nodes":[],"categories_segments":[],"categories_sizes":[],"default_left":[0,0,0,0,0,0,0,0,0,0,0,0,0,0,0,0,0,0,0,0,0,0,0,0,0,0,0,0,0,0,0,0,0,0,0,0,0,0,0,0,0,0,0,0,0,0,0,0,0,0,0,0,0,0,0,0,0,0,0,0,0,0,0,0,0,0,0,0,0,0,0,0,0,0,0,0,0,0,0,0,0,0,0,0,0,0,0,0,0,0,0,0,0,0,0,0,0,0,0,0,0,0,0,0,0,0,0,0,0,0,0,0,0,0,0,0,0,0,0,0,0,0,0,0,0,0,0,0,0,0,0,0,0,0,0,0,0,0,0,0,0,0,0,0,0,0,0,0,0,0,0,0,0,0,0,0,0,0,0,0,0,0,0,0,0,0,0,0,0,0,0,0,0,0,0,0,0,0,0],"id":2,"left_children":[1,3,5,7,9,11,13,15,17,19,21,23,25,27,29,31,33,35,37,39,41,-1,-1,43,45,47,49,51,53,55,57,59,61,63,65,67,69,71,73,75,-1,77,79,81,83,85,87,89,91,93,95,97,99,101,103,-1,105,107,-1,-1,109,111,113,-1,115,-1,-1,117,119,121,123,125,127,129,131,133,135,137,139,-1,141,143,145,-1,147,-1,-1,-1,149,151,153,155,-1,157,159,161,163,165,-1,167,169,171,173,175,177,-1,-1,-1,-1,-1,-1,-1,-1,-1,-1,-1,-1,-1,-1,-1,-1,-1,-1,-1,-1,-1,-1,-1,-1,-1,-1,-1,-1,-1,-1,-1,-1,-1,-1,-1,-1,-1,-1,-1,-1,-1,-1,-1,-1,-1,-1,-1,-1,-1,-1,-1,-1,-1,-1,-1,-1,-1,-1,-1,-1,-1,-1,-1,-1,-1,-1,-1,-1,-1,-1,-1,-1,-1,-1],"loss_changes":[2.60929E4,1.0581397E4,8.64798E3,6.8894053E3,1.4404492E3,5.1194746E3,3.563597E3,2.5292734E3,4.50839E3,5.1466504E2,2.615039E1,1.669923E3,3.165539E3,8.037729E2,4.456548E2,8.286106E2,2.9393262E2,1.6753394E3,1.4670073E3,1.9538086E2,4.6419116E2,0E0,0E0,6.4984326E2,6.0634515E2,1.0268555E3,1.1917563E3,3.7452792E2,2.1172925E2,8.843408E1,1.5214096E1,2.3984253E2,2.9121442E2,4.374829E1,1.4585352E2,2.3833478E2,4.8997266E2,5.3536206E2,8.405537E2,1.8663867E2,0E0,1.5389673E2,2.6459445E2,3.3067484E2,1.0074878E2,1.1910889E2,2.2893823E2,5.543457E2,9.7671875E1,1.0292854E3,1.8266309E2,9.883655E1,2.4220099E2,1.0838771E2,7.384003E1,0E0,9.162231E0,2.4186577E1,0E0,0E0,6.9619995E1,9.1234375E1,1.910058E2,0E0,2.351123E1,0E0,0E0,1.0716763E2,1.6877074E2,2.5496198E2,2.6112646E2,3.7698584E2,3.0082217E2,1.0871893E2,2.2654309E2,4.124414E1,4.4168823E1,1.380542E1,1.3770294E1,0E0,2.0586703E2,1.4259364E2,3.0238214E2,0E0,2.9519165E1,0E0,0E0,0E0,1.4135687E2,1.5319922E2,2.1907129E2,4.0338135E0,0E0,2.9239954E2,2.3699707E2,8.772359E1,1.12555664E2,3.0755676E1,0E0,9.600719E1,8.279711E1,8.102821E1,4.6364532E1,6.778184E1,6.08927E1,0E0,0E0,0E0,0E0,0E0,0E0,0E0,0E0,0E0,0E0,0E0,0E0,0E0,0E0,0E0,0E0,0E0,0E0,0E0,0E0,0E0,0E0,0E0,0E0,0E0,0E0,0E0,0E0,0E0,0E0,0E0,0E0,0E0,0E0,0E0,0E0,0E0,0E0,0E0,0E0,0E0,0E0,0E0,0E0,0E0,0E0,0E0,0E0,0E0,0E0,0E0,0E0,0E0,0E0,0E0,0E0,0E0,0E0,0E0,0E0,0E0,0E0,0E0,0E0,0E0,0E0,0E0,0E0,0E0,0E0,0E0,0E0,0E0,0E0],"parents":[2147483647,0,0,1,1,2,2,3,3,4,4,5,5,6,6,7,7,8,8,9,9,10,10,11,11,12,12,13,13,14,14,15,15,16,16,17,17,18,18,19,19,20,20,23,23,24,24,25,25,26,26,27,27,28,28,29,29,30,30,31,31,32,32,33,33,34,34,35,35,36,36,37,37,38,38,39,39,41,41,42,42,43,43,44,44,45,45,46,46,47,47,48,48,49,49,50,50,51,51,52,52,53,53,54,54,56,56,57,57,60,60,61,61,62,62,64,64,67,67,68,68,69,69,70,70,71,71,72,72,73,73,74,74,75,75,76,76,77,77,78,78,80,80,81,81,82,82,84,84,88,88,89,89,90,90,91,91,93,93,94,94,95,95,96,96,97,97,99,99,100,100,101,101,102,102,103,103,104,104],"right_children":[2,4,6,8,10,12,14,16,18,20,22,24,26,28,30,32,34,36,38,40,42,-1,-1,44,46,48,50,52,54,56,58,60,62,64,66,68,70,72,74,76,-1,78,80,82,84,86,88,90,92,94,96,98,100,102,104,-1,106,108,-1,-1,110,112,114,-1,116,-1,-1,118,120,122,124,126,128,130,132,134,136,138,140,-1,142,144,146,-1,148,-1,-1,-1,150,152,154,156,-1,158,160,162,164,166,-1,168,170,172,174,176,178,-1,-1,-1,-1,-1,-1,-1,-1,-1,-1,-1,-1,-1,-1,-1,-1,-1,-1,-1,-1,-1,-1,-1,-1,-1,-1,-1,-1,-1,-1,-1,-1,-1,-1,-1,-1,-1,-1,-1,-1,-1,-1,-1,-1,-1,-1,-1,-1,-1,-1,-1,-1,-1,-1,-1,-1,-1,-1,-1,-1,-1,-1,-1,-1,-1,-1,-1,-1,-1,-1,-1,-1,-1,-1],"split_conditions":[8.159817E-2,1E0,1E0,1E0,1E0,1E0,1E0,1E0,1E0,1E0,1.1388139E0,1E0,1E0,8.001291E-1,1.2179457E0,-9.9619824E-1,1E0,-9.9619824E-1,-9.063819E-1,2.2353035E-1,-7.267491E-1,-1.3472437E0,-7.563711E-1,1.0695782E0,1E0,1.3390273E0,1.3390273E0,1E0,1.0351911E-2,1.3829476E-1,1.114858E0,1E0,1E0,-3.7360397E-1,1.4213061E0,-1.5350964E0,1E0,1.0273014E0,1E0,8.163961E-1,-3.2965395E-1,3.7882927E-1,1E0,1E0,1E0,9.3382704E-1,2.6123092E-1,1E0,1E0,1E0,1E0,8.201795E-1,1E0,1.6084764E0,1E0,-1.1329179E0,3.6558968E-1,1E0,-7.572731E-2,-8.951217E-1,-1.2793188E0,-6.288256E-1,1E0,-5.436924E-1,-5.471164E-1,-1.3435855E0,-6.3257736E-1,-8.176743E-2,-1.3107104E0,-9.79931E-1,-2.4297628E-1,-7.424731E-1,-1.822124E0,1E0,6.782171E-1,1E0,-1.0860146E0,-7.424731E-1,5.860978E-1,-8.0382675E-1,1E0,1E0,9.0851545E-1,1.8141297E-1,1.4736525E0,-8.435881E-1,-3.1537932E-1,-5.7058644E-1,1E0,1E0,-9.865001E-1,-6.7155905E-2,1.3676065E0,9.315453E-1,1E0,1.6982929E0,-1.3805047E0,1E0,-1.0570739E-2,-1.109342E-1,7.0653206E-1,-3.2982567E-1,1.4452406E0,1.0190626E0,1.4842614E0,-4.0256098E-1,-7.872206E-1,-1.0831222E-1,-4.5972732E-1,-7.622917E-2,-5.184974E-1,-5.9149534E-1,-3.086197E-1,-2.8724036E-1,2.0809568E-2,-1.0245806E0,-4.4604385E-1,-4.310811E-1,-5.1662393E-2,2.6885727E-1,-7.59922E-2,-7.204907E-2,3.3493647E-1,3.7005484E-1,6.789862E-1,-7.3487216E-1,-2.8011605E-1,-5.925505E-1,1.4703496E-1,-1.4648645E-1,-3.70395E-1,-3.0337198E-2,2.436439E-1,-6.5168023E-1,-1.1511378E0,-9.374096E-1,-5.6600624E-1,-1.0083417E0,-4.650964E-1,-2.1235092E-1,-5.398261E-1,-2.8232622E-1,3.4655523E-1,1.0557035E-1,-2.0984279E-1,1.8173301E-1,7.0270467E-1,5.115804E-1,8.070648E-1,-2.6514813E-1,1.3282931E-1,3.0051616E-1,6.522214E-1,5.048426E-1,9.6755344E-1,3.962779E-1,8.987739E-1,-2.5473785E-2,3.2514203E-1,5.748339E-1,2.8977057E-1,5.84281E-2,5.775787E-1,3.2060894E-1,8.8506407E-1,-2.100473E-1,-5.081178E-1,2.2556031E-2,5.1976323E-1,-2.1150011E-1,8.160172E-2,-1.9975111E-1,1.3377447E-1,4.643005E-1,6.3738175E-2,-6.706627E-2,3.9489275E-1,6.5067565E-1,1.7311744E-1],"split_indices":[1,11,11,8,22,8,22,22,12,7,4,22,12,1,3,1,12,1,1,3,1,0,0,1,9,1,1,7,4,3,5,7,7,5,5,1,7,5,7,4,0,4,17,7,17,3,1,7,17,7,17,3,8,1,7,0,3,14,0,0,4,3,9,0,1,0,0,4,3,4,4,3,3,14,4,8,1,3,4,0,10,14,4,0,3,0,0,0,7,17,5,5,0,4,22,1,5,8,0,5,3,5,3,3,4,0,0,0,0,0,0,0,0,0,0,0,0,0,0,0,0,0,0,0,0,0,0,0,0,0,0,0,0,0,0,0,0,0,0,0,0,0,0,0,0,0,0,0,0,0,0,0,0,0,0,0,0,0,0,0,0,0,0,0,0,0,0,0,0,0,0,0,0,0,0,0,0,0,0],"split_type":[0,0,0,0,0,0,0,0,0,0,0,0,0,0,0,0,0,0,0,0,0,0,0,0,0,0,0,0,0,0,0,0,0,0,0,0,0,0,0,0,0,0,0,0,0,0,0,0,0,0,0,0,0,0,0,0,0,0,0,0,0,0,0,0,0,0,0,0,0,0,0,0,0,0,0,0,0,0,0,0,0,0,0,0,0,0,0,0,0,0,0,0,0,0,0,0,0,0,0,0,0,0,0,0,0,0,0,0,0,0,0,0,0,0,0,0,0,0,0,0,0,0,0,0,0,0,0,0,0,0,0,0,0,0,0,0,0,0,0,0,0,0,0,0,0,0,0,0,0,0,0,0,0,0,0,0,0,0,0,0,0,0,0,0,0,0,0,0,0,0,0,0,0,0,0,0,0,0,0],"sum_hessian":[1.498E3,7.68E2,7.3E2,6.04E2,1.64E2,5.78E2,1.52E2,1.85E2,4.19E2,1.22E2,4.2E1,1.64E2,4.14E2,1.09E2,4.3E1,1.35E2,5E1,2.01E2,2.18E2,6.3E1,5.9E1,3.7E1,5E0,1.18E2,4.6E1,1.99E2,2.15E2,5.9E1,5E1,3.4E1,9E0,4.1E1,9.4E1,2.2E1,2.8E1,5.8E1,1.43E2,7.8E1,1.4E2,5.8E1,5E0,2.8E1,3.1E1,8.4E1,3.4E1,1.6E1,3E1,1.65E2,3.4E1,1.66E2,4.9E1,2.4E1,3.5E1,2.8E1,2.2E1,1.4E1,2E1,6E0,3E0,1.9E1,2.2E1,4.3E1,5.1E1,1.1E1,1.1E1,2.3E1,5E0,2E1,3.8E1,5.9E1,8.4E1,6.3E1,1.5E1,6.4E1,7.6E1,3.4E1,2.4E1,1.7E1,1.1E1,5E0,2.6E1,3.5E1,4.9E1,5E0,2.9E1,1E1,6E0,4E0,2.6E1,7.5E1,9E1,6E0,2.8E1,7E1,9.6E1,8E0,4.1E1,2E1,4E0,1E1,2.5E1,1.9E1,9E0,7E0,1.5E1,4E0,1.6E1,3E0,3E0,3E0,1.9E1,1.2E1,3.1E1,2.2E1,2.9E1,8E0,3E0,1.2E1,8E0,1.3E1,2.5E1,1.2E1,4.7E1,3.4E1,5E1,4.5E1,1.8E1,4E0,1.1E1,2.4E1,4E1,4E1,3.6E1,6E0,2.8E1,7E0,1.7E1,1.4E1,3E0,3E0,8E0,2.3E1,3E0,1.9E1,1.6E1,4.1E1,8E0,2.1E1,8E0,7E0,1.9E1,1.2E1,6.3E1,1.1E1,7.9E1,3E0,3E0,4.9E1,2.1E1,6.5E1,3.1E1,4E0,4E0,4E0,3.7E1,5E0,1.5E1,4E0,6E0,1.6E1,9E0,6E0,1.3E1,6E0,3E0,3E0,4E0,1.2E1,3E0],"tree_param":{"num_deleted":"0","num_feature":"23","num_nodes":"179","size_leaf_vector":"1"}},{"base_weights":[-1.6908762E-1,-3.9839025E0,3.897832E0,-6.601913E0,5.9087896E-1,5.493064E0,-2.1729012E0,-1.0944545E1,-4.933757E0,-5.136954E0,3.332388E0,1.6490204E0,7.166527E0,-9.702025E0,4.2191228E-1,-1.4139275E1,-7.5418854E0,-2.2139363E0,-7.5517488E0,-3.9319825E0,-1.15695095E1,-7.0016307E-1,4.9979987E0,-2.88697E0,3.421859E0,9.419299E0,4.966709E0,-1.1981515E1,-5.256074E0,-1.2299633E0,3.8928416E0,-1.73725E1,-1.1507498E1,-5.469028E0,-1.039679E0,-4.03458E-1,-5.921582E0,-1.1216868E1,-5.9178944E0,-4.703495E0,1.2649571E0,-1.1852428E0,-2.210846E-1,2.4101894E0,-3.3865938E0,7.329671E0,3.1702206E0,-7.37949E0,-7.507619E-1,-1.8720646E-1,4.907666E0,4.8718534E0,1.0337957E1,3.6570203E0,8.849749E0,-3.861956E-1,-1.0190113E0,-5.2306104E-1,-1.7944635E-1,1.8276854E0,-2.6227643E0,6.64777E0,2.1235983E0,-8.0671734E-1,-1.5735116E0,-8.144472E0,-1.3435022E0,-1.092196E1,-2.893585E0,4.02677E0,-1.3838779E0,-7.9722133E0,-3.091106E0,-1.3390522E0,-9.617957E0,-3.8903193E0,-9.107449E0,-6.337173E0,-3.2039897E0,-1.866362E-1,2.9057922E0,5.759048E0,6.9703573E-1,-5.911017E0,-1.9030104E0,1.5571213E0,8.204638E0,4.551204E-1,4.2973514E0,-7.4599594E-1,-9.875915E-2,-4.9932184E0,6.911962E-1,2.6509962E0,-2.8741386E0,2.931993E0,7.3039575E0,1.7943362E0,7.369008E0,1.0793999E1,3.6999424E0,2.5900133E0,4.882916E0,4.1202874E0,9.765102E0,-2.7194214E-1,3.3043897E0,-3.4768045E0,-7.215282E-1,1.7445107E-1,7.6678386E0,-2.1352538E-1,2.9353633E0,-8.0501056E-1,-4.9574575E-1,-9.74307E-1,-3.285295E-1,-5.3190164E-2,-4.068284E-1,1.5847988E-1,4.713961E-1,-2.66615E-1,8.844435E-3,-3.2328513E-1,-7.803282E-1,3.7227385E-2,-4.0010437E-1,-6.30676E-1,-9.815228E-1,-4.370026E-1,-2.1826996E-1,-7.9382825E-1,-3.504707E-1,-6.505144E-1,-3.009268E-1,-4.065926E-2,-3.8042662E-1,3.3063096E-1,1.0743664E-1,6.4702964E-1,2.5973266E-1,-1.702528E-1,1.2738389E-1,-2.1255875E-1,-5.439325E-1,-6.407669E-2,-5.109193E-1,3.5644022E-1,-2.543785E-1,5.262052E-1,8.040347E-1,1.497679E-1,-8.942929E-2,4.0526462E-1,6.1039705E-2,-6.29452E-1,-8.9571476E-2,-3.027469E-1,1.5043023E-1,-2.0636978E-2,3.495508E-1,-3.2369137E-1,4.2791493E-2,1.494087E-1,4.2896065E-1,3.2118845E-1,7.1364754E-1,-2.7237974E-2,3.3908463E-1,6.789875E-1,8.427307E-2,7.559017E-1,1.0203434E0,1.6005985E-1,5.2785146E-1,3.979462E-1,1.01316124E-1,1.1568827E-1,4.7504768E-1,1.1791713E-1,6.177025E-1,4.3223858E-1,8.065671E-1,5.9564423E-2,4.2648903E-1,-5.0444144E-1,-1.8739025E-1,-1.2228812E-1,1.9883034E-1,7.2116685E-1,3.3990607E-1,3.986882E-1,1.24421775E-1],"categories":[],"categories_nodes":[],"categories_segments":[],"categories_sizes":[],"default_left":[0,0,0,0,0,0,0,0,0,0,0,0,0,0,0,0,0,0,0,0,0,0,0,0,0,0,0,0,0,0,0,0,0,0,0,0,0,0,0,0,0,0,0,0,0,0,0,0,0,0,0,0,0,0,0,0,0,0,0,0,0,0,0,0,0,0,0,0,0,0,0,0,0,0,0,0,0,0,0,0,0,0,0,0,0,0,0,0,0,0,0,0,0,0,0,0,0,0,0,0,0,0,0,0,0,0,0,0,0,0,0,0,0,0,0,0,0,0,0,0,0,0,0,0,0,0,0,0,0,0,0,0,0,0,0,0,0,0,0,0,0,0,0,0,0,0,0,0,0,0,0,0,0,0,0,0,0,0,0,0,0,0,0,0,0,0,0,0,0,0,0,0,0,0,0,0,0,0,0,0,0,0,0,0,0,0,0,0,0,0,0,0,0],"id":3,"left_children":[1,3,5,7,9,11,13,15,17,19,21,23,25,27,29,31,33,35,37,39,41,43,45,47,49,51,53,55,57,59,61,63,65,67,-1,69,71,73,75,77,79,-1,-1,81,83,85,87,89,91,93,95,97,99,101,103,-1,-1,-1,-1,105,107,109,111,-1,-1,113,-1,115,117,119,121,123,125,-1,127,129,131,133,135,-1,137,139,141,143,145,147,149,151,153,-1,-1,155,157,159,161,163,165,167,169,171,173,175,177,179,181,-1,183,185,187,-1,189,-1,191,-1,-1,-1,-1,-1,-1,-1,-1,-1,-1,-1,-1,-1,-1,-1,-1,-1,-1,-1,-1,-1,-1,-1,-1,-1,-1,-1,-1,-1,-1,-1,-1,-1,-1,-1,-1,-1,-1,-1,-1,-1,-1,-1,-1,-1,-1,-1,-1,-1,-1,-1,-1,-1,-1,-1,-1,-1,-1,-1,-1,-1,-1,-1,-1,-1,-1,-1,-1,-1,-1,-1,-1,-1,-1,-1,-1,-1,-1,-1,-1],"loss_changes":[2.3302863E4,9.285941E3,7.05237E3,3.5173867E3,4.4610405E3,3.6935117E3,2.9736677E3,1.3717617E3,2.5324082E3,6.67605E2,1.2930981E3,1.4251967E3,1.9404473E3,3.3227002E2,6.5841205E2,3.8721582E2,6.977036E2,1.1857434E3,1.02348535E3,3.2270044E2,3.5923718E2,4.8443985E2,5.563655E2,4.7430762E2,6.819404E2,7.726133E2,1.0101787E3,7.374414E1,4.3282593E1,3.369719E2,1.6622589E2,2.87042E2,5.921172E2,6.84626E2,0E0,5.267906E2,3.1200415E2,3.2455566E2,7.9235254E2,1.4872583E2,7.1718414E1,0E0,0E0,1.5088768E2,1.04852234E2,2.852207E2,2.3674548E2,1.7976605E2,2.1756186E2,2.9740955E2,4.0467065E2,2.5575372E2,4.534961E2,1.9009937E2,1.805503E2,0E0,0E0,0E0,0E0,2.0419948E2,8.517294E1,4.7074158E1,1.0120712E2,0E0,0E0,3.8513184E1,0E0,8.704285E1,1.7247226E2,7.2295746E1,2.8869275E2,1.917439E2,1.789589E2,0E0,1.1020166E2,1.3124207E2,1.4537866E2,1.1729358E2,1.5650037E2,0E0,9.791672E0,2.6399658E1,5.1445236E1,1.3725098E1,9.864626E1,1.3773016E2,8.705786E1,5.558607E1,1.4551477E2,0E0,0E0,9.141681E1,1.50816E2,9.610286E1,8.207222E1,1.2189578E2,1.7687646E2,9.0148285E1,1.2525549E2,2.8031836E2,4.589406E1,2.6194214E2,2.4889111E2,8.391304E1,3.6018066E0,0E0,9.979222E1,1.0396182E2,5.0386925E1,0E0,1.2348572E1,0E0,5.161104E1,0E0,0E0,0E0,0E0,0E0,0E0,0E0,0E0,0E0,0E0,0E0,0E0,0E0,0E0,0E0,0E0,0E0,0E0,0E0,0E0,0E0,0E0,0E0,0E0,0E0,0E0,0E0,0E0,0E0,0E0,0E0,0E0,0E0,0E0,0E0,0E0,0E0,0E0,0E0,0E0,0E0,0E0,0E0,0E0,0E0,0E0,0E0,0E0,0E0,0E0,0E0,0E0,0E0,0E0,0E0,0E0,0E0,0E0,0E0,0E0,0E0,0E0,0E0,0E0,0E0,0E0,0E0,0E0,0E0,0E0,0E0,0E0,0E0,0E0,0E0,0E0,0E0,0E0,0E0,0E0],"parents":[2147483647,0,0,1,1,2,2,3,3,4,4,5,5,6,6,7,7,8,8,9,9,10,10,11,11,12,12,13,13,14,14,15,15,16,16,17,17,18,18,19,19,20,20,21,21,22,22,23,23,24,24,25,25,26,26,27,27,28,28,29,29,30,30,31,31,32,32,33,33,35,35,36,36,37,37,38,38,39,39,40,40,43,43,44,44,45,45,46,46,47,47,48,48,49,49,50,50,51,51,52,52,53,53,54,54,59,59,60,60,61,61,62,62,65,65,67,67,68,68,69,69,70,70,71,71,72,72,74,74,75,75,76,76,77,77,78,78,80,80,81,81,82,82,83,83,84,84,85,85,86,86,87,87,88,88,91,91,92,92,93,93,94,94,95,95,96,96,97,97,98,98,99,99,100,100,101,101,102,102,103,103,104,104,106,106,107,107,108,108,110,110,112,112],"right_children":[2,4,6,8,10,12,14,16,18,20,22,24,26,28,30,32,34,36,38,40,42,44,46,48,50,52,54,56,58,60,62,64,66,68,-1,70,72,74,76,78,80,-1,-1,82,84,86,88,90,92,94,96,98,100,102,104,-1,-1,-1,-1,106,108,110,112,-1,-1,114,-1,116,118,120,122,124,126,-1,128,130,132,134,136,-1,138,140,142,144,146,148,150,152,154,-1,-1,156,158,160,162,164,166,168,170,172,174,176,178,180,182,-1,184,186,188,-1,190,-1,192,-1,-1,-1,-1,-1,-1,-1,-1,-1,-1,-1,-1,-1,-1,-1,-1,-1,-1,-1,-1,-1,-1,-1,-1,-1,-1,-1,-1,-1,-1,-1,-1,-1,-1,-1,-1,-1,-1,-1,-1,-1,-1,-1,-1,-1,-1,-1,-1,-1,-1,-1,-1,-1,-1,-1,-1,-1,-1,-1,-1,-1,-1,-1,-1,-1,-1,-1,-1,-1,-1,-1,-1,-1,-1,-1,-1,-1,-1,-1,-1],"split_conditions":[8.159817E-2,1E0,1E0,1E0,1E0,1E0,1E0,-6.369328E-1,-8.145911E-3,1.1660393E0,-9.9619824E-1,1E0,1E0,7.349439E-1,1.0695782E0,1E0,1E0,1E0,-9.9619824E-1,-9.803457E-2,1.0351911E-2,1.3862725E-1,-2.2830565E-1,1E0,3.0876595E-1,-8.900017E-2,1.3390273E0,-1.5492641E0,1.3315932E0,1E0,1E0,-3.750788E-1,1E0,1E0,-1.039679E0,-1.4758775E0,-5.471164E-1,1E0,1E0,-6.7155905E-2,1E0,-1.1852428E0,-2.210846E-1,-1.1089445E0,-1.7147292E0,1E0,-5.471164E-1,1.5186601E0,5.3068E-1,2.1201383E-1,2.4065027E-1,1.9459058E-1,1.4595857E0,5.07649E-1,1E0,-3.861956E-1,-1.0190113E0,-5.2306104E-1,-1.7944635E-1,-6.0588304E-2,9.054152E-1,1E0,1E0,-8.0671734E-1,-1.5735116E0,-2.660061E-1,-1.3435022E0,4.4791877E-1,-1.5776958E-1,-6.369328E-1,3.3381745E-2,-9.6217144E-1,-7.420117E-1,-1.3390522E0,1E0,1E0,1.0988289E-1,-8.8453245E-1,-8.887849E-1,-1.866362E-1,-4.4846538E-1,1E0,1E0,-1.5417132E0,1.3861991E0,-1.035558E0,4.4791877E-1,-3.1956516E-2,1.0926528E0,-7.4599594E-1,-9.875915E-2,-2.8358263E-1,1E0,-3.350956E-1,5.8951855E-1,5.4574025E-1,7.9176766E-1,4.4086364E-1,8.72493E-1,9.7976184E-1,1.0236646E0,-4.4846538E-1,1E0,1.8779255E0,4.7923717E-1,-2.7194214E-1,-1.109342E-1,9.385654E-2,9.7976184E-1,1.7445107E-1,1.100361E0,-2.1352538E-1,-1.5491907E-1,-8.0501056E-1,-4.9574575E-1,-9.74307E-1,-3.285295E-1,-5.3190164E-2,-4.068284E-1,1.5847988E-1,4.713961E-1,-2.66615E-1,8.844435E-3,-3.2328513E-1,-7.803282E-1,3.7227385E-2,-4.0010437E-1,-6.30676E-1,-9.815228E-1,-4.370026E-1,-2.1826996E-1,-7.9382825E-1,-3.504707E-1,-6.505144E-1,-3.009268E-1,-4.065926E-2,-3.8042662E-1,3.3063096E-1,1.0743664E-1,6.4702964E-1,2.5973266E-1,-1.702528E-1,1.2738389E-1,-2.1255875E-1,-5.439325E-1,-6.407669E-2,-5.109193E-1,3.5644022E-1,-2.543785E-1,5.262052E-1,8.040347E-1,1.497679E-1,-8.942929E-2,4.0526462E-1,6.1039705E-2,-6.29452E-1,-8.9571476E-2,-3.027469E-1,1.5043023E-1,-2.0636978E-2,3.495508E-1,-3.2369137E-1,4.2791493E-2,1.494087E-1,4.2896065E-1,3.2118845E-1,7.1364754E-1,-2.7237974E-2,3.3908463E-1,6.789875E-1,8.427307E-2,7.559017E-1,1.0203434E0,1.6005985E-1,5.2785146E-1,3.979462E-1,1.01316124E-1,1.1568827E-1,4.7504768E-1,1.1791713E-1,6.177025E-1,4.3223858E-1,8.065671E-1,5.9564423E-2,4.2648903E-1,-5.0444144E-1,-1.8739025E-1,-1.2228812E-1,1.9883034E-1,7.2116685E-1,3.3990607E-1,3.986882E-1,1.24421775E-1],"split_indices":[1,13,11,21,8,8,21,1,0,0,1,21,12,3,1,8,11,11,1,1,4,0,0,9,3,3,1,0,3,8,8,0,11,8,0,0,1,17,11,5,9,0,0,0,1,17,1,1,1,0,4,4,0,3,17,0,0,0,0,3,3,19,17,0,0,4,0,4,2,1,4,0,0,0,11,8,3,3,0,0,0,21,19,2,0,0,4,2,0,0,0,2,17,4,5,5,3,1,0,1,4,0,17,1,3,0,5,2,1,0,2,0,0,0,0,0,0,0,0,0,0,0,0,0,0,0,0,0,0,0,0,0,0,0,0,0,0,0,0,0,0,0,0,0,0,0,0,0,0,0,0,0,0,0,0,0,0,0,0,0,0,0,0,0,0,0,0,0,0,0,0,0,0,0,0,0,0,0,0,0,0,0,0,0,0,0,0,0,0,0,0,0,0],"split_type":[0,0,0,0,0,0,0,0,0,0,0,0,0,0,0,0,0,0,0,0,0,0,0,0,0,0,0,0,0,0,0,0,0,0,0,0,0,0,0,0,0,0,0,0,0,0,0,0,0,0,0,0,0,0,0,0,0,0,0,0,0,0,0,0,0,0,0,0,0,0,0,0,0,0,0,0,0,0,0,0,0,0,0,0,0,0,0,0,0,0,0,0,0,0,0,0,0,0,0,0,0,0,0,0,0,0,0,0,0,0,0,0,0,0,0,0,0,0,0,0,0,0,0,0,0,0,0,0,0,0,0,0,0,0,0,0,0,0,0,0,0,0,0,0,0,0,0,0,0,0,0,0,0,0,0,0,0,0,0,0,0,0,0,0,0,0,0,0,0,0,0,0,0,0,0,0,0,0,0,0,0,0,0,0,0,0,0,0,0,0,0,0,0],"sum_hessian":[1.5E3,7.74E2,7.26E2,4.92E2,2.82E2,5.75E2,1.51E2,1.35E2,3.57E2,9.1E1,1.91E2,1.75E2,4E2,3.8E1,1.13E2,6.8E1,6.7E1,1.76E2,1.81E2,7.8E1,1.3E1,5.6E1,1.35E2,4.9E1,1.26E2,1.96E2,2.04E2,2.4E1,1.4E1,7.7E1,3.6E1,2.8E1,4E1,5E1,1.7E1,1.19E2,5.7E1,5.4E1,1.27E2,6.8E1,1E1,9E0,4E0,2.6E1,3E1,5.8E1,7.7E1,1.5E1,3.4E1,3.7E1,8.9E1,3.4E1,1.62E2,1.54E2,5E1,3E0,2.1E1,9E0,5E0,2.4E1,5.3E1,1.3E1,2.3E1,8E0,2E1,2.6E1,1.4E1,1.5E1,3.5E1,2.1E1,9.8E1,3.2E1,2.5E1,1E1,4.4E1,7.9E1,4.8E1,3.1E1,3.7E1,3E0,7E0,8E0,1.8E1,1E1,2E1,8E0,5E1,2.3E1,5.4E1,1.1E1,4E0,8E0,2.6E1,1.8E1,1.9E1,5E1,3.9E1,1.6E1,1.8E1,1.51E2,1.1E1,8.4E1,7E1,9E0,4.1E1,5E0,1.9E1,3.6E1,1.7E1,3E0,1E1,3E0,2E1,1.1E1,1.5E1,1.2E1,3E0,1.8E1,1.7E1,1.1E1,1E1,4.2E1,5.6E1,1.1E1,2.1E1,9E0,1.6E1,2.9E1,1.5E1,3.2E1,4.7E1,4E1,8E0,1.7E1,1.4E1,1.4E1,2.3E1,3E0,4E0,3E0,5E0,4E0,1.4E1,3E0,7E0,1.7E1,3E0,5E0,3E0,2.9E1,2.1E1,1.2E1,1.1E1,4.4E1,1E1,4E0,4E0,5E0,2.1E1,7E0,1.1E1,1.4E1,5E0,3.6E1,1.4E1,1.4E1,2.5E1,9E0,7E0,1.5E1,3E0,9.3E1,5.8E1,8E0,3E0,2.9E1,5.5E1,1.7E1,5.3E1,6E0,3E0,4E0,3.7E1,9E0,1E1,9E0,2.7E1,1.4E1,3E0,6E0,4E0,7E0,1.3E1],"tree_param":{"num_deleted":"0","num_feature":"23","num_nodes":"193","size_leaf_vector":"1"}},{"base_weights":[-2.1338055E-2,-3.3038833E0,3.3048284E0,-5.8103523E0,8.271775E-1,1.1676747E0,6.6561017E0,-1.0359085E1,-4.2262964E0,-4.2397027E0,3.1400366E0,2.7804413E0,-9.696383E-1,1.8996791E0,8.688617E0,-1.4851034E1,-8.732894E0,-1.8331128E0,-6.63626E0,-5.5088453E0,-6.6881317E-1,5.506648E0,8.3544874E-1,-2.8316745E-1,3.82914E0,-2.327287E0,3.0158377E0,3.1070583E0,-4.790356E0,7.8403497E0,1.1530446E1,-1.6018663E1,-2.3718978E-1,-1.0423864E0,-7.111744E0,7.542952E-1,-4.4580684E0,-4.411227E0,-8.6198635E0,-8.296887E0,-3.2944334E0,1.922451E0,-3.6362202E0,7.420924E0,3.0871465E0,-2.7963326E0,2.316517E0,-3.680648E0,6.65821E-1,2.2702665E0,5.602892E0,-5.5136955E-1,-4.32366E0,1.2157637E0,5.9835534E0,1.2892013E0,5.8514657E0,-1.7760811E0,-7.888668E-1,1.7477919E0,8.319295E0,1.2581003E1,7.1395407E0,-1.1668968E1,-1.451741E0,-8.594534E0,-3.973407E0,1.6519492E0,-5.9242744E0,-8.693288E-1,-2.5633693E0,-5.2733564E0,-6.5251315E-1,-9.923427E0,-5.285882E0,-7.27144E-1,-5.526047E0,-6.7695947E0,-2.322692E0,-2.4096039E-1,4.197434E0,-1.5077765E0,-4.4106945E-1,6.299029E-2,7.93586E0,7.1320194E-1,6.018917E0,-3.9514234E0,1.9860815E-1,-1.572118E0,3.349304E0,-7.5846946E-1,-6.911928E0,-1.9973656E0,1.7413381E0,8.1054956E-1,4.4752984E0,2.911515E0,6.272679E0,2.729644E-1,-5.747007E0,-8.448812E0,-2.8410861E0,2.5635493E0,-1.7128577E0,7.100666E0,3.054123E0,-2.1216834E0,2.9543562E0,7.350798E0,8.094516E-1,-2.5513625E-1,2.199054E-2,-1.6703251E-1,3.4129317E0,7.596801E0,1.1598995E1,4.797621E-1,1.3010844E1,2.8280273E-1,6.43948E-1,-1.1046295E0,-4.7303447E-1,-7.392118E-1,-1.1619769E-1,-1.346314E-1,-5.2219105E-1,-2.0049703E-1,1.9291437E-1,-6.2150574E-1,-6.0328826E-2,-3.2716742E-1,2.7793322E-2,-6.854742E-1,-3.6557135E-1,-1.5327685E-1,3.1461447E-1,-1.1221558E0,-7.062213E-1,-5.291602E-1,-2.1049935E-1,-1.1085342E-1,-5.892234E-1,-6.654749E-1,-2.5129148E-1,-3.2012776E-2,-3.376171E-1,4.4439417E-1,6.179695E-2,5.6090546E-3,-2.1669777E-1,6.9095093E-1,2.540687E-1,-8.503423E-2,3.873888E-1,8.631335E-2,5.7491875E-1,-3.6523578E-1,-4.657904E-2,-3.88602E-1,-3.5223316E-2,3.673076E-1,7.5384796E-2,1.2415626E-1,-1.7378718E-1,-2.872522E-1,-6.804178E-1,-2.7373594E-1,1.4564069E-1,2.3644716E-1,-1.66044E-1,-7.29461E-2,1.4203724E-1,4.4340736E-1,1.0761456E-1,4.081148E-1,-2.6550395E-2,4.034701E-1,6.9378805E-1,-1.2364198E-1,2.0884775E-1,-3.5383847E-2,-6.972066E-1,-7.650563E-1,-2.9110014E-1,-3.365306E-1,2.3848627E-2,9.613181E-2,4.977597E-1,-5.103483E-1,6.675983E-2,3.586446E-1,7.5258934E-1,1.9869233E-2,4.0770796E-1,-3.7812072E-1,-4.0639117E-2,1.1557601E-1,4.9049032E-1,1.4530945E-2,6.733672E-1,1.633579E-1,-7.4685134E-2,7.580894E-2,-9.919349E-2,3.5944572E-1,1.18364714E-1,6.910897E-1,4.8148045E-1,1.0084974E0,5.046737E-1,4.8782974E-1,1.0812566E0],"categories":[],"categories_nodes":[],"categories_segments":[],"categories_sizes":[],"default_left":[0,0,0,0,0,0,0,0,0,0,0,0,0,0,0,0,0,0,0,0,0,0,0,0,0,0,0,0,0,0,0,0,0,0,0,0,0,0,0,0,0,0,0,0,0,0,0,0,0,0,0,0,0,0,0,0,0,0,0,0,0,0,0,0,0,0,0,0,0,0,0,0,0,0,0,0,0,0,0,0,0,0,0,0,0,0,0,0,0,0,0,0,0,0,0,0,0,0,0,0,0,0,0,0,0,0,0,0,0,0,0,0,0,0,0,0,0,0,0,0,0,0,0,0,0,0,0,0,0,0,0,0,0,0,0,0,0,0,0,0,0,0,0,0,0,0,0,0,0,0,0,0,0,0,0,0,0,0,0,0,0,0,0,0,0,0,0,0,0,0,0,0,0,0,0,0,0,0,0,0,0,0,0,0,0,0,0,0,0,0,0,0,0,0,0,0,0,0,0,0,0,0,0,0,0,0,0,0,0,0,0,0,0],"id":4,"left_children":[1,3,5,7,9,11,13,15,17,19,21,23,25,27,29,31,33,35,37,39,41,43,45,47,49,51,53,55,57,59,61,63,-1,-1,65,67,69,71,73,75,77,79,81,83,85,87,89,91,93,95,97,99,101,103,105,107,109,111,-1,113,115,117,119,121,-1,123,125,127,129,-1,131,133,135,137,139,-1,141,143,145,-1,147,149,-1,-1,151,153,155,157,-1,159,161,163,165,167,169,171,173,175,177,179,181,183,185,187,189,191,193,195,197,199,201,-1,-1,203,205,207,209,-1,211,-1,-1,-1,-1,-1,-1,-1,-1,-1,-1,-1,-1,-1,-1,-1,-1,-1,-1,-1,-1,-1,-1,-1,-1,-1,-1,-1,-1,-1,-1,-1,-1,-1,-1,-1,-1,-1,-1,-1,-1,-1,-1,-1,-1,-1,-1,-1,-1,-1,-1,-1,-1,-1,-1,-1,-1,-1,-1,-1,-1,-1,-1,-1,-1,-1,-1,-1,-1,-1,-1,-1,-1,-1,-1,-1,-1,-1,-1,-1,-1,-1,-1,-1,-1,-1,-1,-1,-1,-1,-1,-1,-1,-1,-1],"loss_changes":[1.655213E4,7.9051943E3,5.3853545E3,3.3788066E3,3.4000981E3,1.5917572E3,2.8160723E3,7.6149023E2,2.0295254E3,4.0872473E2,1.080758E3,8.460513E2,1.083783E3,7.337734E2,4.0377637E2,3.8274365E2,5.482051E2,1.2191003E3,7.387661E2,3.863158E2,1.9922386E2,4.3098682E2,5.551272E2,2.2169421E2,5.292307E2,5.258797E2,2.6517294E2,3.7161566E2,1.9645981E2,4.552578E2,1.17757324E2,4.7430176E1,0E0,0E0,2.8694165E2,5.5533563E2,1.052806E3,2.7200134E2,3.473828E2,1.3446045E1,1.1597769E2,1.6980392E2,3.9631912E1,1.7820752E2,3.0890106E2,1.9273924E2,2.9844308E2,1.363932E2,1.5815044E2,3.3755725E2,1.4577808E2,3.4420395E2,4.0410486E2,1.346471E2,4.0491272E1,2.7321182E2,2.2083948E2,2.9859262E1,0E0,4.2019924E1,2.6494922E2,2.1026367E1,7.6188354E0,6.609424E1,0E0,1.9868555E2,1.2941348E2,2.6184503E2,9.904422E1,0E0,3.1239645E2,1.208418E2,1.0601844E2,1.6841748E2,8.135187E1,0E0,5.833069E1,1.8829773E1,1.1504875E2,0E0,4.2202805E1,1.3454635E1,0E0,0E0,1.394148E2,1.9582901E2,1.0760205E2,4.9060883E1,0E0,5.7357445E1,1.6906952E2,3.2771114E1,6.5030518E0,9.323607E1,1.8688628E2,1.0964554E2,1.3285577E2,1.437486E2,1.6865625E2,3.016019E2,1.6933795E2,6.1687256E1,2.2844992E2,1.071196E2,1.3608304E2,3.632068E1,3.88442E1,6.485326E1,1.4460904E2,1.7429285E2,1.9092758E1,0E0,0E0,9.546167E0,7.9704285E0,1.535459E2,5.3694336E1,0E0,2.9266602E1,0E0,0E0,0E0,0E0,0E0,0E0,0E0,0E0,0E0,0E0,0E0,0E0,0E0,0E0,0E0,0E0,0E0,0E0,0E0,0E0,0E0,0E0,0E0,0E0,0E0,0E0,0E0,0E0,0E0,0E0,0E0,0E0,0E0,0E0,0E0,0E0,0E0,0E0,0E0,0E0,0E0,0E0,0E0,0E0,0E0,0E0,0E0,0E0,0E0,0E0,0E0,0E0,0E0,0E0,0E0,0E0,0E0,0E0,0E0,0E0,0E0,0E0,0E0,0E0,0E0,0E0,0E0,0E0,0E0,0E0,0E0,0E0,0E0,0E0,0E0,0E0,0E0,0E0,0E0,0E0,0E0,0E0,0E0,0E0,0E0,0E0,0E0,0E0,0E0,0E0,0E0,0E0,0E0,0E0],"parents":[2147483647,0,0,1,1,2,2,3,3,4,4,5,5,6,6,7,7,8,8,9,9,10,10,11,11,12,12,13,13,14,14,15,15,16,16,17,17,18,18,19,19,20,20,21,21,22,22,23,23,24,24,25,25,26,26,27,27,28,28,29,29,30,30,31,31,34,34,35,35,36,36,37,37,38,38,39,39,40,40,41,41,42,42,43,43,44,44,45,45,46,46,47,47,48,48,49,49,50,50,51,51,52,52,53,53,54,54,55,55,56,56,57,57,59,59,60,60,61,61,62,62,63,63,65,65,66,66,67,67,68,68,70,70,71,71,72,72,73,73,74,74,76,76,77,77,78,78,80,80,81,81,84,84,85,85,86,86,87,87,89,89,90,90,91,91,92,92,93,93,94,94,95,95,96,96,97,97,98,98,99,99,100,100,101,101,102,102,103,103,104,104,105,105,106,106,107,107,108,108,109,109,110,110,113,113,114,114,115,115,116,116,118,118],"right_children":[2,4,6,8,10,12,14,16,18,20,22,24,26,28,30,32,34,36,38,40,42,44,46,48,50,52,54,56,58,60,62,64,-1,-1,66,68,70,72,74,76,78,80,82,84,86,88,90,92,94,96,98,100,102,104,106,108,110,112,-1,114,116,118,120,122,-1,124,126,128,130,-1,132,134,136,138,140,-1,142,144,146,-1,148,150,-1,-1,152,154,156,158,-1,160,162,164,166,168,170,172,174,176,178,180,182,184,186,188,190,192,194,196,198,200,202,-1,-1,204,206,208,210,-1,212,-1,-1,-1,-1,-1,-1,-1,-1,-1,-1,-1,-1,-1,-1,-1,-1,-1,-1,-1,-1,-1,-1,-1,-1,-1,-1,-1,-1,-1,-1,-1,-1,-1,-1,-1,-1,-1,-1,-1,-1,-1,-1,-1,-1,-1,-1,-1,-1,-1,-1,-1,-1,-1,-1,-1,-1,-1,-1,-1,-1,-1,-1,-1,-1,-1,-1,-1,-1,-1,-1,-1,-1,-1,-1,-1,-1,-1,-1,-1,-1,-1,-1,-1,-1,-1,-1,-1,-1,-1,-1,-1,-1,-1,-1],"split_conditions":[-3.7645723E-3,1E0,1E0,1E0,1E0,1E0,1E0,-1.1402392E0,1E0,5.971088E-1,6.5240666E-2,1E0,1.1042982E0,1E0,1.2747694E0,1.0006348E0,1E0,1.3862725E-1,6.5240666E-2,-9.413562E-1,1E0,1E0,-2.8358263E-1,-6.6102177E-1,-3.1956516E-2,6.5240666E-2,3.4548265E-1,4.2488894E-1,1.1660393E0,-1.2053916E0,1E0,-8.145911E-3,-2.3718978E-1,-1.0423864E0,5.4574025E-1,1E0,-1.4527698E0,-2.8788322E-1,7.2292185E-1,7.944141E-2,1E0,-8.1138694E-1,9.745479E-1,-1.623241E0,-6.288256E-1,-4.015307E-1,-1.1118274E0,8.8548565E-1,1E0,1.0190626E0,1.9511849E-1,1E0,1E0,5.8951855E-1,2.1201383E-1,1E0,1E0,-1.5776958E-1,-7.888668E-1,-6.6102177E-1,8.4873486E-1,-2.1707785E0,-3.5812545E-1,-3.350956E-1,-1.451741E0,1.6454701E0,6.523333E-1,-1.0259906E0,-1.109342E-1,-8.693288E-1,8.4873486E-1,-1.1616133E0,7.933663E-1,-1.3391223E0,-4.5835444E-1,-7.27144E-1,7.01247E-1,1E0,-2.2830565E-1,-2.4096039E-1,-4.2994258E-1,1E0,-4.4106945E-1,6.299029E-2,1E0,9.745479E-1,-1.0740567E0,1.2899712E0,1.9860815E-1,-9.5690113E-1,8.72493E-1,-7.420117E-1,-1.0302784E0,8.0841E-1,1E0,3.371778E-1,1E0,2.1201383E-1,5.4574025E-1,-8.176743E-2,-5.9523857E-1,8.4873486E-1,5.971088E-1,6.3215744E-1,1E0,9.745479E-1,-6.7155905E-2,-3.2982567E-1,5.4574025E-1,3.6558968E-1,4.3217355E-1,-2.5513625E-1,2.199054E-2,1E0,-1.5556179E0,1E0,1.0192662E0,4.797621E-1,-1.4405277E0,2.8280273E-1,6.43948E-1,-1.1046295E0,-4.7303447E-1,-7.392118E-1,-1.1619769E-1,-1.346314E-1,-5.2219105E-1,-2.0049703E-1,1.9291437E-1,-6.2150574E-1,-6.0328826E-2,-3.2716742E-1,2.7793322E-2,-6.854742E-1,-3.6557135E-1,-1.5327685E-1,3.1461447E-1,-1.1221558E0,-7.062213E-1,-5.291602E-1,-2.1049935E-1,-1.1085342E-1,-5.892234E-1,-6.654749E-1,-2.5129148E-1,-3.2012776E-2,-3.376171E-1,4.4439417E-1,6.179695E-2,5.6090546E-3,-2.1669777E-1,6.9095093E-1,2.540687E-1,-8.503423E-2,3.873888E-1,8.631335E-2,5.7491875E-1,-3.6523578E-1,-4.657904E-2,-3.88602E-1,-3.5223316E-2,3.673076E-1,7.5384796E-2,1.2415626E-1,-1.7378718E-1,-2.872522E-1,-6.804178E-1,-2.7373594E-1,1.4564069E-1,2.3644716E-1,-1.66044E-1,-7.29461E-2,1.4203724E-1,4.4340736E-1,1.0761456E-1,4.081148E-1,-2.6550395E-2,4.034701E-1,6.9378805E-1,-1.2364198E-1,2.0884775E-1,-3.5383847E-2,-6.972066E-1,-7.650563E-1,-2.9110014E-1,-3.365306E-1,2.3848627E-2,9.613181E-2,4.977597E-1,-5.103483E-1,6.675983E-2,3.586446E-1,7.5258934E-1,1.9869233E-2,4.0770796E-1,-3.7812072E-1,-4.0639117E-2,1.1557601E-1,4.9049032E-1,1.4530945E-2,6.733672E-1,1.633579E-1,-7.4685134E-2,7.580894E-2,-9.919349E-2,3.5944572E-1,1.18364714E-1,6.910897E-1,4.8148045E-1,1.0084974E0,5.046737E-1,4.8782974E-1,1.0812566E0],"split_indices":[3,13,13,21,8,6,8,3,6,2,0,21,3,18,3,4,8,0,0,3,14,6,2,2,2,0,2,4,0,5,18,0,0,0,5,18,3,3,2,4,21,5,2,3,3,3,3,4,8,3,3,18,21,5,0,21,6,2,0,2,2,2,4,4,0,4,0,4,5,0,2,5,4,3,3,0,4,20,0,0,3,6,0,0,18,2,5,5,0,4,0,0,5,5,18,3,18,0,5,4,0,2,2,4,21,2,5,5,5,3,0,0,0,6,5,6,0,0,4,0,0,0,0,0,0,0,0,0,0,0,0,0,0,0,0,0,0,0,0,0,0,0,0,0,0,0,0,0,0,0,0,0,0,0,0,0,0,0,0,0,0,0,0,0,0,0,0,0,0,0,0,0,0,0,0,0,0,0,0,0,0,0,0,0,0,0,0,0,0,0,0,0,0,0,0,0,0,0,0,0,0,0,0,0,0,0,0,0,0,0,0,0,0],"split_type":[0,0,0,0,0,0,0,0,0,0,0,0,0,0,0,0,0,0,0,0,0,0,0,0,0,0,0,0,0,0,0,0,0,0,0,0,0,0,0,0,0,0,0,0,0,0,0,0,0,0,0,0,0,0,0,0,0,0,0,0,0,0,0,0,0,0,0,0,0,0,0,0,0,0,0,0,0,0,0,0,0,0,0,0,0,0,0,0,0,0,0,0,0,0,0,0,0,0,0,0,0,0,0,0,0,0,0,0,0,0,0,0,0,0,0,0,0,0,0,0,0,0,0,0,0,0,0,0,0,0,0,0,0,0,0,0,0,0,0,0,0,0,0,0,0,0,0,0,0,0,0,0,0,0,0,0,0,0,0,0,0,0,0,0,0,0,0,0,0,0,0,0,0,0,0,0,0,0,0,0,0,0,0,0,0,0,0,0,0,0,0,0,0,0,0,0,0,0,0,0,0,0,0,0,0,0,0,0,0,0,0,0,0],"sum_hessian":[1.514E3,7.62E2,7.52E2,4.74E2,2.88E2,4.6E2,2.92E2,1.21E2,3.53E2,9E1,1.98E2,2.62E2,1.98E2,8.8E1,2.04E2,3E1,9.1E1,1.78E2,1.75E2,6.6E1,2.4E1,9.7E1,1.01E2,6.7E1,1.95E2,1.48E2,5E1,7.5E1,1.3E1,1.6E2,4.4E1,2.7E1,3E0,2.3E1,6.8E1,9E1,8.8E1,8.4E1,9.1E1,2.8E1,3.8E1,1.3E1,1.1E1,5.3E1,4.4E1,2.9E1,7.2E1,1.4E1,5.3E1,1.05E2,9E1,7.9E1,6.9E1,3.2E1,1.8E1,4.6E1,2.9E1,9E0,4E0,1.2E1,1.48E2,3.4E1,1E1,1.1E1,1.6E1,4.5E1,2.3E1,8E1,1E1,1.9E1,6.9E1,6.8E1,1.6E1,6.4E1,2.7E1,2E1,8E0,7E0,3.1E1,4E0,9E0,6E0,5E0,4E0,4.9E1,2.5E1,1.9E1,2.4E1,5E0,1.5E1,5.7E1,8E0,6E0,1.5E1,3.8E1,6.4E1,4.1E1,1.9E1,7.1E1,6.9E1,1E1,1.7E1,5.2E1,2.2E1,1E1,1.2E1,6E0,1.5E1,3.1E1,2.2E1,7E0,5E0,4E0,6E0,6E0,1.24E2,2.4E1,3E0,3.1E1,3E0,7E0,7E0,4E0,4.1E1,4E0,1.3E1,1E1,1.2E1,6.8E1,7E0,3E0,4.5E1,2.4E1,1E1,5.8E1,1.3E1,3E0,1.1E1,5.3E1,1.7E1,1E1,3E0,5E0,4E0,3E0,1.6E1,1.5E1,6E0,3E0,3E0,3E0,4.2E1,7E0,1.8E1,7E0,4E0,1.5E1,2E1,4E0,3E0,1.2E1,3.7E1,2E1,3E0,5E0,3E0,3E0,1.1E1,4E0,2.9E1,9E0,2.3E1,4.1E1,3E1,1.1E1,1.1E1,8E0,4.9E1,2.2E1,3.9E1,3E1,4E0,6E0,1.3E1,4E0,3.6E1,1.6E1,1.7E1,5E0,3E0,7E0,7E0,5E0,3E0,3E0,5E0,1E1,2.2E1,9E0,3E0,1.9E1,4E0,3E0,3E0,3E0,3E0,3E0,7.2E1,5.2E1,1.9E1,5E0,3E0,2.8E1],"tree_param":{"num_deleted":"0","num_feature":"23","num_nodes":"213","size_leaf_vector":"1"}},{"base_weights":[-8.235456E-2,-3.2045693E0,3.2495463E0,-1.8108175E0,-8.759034E0,4.6712456E0,-2.011521E0,-5.0125012E0,-3.4382263E-1,-1.3481443E1,-7.229966E0,5.2661867E0,-7.227343E-1,-8.216179E0,3.4647733E-1,-1.9171745E0,-7.846261E0,4.3356884E-1,-6.381421E0,-8.5559905E-1,-1.2662828E0,-3.2476285E0,-9.25564E0,4.002679E0,7.762762E0,-6.289454E0,1.365411E0,-9.306474E0,-3.0632374E0,-8.7580264E-1,5.220533E0,2.5214317E-1,-4.546399E0,-6.5097528E0,-1.2691376E1,1.5920482E0,-3.3298705E0,-1.301963E1,-4.345479E0,-7.7968335E-1,-5.678446E0,-9.823098E0,-2.9915605E0,5.43322E0,2.2860472E0,8.815396E0,4.3753695E0,-6.3972336E-1,-7.4764036E-2,-1.0010763E0,5.0436316E0,-5.0034356E-1,-7.9833454E-1,-3.701412E-1,-7.096496E-2,-1.5247748E0,4.041608E0,3.2020392E0,6.289419E0,8.8022286E-1,-4.0009837E0,-3.4239547E0,-8.406306E0,-4.626724E0,-9.307402E0,-9.266302E0,-1.3679065E0,3.4439821E0,-8.0764836E-1,-2.610296E0,-7.060349E-1,-1.2023251E0,-4.5966858E-1,1.6363043E-1,-5.3454695E0,-2.885734E0,6.298981E-1,-4.9932534E-1,-1.3798308E-1,-9.7376007E-1,-8.314703E0,8.767662E-2,-4.53061E-1,6.5326915E0,2.2680235E0,2.9773123E0,-9.153936E-1,9.83592E0,5.051768E0,1.303093E0,6.1477156E0,7.2717935E-1,-3.5810099E0,5.74903E0,1.051062E-1,-1.546096E-1,-3.8945742E0,1.696968E-2,5.4511504E0,3.922903E-1,4.157794E-2,2.1478996E-1,5.622718E-1,5.0466657E-1,6.7056743E-3,-4.3745497E-1,-1.2268272E-1,-4.8874503E-1,-1.0742368E-1,-7.8048974E-1,-3.424005E-1,-5.9763646E-1,-2.6790503E-1,-5.396365E-1,-1.0868131E0,-8.354151E-1,-2.9717314E-1,7.227276E-1,2.292692E-1,2.0434287E-1,-1.3853386E-1,-4.5221522E-1,-1.16099715E-1,-5.034162E-1,-2.4675882E-1,-8.678543E-2,-2.8843114E-1,-3.931527E-2,2.8448844E-1,-7.111413E-1,-3.0092725E-1,5.822315E-1,2.4112049E-1,2.371581E-1,-3.6743578E-1,3.3061435E-3,2.804757E-1,6.536803E-2,-3.4310737E-1,8.3683485E-1,3.424281E-1,4.6202755E-1,-8.762535E-2,2.4773748E-1,-2.001072E-1,2.8107402E-1,5.3864515E-1,-3.9237186E-2,2.4330169E-1,1.0292091E-1,-4.4537154E-1,5.4865086E-1,1.9048107E-1,6.340541E-2,-3.074525E-1,-3.878336E-1,-5.335064E-2,1.8458427E-1,5.500798E-1],"categories":[],"categories_nodes":[],"categories_segments":[],"categories_sizes":[],"default_left":[0,0,0,0,0,0,0,0,0,0,0,0,0,0,0,0,0,0,0,0,0,0,0,0,0,0,0,0,0,0,0,0,0,0,0,0,0,0,0,0,0,0,0,0,0,0,0,0,0,0,0,0,0,0,0,0,0,0,0,0,0,0,0,0,0,0,0,0,0,0,0,0,0,0,0,0,0,0,0,0,0,0,0,0,0,0,0,0,0,0,0,0,0,0,0,0,0,0,0,0,0,0,0,0,0,0,0,0,0,0,0,0,0,0,0,0,0,0,0,0,0,0,0,0,0,0,0,0,0,0,0,0,0,0,0,0,0,0,0,0,0,0,0,0,0,0,0,0,0,0,0,0,0,0,0,0,0,0,0],"id":5,"left_children":[1,3,5,7,9,11,13,15,17,19,21,23,25,27,29,31,33,35,37,-1,-1,39,41,43,45,47,49,51,53,55,57,59,61,63,65,67,69,71,73,75,77,79,81,83,85,87,89,-1,-1,91,93,-1,-1,-1,-1,95,97,99,101,103,105,107,109,111,113,115,-1,117,119,121,-1,-1,-1,-1,123,125,127,-1,-1,-1,129,-1,-1,131,133,135,137,139,141,143,145,147,149,151,-1,153,155,-1,157,-1,-1,-1,-1,-1,-1,-1,-1,-1,-1,-1,-1,-1,-1,-1,-1,-1,-1,-1,-1,-1,-1,-1,-1,-1,-1,-1,-1,-1,-1,-1,-1,-1,-1,-1,-1,-1,-1,-1,-1,-1,-1,-1,-1,-1,-1,-1,-1,-1,-1,-1,-1,-1,-1,-1,-1,-1,-1,-1,-1],"loss_changes":[1.5698001E4,6.0148037E3,5.469545E3,2.9291133E3,1.0289873E3,1.8490381E3,2.2852163E3,1.7041543E3,2.0163116E3,7.2697266E1,9.379712E2,1.6029307E3,6.8278656E2,2.1307568E2,6.8372266E2,5.429906E2,5.778867E2,1.6664105E3,6.056588E2,0E0,0E0,2.4753583E2,2.5142725E2,8.3725586E2,5.7829297E2,1.3878754E2,3.7934094E2,9.450195E0,2.6518364E1,2.9975867E2,2.9484497E1,1.451008E2,1.5751611E2,3.8891772E2,1.5857007E2,1.3004529E3,3.3286523E2,7.442285E1,2.6017474E2,6.712802E1,3.598877E1,1.5389502E2,9.357175E1,6.394326E2,3.5459943E2,4.5346582E2,2.2612976E2,0E0,0E0,1.2299123E2,3.7173767E1,0E0,0E0,0E0,0E0,2.656532E2,5.8219757E1,4.3093468E1,1.8421204E1,2.0265019E2,1.6956108E1,1.8739941E2,8.371399E0,1.603186E2,2.590625E2,5.2641235E1,0E0,5.073463E2,4.0205655E2,2.7742578E2,0E0,0E0,0E0,0E0,5.340735E1,7.7531586E0,4.7685402E1,0E0,0E0,0E0,8.951636E1,0E0,0E0,3.4254053E2,2.5253284E2,2.0317517E2,1.7299431E2,3.0911816E2,1.3976251E2,1.2374933E2,1.7977295E1,4.9393227E1,1.1350528E2,3.596747E1,0E0,1.8821246E2,8.908017E1,0E0,1.9970993E1,0E0,0E0,0E0,0E0,0E0,0E0,0E0,0E0,0E0,0E0,0E0,0E0,0E0,0E0,0E0,0E0,0E0,0E0,0E0,0E0,0E0,0E0,0E0,0E0,0E0,0E0,0E0,0E0,0E0,0E0,0E0,0E0,0E0,0E0,0E0,0E0,0E0,0E0,0E0,0E0,0E0,0E0,0E0,0E0,0E0,0E0,0E0,0E0,0E0,0E0,0E0,0E0,0E0,0E0,0E0,0E0,0E0,0E0,0E0,0E0],"parents":[2147483647,0,0,1,1,2,2,3,3,4,4,5,5,6,6,7,7,8,8,9,9,10,10,11,11,12,12,13,13,14,14,15,15,16,16,17,17,18,18,21,21,22,22,23,23,24,24,25,25,26,26,27,27,28,28,29,29,30,30,31,31,32,32,33,33,34,34,35,35,36,36,37,37,38,38,39,39,40,40,41,41,42,42,43,43,44,44,45,45,46,46,49,49,50,50,55,55,56,56,57,57,58,58,59,59,60,60,61,61,62,62,63,63,64,64,65,65,67,67,68,68,69,69,74,74,75,75,76,76,80,80,83,83,84,84,85,85,86,86,87,87,88,88,89,89,90,90,91,91,92,92,93,93,95,95,96,96,98,98],"right_children":[2,4,6,8,10,12,14,16,18,20,22,24,26,28,30,32,34,36,38,-1,-1,40,42,44,46,48,50,52,54,56,58,60,62,64,66,68,70,72,74,76,78,80,82,84,86,88,90,-1,-1,92,94,-1,-1,-1,-1,96,98,100,102,104,106,108,110,112,114,116,-1,118,120,122,-1,-1,-1,-1,124,126,128,-1,-1,-1,130,-1,-1,132,134,136,138,140,142,144,146,148,150,152,-1,154,156,-1,158,-1,-1,-1,-1,-1,-1,-1,-1,-1,-1,-1,-1,-1,-1,-1,-1,-1,-1,-1,-1,-1,-1,-1,-1,-1,-1,-1,-1,-1,-1,-1,-1,-1,-1,-1,-1,-1,-1,-1,-1,-1,-1,-1,-1,-1,-1,-1,-1,-1,-1,-1,-1,-1,-1,-1,-1,-1,-1,-1,-1],"split_conditions":[8.159817E-2,1E0,1E0,-9.9619824E-1,1E0,1E0,1E0,6.5240666E-2,1E0,-1.5491907E-1,-4.4846538E-1,1.0695782E0,1E0,1.6084764E0,1.249211E0,1E0,1E0,1E0,1E0,-8.5559905E-1,-1.2662828E0,1E0,1.530321E0,1E0,1E0,1.5186601E0,8.899455E-1,-3.1956516E-2,6.5240666E-2,1.2899712E0,-7.7266246E-1,1E0,1E0,1.0192662E0,5.641158E-2,1E0,1E0,-2.776673E-1,-8.887849E-1,-1.0479727E-1,7.2292185E-1,-9.063819E-1,5.789467E-1,1E0,1E0,1E0,1E0,-6.3972336E-1,-7.4764036E-2,5.789467E-1,9.545751E-1,-5.0034356E-1,-7.9833454E-1,-3.701412E-1,-7.096496E-2,1E0,-1.2793188E0,-8.1532486E-2,-4.093957E-1,-1.5492641E0,-1.175831E0,-2.4297628E-1,7.646317E-1,1E0,1E0,4.5818365E-1,-1.3679065E0,-1.6960372E0,-8.153983E-1,1E0,-7.060349E-1,-1.2023251E0,-4.5966858E-1,1.6363043E-1,1E0,2.0400686E-2,1E0,-4.9932534E-1,-1.3798308E-1,-9.7376007E-1,8.0841E-1,8.767662E-2,-4.53061E-1,1E0,1E0,-1.2053916E0,5.0556016E-1,1.3861991E0,1.7294263E0,1E0,-8.9894354E-1,-1.2677924E-2,-1.117835E0,1E0,1.051062E-1,1E0,1E0,1.696968E-2,4.4086364E-1,3.922903E-1,4.157794E-2,2.1478996E-1,5.622718E-1,5.0466657E-1,6.7056743E-3,-4.3745497E-1,-1.2268272E-1,-4.8874503E-1,-1.0742368E-1,-7.8048974E-1,-3.424005E-1,-5.9763646E-1,-2.6790503E-1,-5.396365E-1,-1.0868131E0,-8.354151E-1,-2.9717314E-1,7.227276E-1,2.292692E-1,2.0434287E-1,-1.3853386E-1,-4.5221522E-1,-1.16099715E-1,-5.034162E-1,-2.4675882E-1,-8.678543E-2,-2.8843114E-1,-3.931527E-2,2.8448844E-1,-7.111413E-1,-3.0092725E-1,5.822315E-1,2.4112049E-1,2.371581E-1,-3.6743578E-1,3.3061435E-3,2.804757E-1,6.536803E-2,-3.4310737E-1,8.3683485E-1,3.424281E-1,4.6202755E-1,-8.762535E-2,2.4773748E-1,-2.001072E-1,2.8107402E-1,5.3864515E-1,-3.9237186E-2,2.4330169E-1,1.0292091E-1,-4.4537154E-1,5.4865086E-1,1.9048107E-1,6.340541E-2,-3.074525E-1,-3.878336E-1,-5.335064E-2,1.8458427E-1,5.500798E-1],"split_indices":[1,11,11,1,21,10,21,0,10,0,0,1,21,1,1,6,18,9,21,0,0,6,4,6,9,1,1,2,0,5,4,10,9,0,4,6,18,1,0,4,2,1,0,9,9,18,21,0,0,0,4,0,0,0,0,6,4,0,2,0,1,4,5,19,6,5,0,0,0,21,0,0,0,0,15,5,10,0,0,0,5,0,0,18,18,5,0,0,2,6,5,4,5,16,0,18,10,0,1,0,0,0,0,0,0,0,0,0,0,0,0,0,0,0,0,0,0,0,0,0,0,0,0,0,0,0,0,0,0,0,0,0,0,0,0,0,0,0,0,0,0,0,0,0,0,0,0,0,0,0,0,0,0,0,0,0,0,0,0],"split_type":[0,0,0,0,0,0,0,0,0,0,0,0,0,0,0,0,0,0,0,0,0,0,0,0,0,0,0,0,0,0,0,0,0,0,0,0,0,0,0,0,0,0,0,0,0,0,0,0,0,0,0,0,0,0,0,0,0,0,0,0,0,0,0,0,0,0,0,0,0,0,0,0,0,0,0,0,0,0,0,0,0,0,0,0,0,0,0,0,0,0,0,0,0,0,0,0,0,0,0,0,0,0,0,0,0,0,0,0,0,0,0,0,0,0,0,0,0,0,0,0,0,0,0,0,0,0,0,0,0,0,0,0,0,0,0,0,0,0,0,0,0,0,0,0,0,0,0,0,0,0,0,0,0,0,0,0,0,0,0],"sum_hessian":[1.507E3,7.78E2,7.29E2,6.23E2,1.55E2,5.74E2,1.55E2,1.95E2,4.28E2,3.6E1,1.19E2,5.17E2,5.7E1,4.2E1,1.13E2,9.4E1,1.01E2,3.8E2,4.8E1,1.9E1,1.7E1,4.1E1,7.8E1,3.45E2,1.72E2,1.5E1,4.2E1,3.4E1,8E0,9.1E1,2.2E1,5.2E1,4.2E1,8.1E1,2E1,2.91E2,8.9E1,1E1,3.8E1,2.1E1,2E1,7.1E1,7E0,1.87E2,1.58E2,1.3E2,4.2E1,1.1E1,4E0,2.6E1,1.6E1,8E0,2.6E1,4E0,4E0,8.1E1,1E1,9E0,1.3E1,4.6E1,6E0,3.4E1,8E0,5E1,3.1E1,1.3E1,7E0,1.64E2,1.27E2,8E1,9E0,7E0,3E0,5E0,3.3E1,8E0,1.3E1,1.7E1,3E0,2.5E1,4.6E1,3E0,4E0,1.38E2,4.9E1,1.3E2,2.8E1,1.01E2,2.9E1,1.6E1,2.6E1,1.6E1,1E1,1.3E1,3E0,5.2E1,2.9E1,3E0,7E0,5E0,4E0,3E0,1E1,5E0,4.1E1,3E0,3E0,1.4E1,2E1,5E0,3E0,1.4E1,3.6E1,2.1E1,1E1,1E1,3E0,1.4E1,1.5E2,2.7E1,1E2,2.1E1,5.9E1,2.2E1,1.1E1,3E0,5E0,1E1,3E0,4E1,6E0,1.13E2,2.5E1,4.5E1,4E0,2E1,1.1E2,1.9E1,9E0,9E1,1.1E1,2.6E1,3E0,1.1E1,5E0,6E0,2E1,1.1E1,5E0,3E0,7E0,9E0,4E0,4.2E1,1E1,2.2E1,7E0,3E0,4E0],"tree_param":{"num_deleted":"0","num_feature":"23","num_nodes":"159","size_leaf_vector":"1"}},{"base_weights":[1.089492E-1,-2.5488045E0,2.8976736E0,-4.6278396E0,8.053669E-1,1.1668624E0,5.798796E0,-8.592065E0,-3.1098962E0,1.5638999E0,-6.6732745E0,-2.074015E0,2.3057194E0,6.6011724E0,-8.5903805E-1,-1.301964E1,-6.768973E0,-1.0606009E0,-5.465117E0,2.8054605E0,-3.029024E0,-5.0987144E0,-1.1876765E0,-3.5309112E0,1.23671986E-1,3.7871168E0,4.053321E-1,7.4708242E0,3.146137E0,-2.5348587E0,2.4183502E0,-7.905489E0,-1.5362779E1,-8.190723E0,-3.763435E0,2.1309607E0,-2.5142887E0,-3.482875E0,-7.5029345E0,4.907711E0,4.7409445E-1,-2.978501E-1,-5.0284796E0,-5.330855E-1,-1.5763533E0,6.404383E-2,-4.5237274E0,4.4170175E0,-6.7796606E-1,3.169323E0,6.6375074E0,-2.0691962E0,1.6871425E0,8.706654E0,5.8773575E0,4.758537E0,-1.148352E0,-1.0907767E0,-4.7706142E-1,-9.6336514E-2,3.9273348E0,-7.1431357E-1,-2.4917457E-1,-1.1604761E1,-1.4773521E0,-3.0699167E0,-8.855575E0,-7.448855E0,1.4336395E-1,1.0072151E0,5.751324E0,-7.4931397E0,-1.602759E0,-4.5490813E0,-1.3765277E0,-1.1253979E1,-6.312114E0,3.0697963E0,6.568991E0,-2.8323252E0,1.6125462E0,-4.904556E0,1.3293893E0,-7.0560104E-1,-3.901008E0,-2.0540307E-1,2.4361039E-2,-1.5788914E0,2.1097074E0,7.0213266E-2,-5.0498524E0,5.8181457E-2,5.188331E-1,-2.3078465E0,1.950548E0,2.3393872E0,6.032169E0,4.224292E0,8.115544E0,-5.5435815E0,-4.169328E-1,6.4016455E-1,4.431293E0,6.682177E0,1.0005411E1,5.1723247E0,8.600597E0,-1.2102775E-1,6.277058E0,-4.571085E0,2.417925E0,-3.2377452E-1,2.319568E-1,1.450299E-1,3.866749E-1,-6.2963253E-1,-1.3402013E0,-4.7056457E-1,2.8496582E-2,-3.0803138E-1,-7.249869E-1,-4.2063063E-1,-7.862151E-1,2.8717408E-1,-1.6502213E-1,4.8758015E-1,2.0515427E-2,5.4626954E-1,1.0812942E-1,-7.8817284E-1,-3.3191222E-1,-2.3956123E-1,2.5224162E-2,-4.0243888E-1,-3.6848538E-2,-1.606656E-1,1.7472784E-1,-9.7476125E-1,-3.9607733E-1,-6.12597E-1,-3.0454886E-1,-1.508677E-1,2.961752E-1,1.8745568E-1,5.906862E-1,-4.00288E-1,-1.3238053E-1,2.8928295E-1,-5.6421507E-2,-1.942617E-1,-4.923761E-1,2.6435655E-1,-7.80899E-2,-1.5203874E-1,-4.612626E-1,-3.4117216E-1,1.56784E-1,3.41761E-2,2.4270166E-1,-4.3184483E-1,4.5217056E-2,-1.1254567E-2,-3.448132E-1,-1.06496006E-1,3.5047135E-1,5.5814567E-3,2.789381E-1,8.419392E-2,5.9338933E-1,3.822568E-1,1.20517194E-1,3.3095485E-1,7.3327607E-1,-2.3809518E-1,-5.6345093E-1,-5.1602876E-1,5.8189105E-2,-3.0777263E-3,3.364968E-1,9.433598E-2,4.0695998E-1,1.3263313E-1,6.0331655E-1,8.801546E-1,5.4337305E-1,2.6608557E-1,4.83713E-1,3.395864E-1,7.384618E-1,-1.377184E-1,1.4589764E-1,5.69323E-1,2.0976362E-1,-1.3600921E-3,-5.840108E-1,-9.622902E-2,3.864776E-1,-7.185638E-2,1.20945536E-1],"categories":[],"categories_nodes":[],"categories_segments":[],"categories_sizes":[],"default_left":[0,0,0,0,0,0,0,0,0,0,0,0,0,0,0,0,0,0,0,0,0,0,0,0,0,0,0,0,0,0,0,0,0,0,0,0,0,0,0,0,0,0,0,0,0,0,0,0,0,0,0,0,0,0,0,0,0,0,0,0,0,0,0,0,0,0,0,0,0,0,0,0,0,0,0,0,0,0,0,0,0,0,0,0,0,0,0,0,0,0,0,0,0,0,0,0,0,0,0,0,0,0,0,0,0,0,0,0,0,0,0,0,0,0,0,0,0,0,0,0,0,0,0,0,0,0,0,0,0,0,0,0,0,0,0,0,0,0,0,0,0,0,0,0,0,0,0,0,0,0,0,0,0,0,0,0,0,0,0,0,0,0,0,0,0,0,0,0,0,0,0,0,0,0,0,0,0,0,0,0,0,0,0,0,0,0,0,0,0,0,0,0,0,0,0,0,0,0,0],"id":6,"left_children":[1,3,5,7,9,11,13,15,17,19,21,23,25,27,29,31,33,35,37,39,41,43,-1,45,47,49,51,53,55,57,59,61,63,65,67,69,71,73,75,77,79,81,83,-1,85,87,89,91,93,95,97,99,101,103,105,107,109,111,-1,-1,113,-1,-1,115,-1,117,119,121,123,125,127,129,131,133,135,137,139,141,143,145,147,149,151,-1,153,-1,-1,155,157,-1,159,-1,-1,161,163,165,167,169,171,173,175,177,179,181,183,185,187,189,191,193,195,-1,197,-1,-1,-1,-1,-1,-1,-1,-1,-1,-1,-1,-1,-1,-1,-1,-1,-1,-1,-1,-1,-1,-1,-1,-1,-1,-1,-1,-1,-1,-1,-1,-1,-1,-1,-1,-1,-1,-1,-1,-1,-1,-1,-1,-1,-1,-1,-1,-1,-1,-1,-1,-1,-1,-1,-1,-1,-1,-1,-1,-1,-1,-1,-1,-1,-1,-1,-1,-1,-1,-1,-1,-1,-1,-1,-1,-1,-1,-1,-1,-1,-1,-1,-1,-1,-1,-1],"loss_changes":[1.1391822E4,5.4918237E3,3.759206E3,2.8977705E3,1.7236211E3,1.7431936E3,1.5014551E3,9.9350195E2,1.6979731E3,1.5766555E3,2.8461926E2,3.942583E2,9.8097974E2,7.2766504E2,1.7639194E2,3.3391016E2,3.8366797E2,8.868694E2,6.363379E2,1.0612157E3,3.2069305E2,1.2729547E2,0E0,2.6440515E2,1.7508005E2,3.2411084E2,4.9195993E2,3.4070898E2,3.655351E2,9.746437E1,6.485953E1,4.0832092E1,7.732959E1,1.9411133E2,4.762083E2,2.383092E2,5.825168E2,1.846311E2,2.8630908E2,3.2790967E2,3.9604398E2,2.0142162E2,1.1093793E2,0E0,1.7560432E1,6.0466175E1,1.6925708E2,5.6338257E1,1.8872061E2,3.7317273E2,8.69895E1,3.0194052E2,2.9021588E2,2.2236523E2,1.2831274E2,2.823291E2,1.9414874E2,6.3507343E1,0E0,0E0,6.5649185E0,0E0,0E0,1.3728064E2,0E0,8.880791E1,2.4094727E1,3.6930542E1,1.3665654E2,1.779574E2,5.7112274E1,1.1690686E2,2.999252E2,1.0790283E2,7.187366E1,4.524829E1,1.8318677E2,1.8248114E2,1.8579321E2,6.075453E1,3.647605E2,6.724716E0,9.429645E1,0E0,9.349698E1,0E0,0E0,1.0339866E2,1.1141907E1,0E0,1.06677124E2,0E0,0E0,1.1655615E2,1.4142004E2,3.3307172E2,2.4051941E2,1.5383606E1,4.5664307E1,4.4487305E1,2.6014087E2,1.8166537E2,5.3709167E1,1.8609058E2,1.3340771E2,9.930969E1,7.4802246E0,3.4264267E1,7.032117E1,9.930249E1,7.570799E1,0E0,1.871534E1,0E0,0E0,0E0,0E0,0E0,0E0,0E0,0E0,0E0,0E0,0E0,0E0,0E0,0E0,0E0,0E0,0E0,0E0,0E0,0E0,0E0,0E0,0E0,0E0,0E0,0E0,0E0,0E0,0E0,0E0,0E0,0E0,0E0,0E0,0E0,0E0,0E0,0E0,0E0,0E0,0E0,0E0,0E0,0E0,0E0,0E0,0E0,0E0,0E0,0E0,0E0,0E0,0E0,0E0,0E0,0E0,0E0,0E0,0E0,0E0,0E0,0E0,0E0,0E0,0E0,0E0,0E0,0E0,0E0,0E0,0E0,0E0,0E0,0E0,0E0,0E0,0E0,0E0,0E0,0E0,0E0,0E0,0E0,0E0,0E0,0E0],"parents":[2147483647,0,0,1,1,2,2,3,3,4,4,5,5,6,6,7,7,8,8,9,9,10,10,11,11,12,12,13,13,14,14,15,15,16,16,17,17,18,18,19,19,20,20,21,21,23,23,24,24,25,25,26,26,27,27,28,28,29,29,30,30,31,31,32,32,33,33,34,34,35,35,36,36,37,37,38,38,39,39,40,40,41,41,42,42,44,44,45,45,46,46,47,47,48,48,49,49,50,50,51,51,52,52,53,53,54,54,55,55,56,56,57,57,60,60,63,63,65,65,66,66,67,67,68,68,69,69,70,70,71,71,72,72,73,73,74,74,75,75,76,76,77,77,78,78,79,79,80,80,81,81,82,82,84,84,87,87,88,88,90,90,93,93,94,94,95,95,96,96,97,97,98,98,99,99,100,100,101,101,102,102,103,103,104,104,105,105,106,106,107,107,108,108,109,109,110,110,112,112],"right_children":[2,4,6,8,10,12,14,16,18,20,22,24,26,28,30,32,34,36,38,40,42,44,-1,46,48,50,52,54,56,58,60,62,64,66,68,70,72,74,76,78,80,82,84,-1,86,88,90,92,94,96,98,100,102,104,106,108,110,112,-1,-1,114,-1,-1,116,-1,118,120,122,124,126,128,130,132,134,136,138,140,142,144,146,148,150,152,-1,154,-1,-1,156,158,-1,160,-1,-1,162,164,166,168,170,172,174,176,178,180,182,184,186,188,190,192,194,196,-1,198,-1,-1,-1,-1,-1,-1,-1,-1,-1,-1,-1,-1,-1,-1,-1,-1,-1,-1,-1,-1,-1,-1,-1,-1,-1,-1,-1,-1,-1,-1,-1,-1,-1,-1,-1,-1,-1,-1,-1,-1,-1,-1,-1,-1,-1,-1,-1,-1,-1,-1,-1,-1,-1,-1,-1,-1,-1,-1,-1,-1,-1,-1,-1,-1,-1,-1,-1,-1,-1,-1,-1,-1,-1,-1,-1,-1,-1,-1,-1,-1,-1,-1,-1,-1,-1,-1],"split_conditions":[2.4647294E-2,1E0,1E0,1E0,1E0,1E0,1E0,-9.981799E-1,1E0,1E0,8.72493E-1,2.196696E-1,1E0,1E0,3.4548265E-1,-1.5491907E-1,7.2292185E-1,-4.4846538E-1,1.3862725E-1,6.5240666E-2,-2.2830565E-1,5.971088E-1,-1.1876765E0,-6.686251E-1,-1.1089445E0,8.4873486E-1,4.5082527E-1,1E0,8.72493E-1,5.789467E-1,1E0,8.4873486E-1,1E0,-1.3944681E0,-3.7311885E-1,1.226174E0,-1.4527698E0,-4.5835444E-1,-1.197063E0,-1.109342E-1,-1.1118274E0,-8.5516524E-1,-1.2538867E0,-5.330855E-1,3.5878697E-1,1.4853092E-1,-1.4680613E0,-1.9895835E0,9.3382704E-1,1.3315932E0,4.7923717E-1,-4.093957E-1,5.971088E-1,5.07649E-1,1.4452406E0,4.224134E-1,1.6063588E0,-7.8683484E-1,-4.7706142E-1,-9.6336514E-2,2.854004E-1,-7.1431357E-1,-2.4917457E-1,1E0,-1.4773521E0,-2.337761E-2,-8.8453245E-1,7.991065E-1,-6.686251E-1,-1.6226506E0,7.646317E-1,1.0795727E-1,4.712957E-1,1.226174E0,1E0,5.0196195E-1,7.2292185E-1,-1.3714381E0,-1.3107104E0,1E0,1E0,-2.660061E-1,1E0,-7.0560104E-1,1E0,-2.0540307E-1,2.4361039E-2,-8.887849E-1,1.6670662E-1,7.0213266E-2,1.5304762E0,5.8181457E-2,5.188331E-1,1E0,6.5240666E-2,-3.2982567E-1,1E0,4.3217355E-1,-8.9894354E-1,1.3862725E-1,1E0,1.7577711E0,1E0,-1.164274E0,7.2571987E-1,-2.8604737E-1,1E0,1E0,1E0,1.0192662E0,4.5082527E-1,-3.2377452E-1,-8.5516524E-1,1.450299E-1,3.866749E-1,-6.2963253E-1,-1.3402013E0,-4.7056457E-1,2.8496582E-2,-3.0803138E-1,-7.249869E-1,-4.2063063E-1,-7.862151E-1,2.8717408E-1,-1.6502213E-1,4.8758015E-1,2.0515427E-2,5.4626954E-1,1.0812942E-1,-7.8817284E-1,-3.3191222E-1,-2.3956123E-1,2.5224162E-2,-4.0243888E-1,-3.6848538E-2,-1.606656E-1,1.7472784E-1,-9.7476125E-1,-3.9607733E-1,-6.12597E-1,-3.0454886E-1,-1.508677E-1,2.961752E-1,1.8745568E-1,5.906862E-1,-4.00288E-1,-1.3238053E-1,2.8928295E-1,-5.6421507E-2,-1.942617E-1,-4.923761E-1,2.6435655E-1,-7.80899E-2,-1.5203874E-1,-4.612626E-1,-3.4117216E-1,1.56784E-1,3.41761E-2,2.4270166E-1,-4.3184483E-1,4.5217056E-2,-1.1254567E-2,-3.448132E-1,-1.06496006E-1,3.5047135E-1,5.5814567E-3,2.789381E-1,8.419392E-2,5.9338933E-1,3.822568E-1,1.20517194E-1,3.3095485E-1,7.3327607E-1,-2.3809518E-1,-5.6345093E-1,-5.1602876E-1,5.8189105E-2,-3.0777263E-3,3.364968E-1,9.433598E-2,4.0695998E-1,1.3263313E-1,6.0331655E-1,8.801546E-1,5.4337305E-1,2.6608557E-1,4.83713E-1,3.395864E-1,7.384618E-1,-1.377184E-1,1.4589764E-1,5.69323E-1,2.0976362E-1,-1.3600921E-3,-5.840108E-1,-9.622902E-2,3.864776E-1,-7.185638E-2,1.20945536E-1],"split_indices":[3,13,13,21,10,21,10,3,6,9,0,2,6,9,2,0,2,0,0,0,0,2,0,0,0,2,3,6,0,0,21,2,6,4,3,2,3,3,3,5,3,5,3,0,0,4,5,0,3,3,3,2,2,3,3,3,0,2,0,0,0,0,0,10,0,5,3,0,0,0,5,5,2,2,10,5,2,4,3,17,6,4,6,0,14,0,0,0,3,0,3,0,0,6,0,5,17,0,5,0,17,3,17,2,0,5,19,21,6,0,3,0,5,0,0,0,0,0,0,0,0,0,0,0,0,0,0,0,0,0,0,0,0,0,0,0,0,0,0,0,0,0,0,0,0,0,0,0,0,0,0,0,0,0,0,0,0,0,0,0,0,0,0,0,0,0,0,0,0,0,0,0,0,0,0,0,0,0,0,0,0,0,0,0,0,0,0,0,0,0,0,0,0,0,0,0,0,0,0],"split_type":[0,0,0,0,0,0,0,0,0,0,0,0,0,0,0,0,0,0,0,0,0,0,0,0,0,0,0,0,0,0,0,0,0,0,0,0,0,0,0,0,0,0,0,0,0,0,0,0,0,0,0,0,0,0,0,0,0,0,0,0,0,0,0,0,0,0,0,0,0,0,0,0,0,0,0,0,0,0,0,0,0,0,0,0,0,0,0,0,0,0,0,0,0,0,0,0,0,0,0,0,0,0,0,0,0,0,0,0,0,0,0,0,0,0,0,0,0,0,0,0,0,0,0,0,0,0,0,0,0,0,0,0,0,0,0,0,0,0,0,0,0,0,0,0,0,0,0,0,0,0,0,0,0,0,0,0,0,0,0,0,0,0,0,0,0,0,0,0,0,0,0,0,0,0,0,0,0,0,0,0,0,0,0,0,0,0,0,0,0,0,0,0,0,0,0,0,0,0,0],"sum_hessian":[1.535E3,7.86E2,7.49E2,4.85E2,3.01E2,4.7E2,2.79E2,1.33E2,3.52E2,2.74E2,2.7E1,1.22E2,3.48E2,2.49E2,3E1,3.7E1,9.6E1,1.89E2,1.63E2,2.16E2,5.8E1,2.4E1,3E0,7.3E1,4.9E1,1.95E2,1.53E2,1.98E2,5.1E1,2E1,1E1,1.3E1,2.4E1,6.4E1,3.2E1,5.9E1,1.3E2,8.4E1,7.9E1,1.13E2,1.03E2,2.5E1,3.3E1,1.6E1,8E0,1.6E1,5.7E1,7E0,4.2E1,1.62E2,3.3E1,5.2E1,1.01E2,1.09E2,8.9E1,3.7E1,1.4E1,1.5E1,5E0,3E0,7E0,1E1,3E0,1.3E1,1.1E1,8E0,5.6E1,1.6E1,1.6E1,4.6E1,1.3E1,1.9E1,1.11E2,5.5E1,2.9E1,1.7E1,6.2E1,5.5E1,5.8E1,2.6E1,7.7E1,6E0,1.9E1,6E0,2.7E1,5E0,3E0,9E0,7E0,5E0,5.2E1,3E0,4E0,2.6E1,1.6E1,1.27E2,3.5E1,1.4E1,1.9E1,1.6E1,3.6E1,7.4E1,2.7E1,4.5E1,6.4E1,7.3E1,1.6E1,9E0,2.8E1,7E0,7E0,4E0,1.1E1,3E0,4E0,9E0,4E0,4E0,4E0,3E0,5.3E1,1E1,6E0,6E0,1E1,5E0,4.1E1,1E1,3E0,1E1,9E0,6.4E1,4.7E1,4.9E1,6E0,2.5E1,4E0,1.4E1,3E0,3.9E1,2.3E1,6E0,4.9E1,1E1,4.8E1,8E0,1.8E1,4.1E1,3.6E1,3E0,3E0,1E1,9E0,1.4E1,1.3E1,5E0,4E0,3E0,4E0,4.9E1,3E0,1.3E1,1.3E1,7E0,9E0,4.3E1,8.4E1,8E0,2.7E1,1.1E1,3E0,5E0,1.4E1,7E0,9E0,5E0,3.1E1,6.3E1,1.1E1,5E0,2.2E1,7E0,3.8E1,4.7E1,1.7E1,2.5E1,4.8E1,3E0,1.3E1,5E0,4E0,2.2E1,6E0,3E0,4E0,3E0,4E0,6E0,5E0],"tree_param":{"num_deleted":"0","num_feature":"23","num_nodes":"199","size_leaf_vector":"1"}},{"base_weights":[-1.3002731E-1,-2.8807254E0,2.8224924E0,-1.5149779E0,-8.088301E0,4.098395E0,-2.0378697E0,-4.819063E0,7.334817E-2,-1.2296545E1,-6.8217525E0,1.1493101E0,5.2680326E0,-8.126288E0,3.0532533E-1,-8.975901E0,-3.1401825E0,2.1859803E0,-1.865183E0,-6.4697415E-1,-1.3825179E1,-3.8639812E0,-8.202984E0,-3.0341792E0,2.6610806E0,6.7984314E0,3.3884213E0,-9.864581E0,-5.50285E0,3.6824212E0,-1.1898252E0,-1.130395E1,-6.338337E0,-1.1778774E0,-4.8323455E0,8.288513E-1,4.991882E0,-1.0706068E1,-1.388669E0,-1.1738714E0,-4.562967E-1,-6.4053445E0,-2.5038755E0,-8.6790305E-1,-7.2219853E0,-5.829773E0,-8.7454605E-1,1.3304929E0,6.0266876E0,5.8965006E0,1.027512E1,5.2214675E0,1.577593E0,-8.512154E-1,-3.8313735E-1,-4.983178E-1,-2.6945722E-1,1.159924E0,5.612818E0,5.8227983E0,-1.8644524E0,-7.477657E0,-1.3226815E1,-7.046571E0,-1.2236013E-1,-3.5726273E0,6.944397E-1,-6.8453236E0,-3.8482006E0,2.696101E0,-9.702142E-1,7.72046E-1,4.0708313E0,-5.0004935E-1,-1.1841989E0,1.2518662E0,-2.4929173E0,-3.697843E0,-6.378992E-1,-6.2303104E-2,-4.2236733E0,-4.251201E0,-7.954138E0,-4.0527E0,-6.6377807E-1,2.1996858E0,-3.6667225E0,3.361068E0,-2.0857276E-1,4.9844184E0,7.467846E-1,7.3050976E0,4.573211E0,5.7376804E0,1.1101115E1,3.3415968E0,6.54172E0,6.3770604E-1,6.178428E0,2.3510036E0,-1.5445215E-1,6.5637565E0,1.9667928E-1,2.3945701E-1,5.757347E-1,-6.805848E-1,-4.4703126E0,-2.5107804E-1,-8.102974E-1,-1.129089E0,-5.275699E-1,-7.487632E-2,-6.2698346E-1,-2.8269652E-2,-4.1316694E-1,4.0027106E-1,1.5710212E-2,-6.390648E-1,-3.2422057E-1,-1.8728238E-1,-4.305014E-1,3.3877403E-1,5.258961E-2,-3.2007092E-1,-2.193582E-2,1.3497372E-1,4.3622577E-1,3.9173308E-1,3.6542166E-2,-8.1904754E-2,-3.111688E-1,-8.349876E-2,-4.3419924E-1,-1.1783138E-1,1.463093E-1,-1.03750266E-1,-4.9141937E-1,-8.0429226E-2,-5.57251E-1,-6.5823615E-1,-2.1438614E-1,-1.721146E-1,-6.234155E-1,7.9525754E-2,2.7524453E-1,-1.6787577E-1,-3.6644983E-1,1.9429274E-1,5.243215E-1,8.762017E-2,-1.581628E-1,1.4190017E-1,4.2389983E-1,6.8881226E-1,4.5863137E-1,1.5764365E-1,4.1857558E-1,6.034916E-1,1.2754509E-1,1.0562481E0,6.9234174E-1,3.6823273E-1,7.460392E-2,5.9077436E-1,2.9327986E-1,-1.6208856E-1,1.1109385E-1,6.312746E-1,2.7836457E-1,9.0769716E-2,3.6000898E-1,6.0916233E-1,2.5195673E-1,-1.5593092E-1,4.5228235E-2,-4.1270396E-1,-8.78158E-2],"categories":[],"categories_nodes":[],"categories_segments":[],"categories_sizes":[],"default_left":[0,0,0,0,0,0,0,0,0,0,0,0,0,0,0,0,0,0,0,0,0,0,0,0,0,0,0,0,0,0,0,0,0,0,0,0,0,0,0,0,0,0,0,0,0,0,0,0,0,0,0,0,0,0,0,0,0,0,0,0,0,0,0,0,0,0,0,0,0,0,0,0,0,0,0,0,0,0,0,0,0,0,0,0,0,0,0,0,0,0,0,0,0,0,0,0,0,0,0,0,0,0,0,0,0,0,0,0,0,0,0,0,0,0,0,0,0,0,0,0,0,0,0,0,0,0,0,0,0,0,0,0,0,0,0,0,0,0,0,0,0,0,0,0,0,0,0,0,0,0,0,0,0,0,0,0,0,0,0,0,0,0,0,0,0,0,0,0,0,0,0,0,0,0,0,0,0],"id":7,"left_children":[1,3,5,7,9,11,13,15,17,19,21,23,25,27,29,31,33,35,37,-1,39,41,43,45,47,49,51,53,55,57,59,61,63,65,67,69,71,73,75,-1,-1,77,79,-1,81,83,85,87,89,91,93,95,97,-1,-1,-1,-1,99,101,103,105,107,109,111,-1,113,115,117,119,121,123,-1,125,-1,-1,127,129,131,-1,133,135,137,139,141,-1,143,145,147,149,151,-1,153,155,157,159,161,163,165,167,169,-1,171,-1,-1,-1,173,175,-1,-1,-1,-1,-1,-1,-1,-1,-1,-1,-1,-1,-1,-1,-1,-1,-1,-1,-1,-1,-1,-1,-1,-1,-1,-1,-1,-1,-1,-1,-1,-1,-1,-1,-1,-1,-1,-1,-1,-1,-1,-1,-1,-1,-1,-1,-1,-1,-1,-1,-1,-1,-1,-1,-1,-1,-1,-1,-1,-1,-1,-1,-1,-1,-1,-1,-1,-1,-1,-1],"loss_changes":[1.2174122E4,5.506839E3,4.4919263E3,3.2331E3,7.742373E2,1.9704297E3,2.1567004E3,1.3675806E3,1.7118606E3,1.1983789E2,4.8306055E2,1.0452881E3,1.1563516E3,1.3724951E2,5.598007E2,2.7835352E2,4.724657E2,7.574566E2,9.0352454E2,0E0,8.852637E1,1.291358E2,1.4227002E2,2.6054968E2,5.3384796E2,6.4495215E2,6.091587E2,4.3518066E1,8.469543E0,1.5904987E2,3.7513614E2,1.1446045E2,8.798987E1,3.073747E2,1.26199585E2,4.5948123E2,2.3962195E2,1.0824048E2,6.096086E2,0E0,0E0,2.9964417E1,1.2150821E2,0E0,1.075647E2,4.9685852E1,2.3124437E2,2.7571762E2,7.070178E1,3.0397266E2,1.0496094E2,2.0647534E2,4.068651E2,0E0,0E0,0E0,0E0,6.3436928E1,4.085492E1,5.6714783E0,2.1599214E2,1.062525E2,1.2791504E1,1.1345972E2,0E0,1.5192279E2,8.271628E1,4.4230103E1,1.1217438E2,2.0737778E2,1.4656082E2,0E0,1.752752E2,0E0,0E0,1.7743552E2,2.97646E2,2.6469849E1,0E0,3.7373344E1,8.751785E1,1.2515622E2,5.160376E1,7.567406E1,0E0,1.6027988E1,1.0453293E1,9.721362E1,1.1975938E2,1.885913E1,0E0,1.27095215E2,1.543407E2,5.5318024E1,7.603613E1,1.1725003E2,1.01406006E2,1.628485E2,4.649231E1,2.6263725E1,0E0,2.6245483E1,0E0,0E0,0E0,8.012878E1,4.5421234E1,0E0,0E0,0E0,0E0,0E0,0E0,0E0,0E0,0E0,0E0,0E0,0E0,0E0,0E0,0E0,0E0,0E0,0E0,0E0,0E0,0E0,0E0,0E0,0E0,0E0,0E0,0E0,0E0,0E0,0E0,0E0,0E0,0E0,0E0,0E0,0E0,0E0,0E0,0E0,0E0,0E0,0E0,0E0,0E0,0E0,0E0,0E0,0E0,0E0,0E0,0E0,0E0,0E0,0E0,0E0,0E0,0E0,0E0,0E0,0E0,0E0,0E0,0E0,0E0,0E0,0E0,0E0,0E0,0E0,0E0],"parents":[2147483647,0,0,1,1,2,2,3,3,4,4,5,5,6,6,7,7,8,8,9,9,10,10,11,11,12,12,13,13,14,14,15,15,16,16,17,17,18,18,20,20,21,21,22,22,23,23,24,24,25,25,26,26,27,27,28,28,29,29,30,30,31,31,32,32,33,33,34,34,35,35,36,36,37,37,38,38,41,41,42,42,44,44,45,45,46,46,47,47,48,48,49,49,50,50,51,51,52,52,57,57,58,58,59,59,60,60,61,61,62,62,63,63,65,65,66,66,67,67,68,68,69,69,70,70,72,72,75,75,76,76,77,77,79,79,80,80,81,81,82,82,83,83,85,85,86,86,87,87,88,88,89,89,91,91,92,92,93,93,94,94,95,95,96,96,97,97,98,98,99,99,101,101,105,105,106,106],"right_children":[2,4,6,8,10,12,14,16,18,20,22,24,26,28,30,32,34,36,38,-1,40,42,44,46,48,50,52,54,56,58,60,62,64,66,68,70,72,74,76,-1,-1,78,80,-1,82,84,86,88,90,92,94,96,98,-1,-1,-1,-1,100,102,104,106,108,110,112,-1,114,116,118,120,122,124,-1,126,-1,-1,128,130,132,-1,134,136,138,140,142,-1,144,146,148,150,152,-1,154,156,158,160,162,164,166,168,170,-1,172,-1,-1,-1,174,176,-1,-1,-1,-1,-1,-1,-1,-1,-1,-1,-1,-1,-1,-1,-1,-1,-1,-1,-1,-1,-1,-1,-1,-1,-1,-1,-1,-1,-1,-1,-1,-1,-1,-1,-1,-1,-1,-1,-1,-1,-1,-1,-1,-1,-1,-1,-1,-1,-1,-1,-1,-1,-1,-1,-1,-1,-1,-1,-1,-1,-1,-1,-1,-1,-1,-1,-1,-1,-1,-1],"split_conditions":[8.159817E-2,1E0,1E0,1E0,1E0,1E0,1E0,1E0,1E0,-5.9523857E-1,-4.4846538E-1,1E0,1E0,6.2129647E-1,1E0,-5.471164E-1,-8.145911E-3,-2.310595E-1,-2.049419E0,-6.4697415E-1,8.1471026E-2,-1.0860146E0,-1.1402392E0,7.103127E-1,1.0695782E0,1.3390273E0,1E0,1E0,8.163961E-1,7.103127E-1,-1.1823312E0,6.5240666E-2,1.100361E0,-8.561206E-1,-7.267491E-1,6.5240666E-2,-1.4758775E0,1E0,-5.2185196E-1,-1.1738714E0,-4.562967E-1,1E0,1E0,-8.6790305E-1,1E0,1E0,2.1201383E-1,-2.2830565E-1,2.0575583E0,1E0,-4.4846538E-1,4.224134E-1,1.5186601E0,-8.512154E-1,-3.8313735E-1,-4.983178E-1,-2.6945722E-1,7.2292185E-1,6.5240666E-2,-1.0029608E0,1E0,1E0,-4.867663E-1,-1.0490205E0,-1.2236013E-1,1E0,-1.7694238E0,-8.561206E-1,1E0,1E0,-1.5350964E0,7.72046E-1,-3.2982567E-1,-5.0004935E-1,-1.1841989E0,-1.6960372E0,1E0,1E0,-6.378992E-1,1.5173557E-1,-8.153983E-1,1E0,2.2353035E-1,7.2571987E-1,-6.6377807E-1,1.6982929E0,1E0,1.4151719E0,1E0,1.3829476E-1,7.467846E-1,-8.145911E-3,-2.5947136E-1,-8.647818E-1,1E0,4.3217355E-1,1E0,-6.0588304E-2,1E0,2.196696E-1,-1.5445215E-1,1.100361E0,1.9667928E-1,2.3945701E-1,5.757347E-1,6.204964E-1,1.0190626E0,-2.5107804E-1,-8.102974E-1,-1.129089E0,-5.275699E-1,-7.487632E-2,-6.2698346E-1,-2.8269652E-2,-4.1316694E-1,4.0027106E-1,1.5710212E-2,-6.390648E-1,-3.2422057E-1,-1.8728238E-1,-4.305014E-1,3.3877403E-1,5.258961E-2,-3.2007092E-1,-2.193582E-2,1.3497372E-1,4.3622577E-1,3.9173308E-1,3.6542166E-2,-8.1904754E-2,-3.111688E-1,-8.349876E-2,-4.3419924E-1,-1.1783138E-1,1.463093E-1,-1.03750266E-1,-4.9141937E-1,-8.0429226E-2,-5.57251E-1,-6.5823615E-1,-2.1438614E-1,-1.721146E-1,-6.234155E-1,7.9525754E-2,2.7524453E-1,-1.6787577E-1,-3.6644983E-1,1.9429274E-1,5.243215E-1,8.762017E-2,-1.581628E-1,1.4190017E-1,4.2389983E-1,6.8881226E-1,4.5863137E-1,1.5764365E-1,4.1857558E-1,6.034916E-1,1.2754509E-1,1.0562481E0,6.9234174E-1,3.6823273E-1,7.460392E-2,5.9077436E-1,2.9327986E-1,-1.6208856E-1,1.1109385E-1,6.312746E-1,2.7836457E-1,9.0769716E-2,3.6000898E-1,6.0916233E-1,2.5195673E-1,-1.5593092E-1,4.5228235E-2,-4.1270396E-1,-8.78158E-2],"split_indices":[1,11,11,8,21,8,21,21,12,0,0,21,6,3,8,1,0,3,3,0,3,1,3,1,1,1,12,16,4,1,0,0,2,3,1,0,0,6,0,0,0,14,6,0,8,6,0,0,1,12,0,3,1,0,0,0,0,2,0,4,6,6,3,4,0,6,0,3,6,6,1,0,5,0,0,0,6,6,0,5,0,14,3,0,0,1,6,4,6,3,0,0,3,4,12,0,20,3,14,2,0,2,0,0,0,1,3,0,0,0,0,0,0,0,0,0,0,0,0,0,0,0,0,0,0,0,0,0,0,0,0,0,0,0,0,0,0,0,0,0,0,0,0,0,0,0,0,0,0,0,0,0,0,0,0,0,0,0,0,0,0,0,0,0,0,0,0,0,0,0,0,0,0,0,0,0,0],"split_type":[0,0,0,0,0,0,0,0,0,0,0,0,0,0,0,0,0,0,0,0,0,0,0,0,0,0,0,0,0,0,0,0,0,0,0,0,0,0,0,0,0,0,0,0,0,0,0,0,0,0,0,0,0,0,0,0,0,0,0,0,0,0,0,0,0,0,0,0,0,0,0,0,0,0,0,0,0,0,0,0,0,0,0,0,0,0,0,0,0,0,0,0,0,0,0,0,0,0,0,0,0,0,0,0,0,0,0,0,0,0,0,0,0,0,0,0,0,0,0,0,0,0,0,0,0,0,0,0,0,0,0,0,0,0,0,0,0,0,0,0,0,0,0,0,0,0,0,0,0,0,0,0,0,0,0,0,0,0,0,0,0,0,0,0,0,0,0,0,0,0,0,0,0,0,0,0,0],"sum_hessian":[1.497E3,7.75E2,7.22E2,6.15E2,1.6E2,5.72E2,1.5E2,1.99E2,4.16E2,3.5E1,1.25E2,1.63E2,4.09E2,4.1E1,1.09E2,5.6E1,1.43E2,1.99E2,2.17E2,1.1E1,2.4E1,4.1E1,8.4E1,4.3E1,1.2E2,2.24E2,1.85E2,2.3E1,1.8E1,3.3E1,7.6E1,2.8E1,2.8E1,6.7E1,7.6E1,1.35E2,6.4E1,1E1,2.07E2,2.1E1,3E0,1.3E1,2.8E1,2E1,6.4E1,1.8E1,2.5E1,8.7E1,3.3E1,1.8E2,4.4E1,9.1E1,9.4E1,1.9E1,4E0,1.2E1,6E0,1.5E1,1.8E1,6E0,7E1,1.1E1,1.7E1,2.4E1,4E0,2.9E1,3.8E1,2.3E1,5.3E1,6.6E1,6.9E1,9E0,5.5E1,6E0,4E0,6.1E1,1.46E2,6E0,7E0,1.2E1,1.6E1,1.4E1,5E1,1.2E1,6E0,1.2E1,1.3E1,3.7E1,5E1,2.7E1,6E0,8.5E1,9.5E1,8E0,3.6E1,3.9E1,5.2E1,7.9E1,1.5E1,1.1E1,4E0,1.3E1,5E0,3E0,3E0,4.9E1,2.1E1,5E0,6E0,1.4E1,3E0,3E0,2.1E1,1E1,1.9E1,3E0,3.5E1,1.5E1,8E0,2.8E1,2.5E1,3.7E1,2.9E1,1.2E1,5.7E1,2.1E1,3.4E1,1E1,5.1E1,7.2E1,7.4E1,3E0,3E0,7E0,5E0,7E0,9E0,7E0,7E0,4.7E1,3E0,9E0,3E0,7E0,5E0,6E0,7E0,3E1,7E0,2.9E1,2.1E1,3E0,2.4E1,4.4E1,4.1E1,2E1,7.5E1,5E0,3E0,1.7E1,1.9E1,2.5E1,1.4E1,3.9E1,1.3E1,1.7E1,6.2E1,8E0,7E0,8E0,3E0,9E0,4E0,2.4E1,2.5E1,1.7E1,4E0],"tree_param":{"num_deleted":"0","num_feature":"23","num_nodes":"177","size_leaf_vector":"1"}},{"base_weights":[-9.7968586E-2,-2.3019433E0,2.5914938E0,-4.234851E0,8.8919204E-1,9.8732126E-1,5.2039046E0,-8.3482485E0,-2.752817E0,-3.7780912E0,2.7605698E0,-2.0787451E0,2.0697732E0,1.5376953E0,6.6618457E0,-1.21727085E1,-6.911841E0,-1.0487123E0,-4.6446114E0,-3.0483317E0,-8.555716E-1,4.38309E0,9.242916E-1,-3.1830375E0,8.9851624E-1,3.172984E0,5.998609E-1,3.859895E0,-1.9194541E0,5.900323E0,9.999504E0,-1.2843092E1,-3.0131674E-1,-1.024893E1,-5.767078E0,-5.050932E0,-1.8290609E-1,-1.0179205E1,-4.1775727E0,-7.2991934E0,-2.4824948E0,3.2447135E-1,5.0767474E0,-4.054634E-1,3.447314E0,-5.4498606E0,-2.0326593E0,3.9475744E0,-1.3534989E0,4.5499086E0,2.1085606E0,-3.99361E-1,2.3568192E0,-4.9578997E-1,5.155561E0,-4.4537363E0,9.117437E-1,7.0759845E0,4.2283354E0,4.3143156E-1,8.684119E-1,-9.360722E0,-1.202525E0,-1.07991495E1,-3.8384375E-1,-2.5009031E0,-6.968692E0,1.8419866E-1,-6.0740337E0,-4.4657226E0,4.8191696E-1,-9.2163414E-1,-3.4250793E-1,-2.3400438E0,-5.2430987E0,-7.0939755E-1,-2.4975845E-1,-3.7855673E0,-1.3128208E0,-2.8070607E0,2.124159E0,8.152191E0,4.3856716E0,1.2582262E0,-2.4854128E0,-4.064925E-1,4.231625E0,-3.0856926E0,-6.0613334E-1,-1.587012E0,-4.8660788E-1,2.548584E-2,5.525067E0,-3.3808875E-1,8.5871786E-1,6.9083947E-1,5.7564416E0,5.848553E-1,3.8143377E0,-9.717709E-1,3.99089E0,3.7379158E0,8.1997633E-1,-2.1848412E0,2.405008E-1,-1.7828369E-3,5.6573615E0,-1.1399757E0,-7.6249995E0,2.2890544E0,-1.2285853E-1,5.5598536E0,8.160424E0,4.688672E0,8.9420193E-1,-3.6476448E-1,-8.5536754E-1,-1.0304148E0,-6.189097E-1,-3.7142918E-1,1.46231E-1,-6.0408777E-1,-7.63091E-2,-6.3784105E-1,-3.0363417E-1,-5.3362787E-1,2.0200022E-1,1.1541244E-1,-1.2968537E-1,-2.4438736E-1,1.7670009E-1,-4.54049E-1,-1.6705172E-1,-3.433544E-1,-9.754564E-2,2.2367931E-4,-2.102862E-1,-9.336441E-2,-2.996241E-1,3.399934E-1,-1.0964529E-4,3.3072233E-1,6.9743496E-1,2.2601935E-1,4.3717003E-1,2.0690729E-1,-1.2775625E-1,-3.1844383E-1,-3.0845337E-2,-2.198294E-1,1.6292045E-1,7.0959404E-2,4.3260294E-1,6.535657E-2,-3.7827587E-1,-3.0459452E-1,-5.631689E-2,5.5392385E-1,2.416858E-1,-1.1061363E-1,1.4976577E-1,1.1416988E-1,-1.9416054E-1,4.0400058E-1,7.170384E-1,1.814221E-1,-7.553102E-2,-2.8481169E-2,3.9608654E-1,5.323341E-2,-1.6915192E-1,4.4523814E-1,1.04256645E-1,1.8530138E-1,4.06801E-1,2.2794335E-1,-6.664444E-2,-9.66546E-2,-2.2875632E-1,2.5176463E-1,5.114946E-1,-2.3028648E-1,1.6727243E-2,-7.758131E-1,-3.5534942E-1,4.4877067E-2,3.1239623E-1,7.8613824E-1,3.7146807E-1,7.297996E-1,4.6955526E-1,2.14168E-1,4.5854786E-1,1.696168E-1,-4.0851746E-2],"categories":[],"categories_nodes":[],"categories_segments":[],"categories_sizes":[],"default_left":[0,0,0,0,0,0,0,0,0,0,0,0,0,0,0,0,0,0,0,0,0,0,0,0,0,0,0,0,0,0,0,0,0,0,0,0,0,0,0,0,0,0,0,0,0,0,0,0,0,0,0,0,0,0,0,0,0,0,0,0,0,0,0,0,0,0,0,0,0,0,0,0,0,0,0,0,0,0,0,0,0,0,0,0,0,0,0,0,0,0,0,0,0,0,0,0,0,0,0,0,0,0,0,0,0,0,0,0,0,0,0,0,0,0,0,0,0,0,0,0,0,0,0,0,0,0,0,0,0,0,0,0,0,0,0,0,0,0,0,0,0,0,0,0,0,0,0,0,0,0,0,0,0,0,0,0,0,0,0,0,0,0,0,0,0,0,0,0,0,0,0,0,0,0,0,0,0,0,0,0,0,0,0,0,0,0,0,0,0,0,0,0,0,0,0],"id":8,"left_children":[1,3,5,7,9,11,13,15,17,19,21,23,25,27,29,31,33,35,37,39,-1,41,43,45,47,49,51,53,55,57,59,61,-1,63,65,67,69,71,73,75,77,79,81,83,85,87,89,91,93,95,97,99,101,103,105,107,109,111,113,-1,-1,115,-1,117,-1,119,121,-1,123,125,127,-1,-1,129,131,-1,-1,133,135,137,139,141,143,145,147,149,151,153,-1,155,-1,-1,157,-1,159,161,163,165,167,169,171,173,175,177,-1,-1,179,181,183,185,-1,187,189,191,193,-1,-1,-1,-1,-1,-1,-1,-1,-1,-1,-1,-1,-1,-1,-1,-1,-1,-1,-1,-1,-1,-1,-1,-1,-1,-1,-1,-1,-1,-1,-1,-1,-1,-1,-1,-1,-1,-1,-1,-1,-1,-1,-1,-1,-1,-1,-1,-1,-1,-1,-1,-1,-1,-1,-1,-1,-1,-1,-1,-1,-1,-1,-1,-1,-1,-1,-1,-1,-1,-1,-1,-1,-1,-1,-1,-1,-1,-1,-1,-1],"loss_changes":[8.725329E3,4.9938145E3,2.7733345E3,3.049502E3,2.6831104E3,1.3716769E3,1.3367256E3,6.464971E2,1.1943887E3,4.1157227E2,6.48437E2,3.5793884E2,4.9269165E2,5.9346686E2,3.9850635E2,1.4886621E2,3.190913E2,6.8171E2,4.124121E2,1.7670856E2,0E0,3.2492603E2,3.5031793E2,1.9493097E2,2.1133879E2,2.454259E2,2.3267924E2,2.5087054E2,2.1931229E2,2.6296924E2,6.759131E1,1.0316797E2,0E0,2.0165283E1,2.8084766E2,2.7730066E2,4.662645E2,5.3511475E1,3.0883252E2,3.1275116E1,1.0629465E2,1.07406685E2,1.7465845E2,2.4189412E2,1.1053314E2,1.0735205E2,8.7808426E1,7.2661255E1,1.180161E2,3.4523035E2,2.5767932E2,2.174852E2,9.8816376E1,7.163475E1,8.846655E1,1.5944858E2,5.407939E1,9.602637E1,9.403613E1,0E0,0E0,4.7131104E1,0E0,3.420288E1,0E0,2.1247287E2,1.8546606E2,0E0,1.0387683E2,3.559051E2,2.8923798E2,0E0,0E0,2.083386E2,1.2869824E2,0E0,0E0,3.894815E1,6.924861E1,6.4000664E0,5.4226177E1,2.6052246E0,1.2430249E2,1.5201852E2,9.579138E1,4.563587E1,1.1319336E2,9.361833E1,0E0,9.53569E1,0E0,0E0,1.0609314E1,0E0,2.7572987E1,4.708043E1,8.385388E1,1.4109253E2,2.2457202E2,1.4357996E2,3.506691E1,3.6099182E1,8.288217E1,1.8161926E0,0E0,0E0,3.717871E1,2.171133E1,9.704773E0,2.5733665E1,0E0,1.068844E2,5.225244E1,1.0216699E2,1.6583885E1,0E0,0E0,0E0,0E0,0E0,0E0,0E0,0E0,0E0,0E0,0E0,0E0,0E0,0E0,0E0,0E0,0E0,0E0,0E0,0E0,0E0,0E0,0E0,0E0,0E0,0E0,0E0,0E0,0E0,0E0,0E0,0E0,0E0,0E0,0E0,0E0,0E0,0E0,0E0,0E0,0E0,0E0,0E0,0E0,0E0,0E0,0E0,0E0,0E0,0E0,0E0,0E0,0E0,0E0,0E0,0E0,0E0,0E0,0E0,0E0,0E0,0E0,0E0,0E0,0E0,0E0,0E0,0E0,0E0,0E0,0E0,0E0,0E0,0E0,0E0,0E0,0E0,0E0,0E0,0E0],"parents":[2147483647,0,0,1,1,2,2,3,3,4,4,5,5,6,6,7,7,8,8,9,9,10,10,11,11,12,12,13,13,14,14,15,15,16,16,17,17,18,18,19,19,21,21,22,22,23,23,24,24,25,25,26,26,27,27,28,28,29,29,30,30,31,31,33,33,34,34,35,35,36,36,37,37,38,38,39,39,40,40,41,41,42,42,43,43,44,44,45,45,46,46,47,47,48,48,49,49,50,50,51,51,52,52,53,53,54,54,55,55,56,56,57,57,58,58,61,61,63,63,65,65,66,66,68,68,69,69,70,70,73,73,74,74,77,77,78,78,79,79,80,80,81,81,82,82,83,83,84,84,85,85,86,86,87,87,89,89,92,92,94,94,95,95,96,96,97,97,98,98,99,99,100,100,101,101,102,102,103,103,106,106,107,107,108,108,109,109,111,111,112,112,113,113,114,114],"right_children":[2,4,6,8,10,12,14,16,18,20,22,24,26,28,30,32,34,36,38,40,-1,42,44,46,48,50,52,54,56,58,60,62,-1,64,66,68,70,72,74,76,78,80,82,84,86,88,90,92,94,96,98,100,102,104,106,108,110,112,114,-1,-1,116,-1,118,-1,120,122,-1,124,126,128,-1,-1,130,132,-1,-1,134,136,138,140,142,144,146,148,150,152,154,-1,156,-1,-1,158,-1,160,162,164,166,168,170,172,174,176,178,-1,-1,180,182,184,186,-1,188,190,192,194,-1,-1,-1,-1,-1,-1,-1,-1,-1,-1,-1,-1,-1,-1,-1,-1,-1,-1,-1,-1,-1,-1,-1,-1,-1,-1,-1,-1,-1,-1,-1,-1,-1,-1,-1,-1,-1,-1,-1,-1,-1,-1,-1,-1,-1,-1,-1,-1,-1,-1,-1,-1,-1,-1,-1,-1,-1,-1,-1,-1,-1,-1,-1,-1,-1,-1,-1,-1,-1,-1,-1,-1,-1,-1,-1,-1,-1,-1,-1,-1],"split_conditions":[1.0988289E-1,1E0,1E0,1E0,1E0,1E0,1E0,-1.0265918E0,1E0,1.3861991E0,6.5240666E-2,1.1042982E0,1E0,1E0,1.4452406E0,1.0697243E0,1E0,-1.4527698E0,-1.5948291E0,1E0,-8.555716E-1,1E0,-3.4470698E-1,1E0,1E0,1E0,1.0474745E0,4.224134E-1,8.201795E-1,1E0,1E0,-8.145911E-3,-3.0131674E-1,1E0,-6.686251E-1,-1.1089445E0,1E0,1.2024146E0,-1.5491907E-1,8.72493E-1,-7.70885E-1,-6.288256E-1,-1.4758775E0,1E0,1E0,1E0,1.0190626E0,1E0,4.9397844E-1,-8.1138694E-1,8.485914E-1,1E0,1E0,4.9397844E-1,1E0,1E0,1.4452406E0,2.0400686E-2,1.161122E0,4.3143156E-1,8.684119E-1,-1.6800647E0,-1.202525E0,2.636801E-1,-3.8384375E-1,-1.4582391E-1,1.530321E0,1.8419866E-1,-1.984908E-1,-3.162951E-1,4.3217355E-1,-9.2163414E-1,-3.4250793E-1,1.3337495E0,1E0,-7.0939755E-1,-2.4975845E-1,1E0,-2.2830565E-1,-2.660061E-1,1E0,-1.1118274E0,-2.4226908E-1,1.0192662E0,2.1762043E-1,-2.0264764E-1,-7.7266246E-1,-5.9523857E-1,-6.0613334E-1,1E0,-4.8660788E-1,2.548584E-2,1.3884169E0,-3.3808875E-1,1.3315932E0,1.0006348E0,1.0697243E0,-8.1532486E-2,1E0,6.5240666E-2,6.4970833E-1,-3.1206578E-1,-5.2185196E-1,-4.9630445E-1,2.405008E-1,-1.7828369E-3,-3.1206578E-1,1E0,1E0,1.161122E0,-1.2285853E-1,-1.6226506E0,3.7882927E-1,1E0,-1.0490205E0,-3.6476448E-1,-8.5536754E-1,-1.0304148E0,-6.189097E-1,-3.7142918E-1,1.46231E-1,-6.0408777E-1,-7.63091E-2,-6.3784105E-1,-3.0363417E-1,-5.3362787E-1,2.0200022E-1,1.1541244E-1,-1.2968537E-1,-2.4438736E-1,1.7670009E-1,-4.54049E-1,-1.6705172E-1,-3.433544E-1,-9.754564E-2,2.2367931E-4,-2.102862E-1,-9.336441E-2,-2.996241E-1,3.399934E-1,-1.0964529E-4,3.3072233E-1,6.9743496E-1,2.2601935E-1,4.3717003E-1,2.0690729E-1,-1.2775625E-1,-3.1844383E-1,-3.0845337E-2,-2.198294E-1,1.6292045E-1,7.0959404E-2,4.3260294E-1,6.535657E-2,-3.7827587E-1,-3.0459452E-1,-5.631689E-2,5.5392385E-1,2.416858E-1,-1.1061363E-1,1.4976577E-1,1.1416988E-1,-1.9416054E-1,4.0400058E-1,7.170384E-1,1.814221E-1,-7.553102E-2,-2.8481169E-2,3.9608654E-1,5.323341E-2,-1.6915192E-1,4.4523814E-1,1.04256645E-1,1.8530138E-1,4.06801E-1,2.2794335E-1,-6.664444E-2,-9.66546E-2,-2.2875632E-1,2.5176463E-1,5.114946E-1,-2.3028648E-1,1.6727243E-2,-7.758131E-1,-3.5534942E-1,4.4877067E-2,3.1239623E-1,7.8613824E-1,3.7146807E-1,7.297996E-1,4.6955526E-1,2.14168E-1,4.5854786E-1,1.696168E-1,-4.0851746E-2],"split_indices":[3,13,13,21,8,21,8,3,6,0,0,3,6,6,3,4,17,3,3,17,0,17,3,8,14,14,3,3,3,6,17,0,0,16,0,0,17,5,0,0,3,3,0,6,17,6,3,8,4,5,3,16,14,4,17,14,3,5,3,0,0,3,0,4,0,3,4,0,5,3,0,0,0,5,16,0,0,16,0,4,14,3,5,0,4,3,4,0,0,19,0,0,3,0,3,4,4,0,17,0,3,4,0,4,0,0,4,21,17,3,0,0,4,19,4,0,0,0,0,0,0,0,0,0,0,0,0,0,0,0,0,0,0,0,0,0,0,0,0,0,0,0,0,0,0,0,0,0,0,0,0,0,0,0,0,0,0,0,0,0,0,0,0,0,0,0,0,0,0,0,0,0,0,0,0,0,0,0,0,0,0,0,0,0,0,0,0,0,0,0,0,0,0,0,0],"split_type":[0,0,0,0,0,0,0,0,0,0,0,0,0,0,0,0,0,0,0,0,0,0,0,0,0,0,0,0,0,0,0,0,0,0,0,0,0,0,0,0,0,0,0,0,0,0,0,0,0,0,0,0,0,0,0,0,0,0,0,0,0,0,0,0,0,0,0,0,0,0,0,0,0,0,0,0,0,0,0,0,0,0,0,0,0,0,0,0,0,0,0,0,0,0,0,0,0,0,0,0,0,0,0,0,0,0,0,0,0,0,0,0,0,0,0,0,0,0,0,0,0,0,0,0,0,0,0,0,0,0,0,0,0,0,0,0,0,0,0,0,0,0,0,0,0,0,0,0,0,0,0,0,0,0,0,0,0,0,0,0,0,0,0,0,0,0,0,0,0,0,0,0,0,0,0,0,0,0,0,0,0,0,0,0,0,0,0,0,0,0,0,0,0,0,0],"sum_hessian":[1.47E3,8.08E2,6.62E2,5.03E2,3.05E2,4.11E2,2.51E2,1.32E2,3.71E2,8.7E1,2.18E2,1.07E2,3.04E2,7.2E1,1.79E2,3.4E1,9.8E1,1.96E2,1.75E2,8E1,7E0,1.15E2,1.03E2,7.8E1,2.9E1,1.73E2,1.31E2,4.3E1,2.9E1,1.48E2,3.1E1,3.1E1,3E0,2.3E1,7.5E1,3.4E1,1.62E2,1.2E1,1.63E2,8E0,7.2E1,1.7E1,9.8E1,6.8E1,3.5E1,2.5E1,5.3E1,1.2E1,1.7E1,7.4E1,9.9E1,8.4E1,4.7E1,1E1,3.3E1,1.5E1,1.4E1,8.5E1,6.3E1,6E0,2.5E1,1.4E1,1.7E1,2E1,3E0,2.1E1,5.4E1,4E0,3E1,2.1E1,1.41E2,9E0,3E0,6.1E1,1.02E2,5E0,3E0,3.3E1,3.9E1,6E0,1.1E1,1.6E1,8.2E1,3.8E1,3E1,6E0,2.9E1,1.3E1,1.2E1,4.9E1,4E0,4E0,8E0,7E0,1E1,1.8E1,5.6E1,5.3E1,4.6E1,7.5E1,9E0,2.4E1,2.3E1,7E0,3E0,3E0,3E1,8E0,7E0,9E0,5E0,3.8E1,4.7E1,5.5E1,8E0,4E0,1E1,1E1,1E1,1.4E1,7E0,4.9E1,5E0,1.5E1,1.5E1,1.6E1,5E0,9.7E1,4.4E1,5.3E1,8E0,8.9E1,1.3E1,2.7E1,6E0,2E1,1.9E1,3E0,3E0,5E0,6E0,3E0,1.3E1,3.5E1,4.7E1,2.6E1,1.2E1,1.7E1,1.3E1,3E0,3E0,8E0,2.1E1,4E0,9E0,1.3E1,3.6E1,4E0,4E0,3E0,7E0,1.5E1,3E0,4.8E1,8E0,2.5E1,2.8E1,1E1,3.6E1,3.1E1,4.4E1,5E0,4E0,1.3E1,1.1E1,1E1,1.3E1,4E0,3E0,8E0,2.2E1,3E0,5E0,3E0,4E0,5E0,4E0,5E0,3.3E1,3.1E1,1.6E1,2E1,3.5E1,4E0,4E0],"tree_param":{"num_deleted":"0","num_feature":"23","num_nodes":"195","size_leaf_vector":"1"}},{"base_weights":[4.068766E-2,-2.623406E0,2.371302E0,-1.4963132E0,-6.957018E0,3.484143E0,-2.0948842E0,-4.720491E0,2.0379205E-1,-1.0541343E1,-5.7093782E0,7.5216085E-1,4.6533136E0,-6.8112583E0,-4.6599892E-1,-7.800376E0,-3.4587936E0,3.3205345E0,-7.1102566E-1,-6.1293273E0,-1.2002528E1,-3.6809556E0,-7.7831655E0,-1.9914412E0,1.7253884E0,2.9669628E0,6.2387815E0,-3.978588E0,-7.8462048E0,-2.7961185E0,1.4189631E0,-5.2644105E0,-1.1099789E1,-5.252503E0,-1.7897034E0,1.2146261E0,4.9077277E0,-2.5833137E0,1.1662697E0,-6.0149103E-1,-2.3667407E-1,-1.0202357E0,-5.040151E-1,-4.247649E0,3.911714E-1,-9.589604E0,-6.39776E0,-5.2804923E0,-3.7398368E-2,8.454234E-1,4.317356E0,1.4002967E0,4.247793E0,4.6636786E0,7.4575067E0,-4.904819E0,-1.2125238E-1,-9.562256E0,-5.6070733E0,6.09463E-1,-4.0033083E0,7.654696E-2,4.161335E0,-6.616319E0,-1.9591103E0,-1.1649166E0,-6.2674606E-1,-9.545147E0,-4.220426E0,-5.659382E-1,-1.1220382E0,-7.9927915E-1,2.787091E0,7.1243033E0,2.8434045E0,-5.6033163E0,-1.7924069E0,-1.4217582E-1,2.2416887E0,-1.799241E0,-5.14321E0,-8.71806E-1,-3.602732E-1,-2.4619071E-1,-6.8807774E0,-6.4631314E0,-5.4118164E-2,-4.2056137E-1,6.5979743E-1,2.5866268E0,-3.9206988E-1,2.9398959E0,6.0498066E0,6.191446E-1,4.697885E0,3.1116817E0,5.887133E0,5.4456296E0,2.3746793E0,6.772223E0,1.0819427E1,-4.763041E-1,-2.2998981E-1,-3.416782E-1,-8.4233284E-1,-5.3593564E-1,-2.2818853E-1,2.2096644E-1,-1.6193376E0,-4.7945013E0,-7.45366E-1,-3.2698772E0,6.602575E-1,-1.0816772E-1,5.1030397E0,-7.060939E-1,-3.8794547E-1,-2.639542E-1,9.690414E-2,-3.6283723E-1,-9.186443E-1,-1.9585937E-1,-4.2621538E-1,1.8701978E-1,-1.6118187E-1,5.5828854E-2,-1.766088E-1,-4.477893E-2,2.8860044E-1,2.6023382E-1,6.457277E-1,-8.580453E-3,2.9871723E-1,-5.3739995E-1,-1.4711186E-1,-7.3347956E-2,-3.6637518E-1,-2.5230694E-1,1.7403973E-2,9.5258616E-2,2.972182E-1,1.01523794E-1,-2.3422061E-1,-4.4330665E-1,-1.623982E-1,-2.8972623E-1,-5.9454715E-1,-6.0795915E-1,-3.263036E-1,-7.761269E-2,2.2927247E-1,2.700019E-2,3.6324382E-1,-2.4685208E-1,1.8015608E-2,2.9102564E-1,1.2220646E-1,5.471909E-1,1.7336929E-1,-1.7881809E-2,1.8018171E-1,5.1519054E-1,2.2764274E-1,8.45825E-2,3.093583E-1,1.6041593E-1,5.4847413E-1,3.57391E-1,6.3690704E-1,2.9300824E-1,4.8550013E-2,3.3579907E-1,5.8711594E-1,3.7685248E-1,9.296277E-1,7.01416E-4,-2.5997078E-1,-3.1318173E-1,-5.28618E-1,1.549662E-1,-1.9275472E-1,-3.784414E-1,-7.934143E-2,-1.0035167E-3,3.0670622E-1,1.926987E-1,4.9290225E-1],"categories":[],"categories_nodes":[],"categories_segments":[],"categories_sizes":[],"default_left":[0,0,0,0,0,0,0,0,0,0,0,0,0,0,0,0,0,0,0,0,0,0,0,0,0,0,0,0,0,0,0,0,0,0,0,0,0,0,0,0,0,0,0,0,0,0,0,0,0,0,0,0,0,0,0,0,0,0,0,0,0,0,0,0,0,0,0,0,0,0,0,0,0,0,0,0,0,0,0,0,0,0,0,0,0,0,0,0,0,0,0,0,0,0,0,0,0,0,0,0,0,0,0,0,0,0,0,0,0,0,0,0,0,0,0,0,0,0,0,0,0,0,0,0,0,0,0,0,0,0,0,0,0,0,0,0,0,0,0,0,0,0,0,0,0,0,0,0,0,0,0,0,0,0,0,0,0,0,0,0,0,0,0,0,0,0,0,0,0,0,0,0,0,0,0,0,0,0,0,0,0,0,0,0,0,0,0],"id":9,"left_children":[1,3,5,7,9,11,13,15,17,19,21,23,25,27,29,31,33,35,37,39,41,43,45,47,49,51,53,55,57,59,61,63,65,67,69,71,73,75,77,-1,-1,-1,-1,79,-1,81,83,85,87,89,91,93,95,97,99,101,-1,103,105,107,109,111,113,115,117,-1,-1,119,121,-1,123,125,127,129,131,133,135,137,139,141,143,-1,-1,-1,145,147,-1,-1,149,151,153,155,157,159,161,163,165,167,169,171,173,-1,-1,-1,-1,-1,-1,-1,175,177,179,181,183,-1,185,-1,-1,-1,-1,-1,-1,-1,-1,-1,-1,-1,-1,-1,-1,-1,-1,-1,-1,-1,-1,-1,-1,-1,-1,-1,-1,-1,-1,-1,-1,-1,-1,-1,-1,-1,-1,-1,-1,-1,-1,-1,-1,-1,-1,-1,-1,-1,-1,-1,-1,-1,-1,-1,-1,-1,-1,-1,-1,-1,-1,-1,-1,-1,-1,-1,-1,-1,-1,-1,-1,-1,-1],"loss_changes":[9.301055E3,3.403774E3,3.9784531E3,3.048643E3,5.837754E2,2.0407568E3,1.2260149E3,7.191094E2,1.0430676E3,1.585166E2,4.2986108E2,5.187748E2,1.1792881E3,8.8981445E1,5.3103E2,4.0176196E2,4.037527E2,2.7146497E2,9.977119E2,2.6215729E1,3.0911377E1,2.976129E2,7.1288574E1,3.2757678E2,3.2251022E2,4.3350452E2,4.0673242E2,2.2222168E1,5.7815186E1,2.2444382E2,2.4633553E2,1.3449731E2,1.4591162E2,2.5211768E2,2.4962778E2,1.1939909E2,1.94802E2,3.291294E2,2.0013077E2,0E0,0E0,0E0,0E0,1.09151794E2,0E0,9.062793E1,3.1750732E1,9.908069E1,1.2355874E2,2.3372469E2,6.81239E1,2.5468314E2,2.0517773E2,1.7142651E2,2.2162305E2,2.047989E0,0E0,3.1772705E1,2.6018799E1,7.643907E1,9.9532715E1,9.201275E1,1.2112433E2,4.7009705E1,5.0739544E1,0E0,0E0,6.441858E1,9.48819E1,0E0,2.0856238E2,3.7384575E1,5.9680756E1,5.442505E1,6.87218E1,1.0928052E2,2.7400974E2,7.1105255E1,1.163689E2,5.9117302E1,3.708972E1,0E0,0E0,0E0,2.3373535E1,9.645203E0,0E0,0E0,1.1065618E2,1.9622513E2,1.0710469E2,1.6128098E1,3.1191711E1,1.133504E2,4.29841E1,1.09184265E2,1.6677039E2,1.5146753E2,6.1527573E1,1.2824463E2,4.3113525E1,0E0,0E0,0E0,0E0,0E0,0E0,0E0,2.1262857E1,2.5177002E1,4.4841175E1,1.8600914E1,8.545541E1,0E0,3.9332275E1,0E0,0E0,0E0,0E0,0E0,0E0,0E0,0E0,0E0,0E0,0E0,0E0,0E0,0E0,0E0,0E0,0E0,0E0,0E0,0E0,0E0,0E0,0E0,0E0,0E0,0E0,0E0,0E0,0E0,0E0,0E0,0E0,0E0,0E0,0E0,0E0,0E0,0E0,0E0,0E0,0E0,0E0,0E0,0E0,0E0,0E0,0E0,0E0,0E0,0E0,0E0,0E0,0E0,0E0,0E0,0E0,0E0,0E0,0E0,0E0,0E0,0E0,0E0,0E0,0E0,0E0,0E0,0E0,0E0,0E0,0E0,0E0],"parents":[2147483647,0,0,1,1,2,2,3,3,4,4,5,5,6,6,7,7,8,8,9,9,10,10,11,11,12,12,13,13,14,14,15,15,16,16,17,17,18,18,19,19,20,20,21,21,22,22,23,23,24,24,25,25,26,26,27,27,28,28,29,29,30,30,31,31,32,32,33,33,34,34,35,35,36,36,37,37,38,38,43,43,45,45,46,46,47,47,48,48,49,49,50,50,51,51,52,52,53,53,54,54,55,55,57,57,58,58,59,59,60,60,61,61,62,62,63,63,64,64,67,67,68,68,70,70,71,71,72,72,73,73,74,74,75,75,76,76,77,77,78,78,79,79,80,80,84,84,85,85,88,88,89,89,90,90,91,91,92,92,93,93,94,94,95,95,96,96,97,97,98,98,99,99,100,100,108,108,109,109,110,110,111,111,112,112,114,114],"right_children":[2,4,6,8,10,12,14,16,18,20,22,24,26,28,30,32,34,36,38,40,42,44,46,48,50,52,54,56,58,60,62,64,66,68,70,72,74,76,78,-1,-1,-1,-1,80,-1,82,84,86,88,90,92,94,96,98,100,102,-1,104,106,108,110,112,114,116,118,-1,-1,120,122,-1,124,126,128,130,132,134,136,138,140,142,144,-1,-1,-1,146,148,-1,-1,150,152,154,156,158,160,162,164,166,168,170,172,174,-1,-1,-1,-1,-1,-1,-1,176,178,180,182,184,-1,186,-1,-1,-1,-1,-1,-1,-1,-1,-1,-1,-1,-1,-1,-1,-1,-1,-1,-1,-1,-1,-1,-1,-1,-1,-1,-1,-1,-1,-1,-1,-1,-1,-1,-1,-1,-1,-1,-1,-1,-1,-1,-1,-1,-1,-1,-1,-1,-1,-1,-1,-1,-1,-1,-1,-1,-1,-1,-1,-1,-1,-1,-1,-1,-1,-1,-1,-1,-1,-1,-1,-1,-1],"split_conditions":[-8.218198E-3,1E0,1E0,1E0,1E0,1E0,1E0,1E0,-8.153983E-1,-5.9523857E-1,1.3862725E-1,1E0,1E0,-3.1956516E-2,1E0,3.5878697E-1,1E0,1E0,-7.267491E-1,-8.887849E-1,9.77605E-1,1E0,-9.9619824E-1,1E0,1.0695782E0,1E0,1E0,5.3068E-1,7.103127E-1,1E0,